72 100
a 0.003325982 -0.0009198098 -0.0034000704 0.002516988 -0.0046294583 0.0027605814 -1.8349729e-05 -0.0008890505 0.0047778133 -0.0024623037 0.0041723754 0.0039739795 -0.004630645 -0.0013814699 -0.0037401237 0.0021907613 0.0010269074 0.004681016 0.0013269403 -0.0024430358 0.00019941907 0.0023141168 0.003345564 0.00027905466 -0.0006026036 0.002367321 -0.00085902406 0.0019644438 0.0012851747 0.0011722797 -0.0048437365 0.00083654036 0.0043548495 -0.0026954762 -0.0007877646 -0.003035149 4.566367e-05 0.0011891094 -0.004811429 -0.0025085506 -0.0040891427 0.004010875 0.0008037836 -0.0010325344 -0.0026475613 0.0038708886 -0.0005955956 -0.0048077465 0.0007673628 -0.0017605441 -0.0018740954 -0.00037475987 -0.0024679925 -0.0017120583 -0.0044133337 -0.004497817 0.003710045 -0.0036200539 0.0038604017 -0.0043815705 0.0016526096 0.0009744343 -0.00032163004 -0.002229402 0.003215199 0.00090584223 -0.0036278025 0.004220647 -0.0004581044 0.0016892193 0.00014000869 -0.0020901677 -0.0017054852 -0.0035211588 -0.0008835825 0.0024614686 -0.0043704077 0.004736113 0.0005041207 0.0029746967 -0.004870974 0.0010606032 -0.004898076 0.0002110127 0.003522351 0.0035330057 -0.002036077 -0.0013216799 0.0036683432 -1.4708941e-05 0.0016709331 -0.0031583142 0.0017998692 -0.0008916727 0.000990323 -0.0032174739 -0.003926985 -0.004780084 0.0015076444 -0.000535631
the 0.004832851 0.0019779166 -0.0034953544 -0.0049744854 -0.0023814049 0.004306466 -0.0007325665 -0.0021222625 -0.004401643 -0.003695768 -0.0007716587 0.0027317326 -0.0020707776 -0.0044418783 0.0001960399 -0.00273233 -0.0010425304 -0.0032128056 -0.0047151814 0.0005519991 0.0042409385 -0.004009251 0.002304419 -0.004956844 0.004884371 -0.0021056281 0.0043282877 0.00040498772 -0.00064493826 -0.0029377008 -0.0013879128 -0.00481405 -0.0035292276 -0.002153238 0.0011857884 0.0030625327 -0.0008882067 -0.004269379 -2.4140769e-05 -0.0008579304 -0.0005767485 -0.004591425 0.0020306935 -0.0014249672 0.004430037 0.0013422804 -0.0013424198 -0.0035491448 0.0010728023 -0.0016908883 0.004208609 0.0030508311 0.0021442834 0.0006785471 -0.0033007285 -0.0024995774 -0.0035449415 -0.0034655342 -0.0044727162 -0.003466753 0.004057233 0.0048320526 0.004752012 0.0025452394 -0.0008915569 -0.0032890511 -0.0016761004 0.0022088527 0.0031834168 -0.0015064082 -0.0041212603 -0.003841047 0.0007346788 4.9318005e-05 0.0004518831 -0.004658411 0.0017599304 0.0031049966 -0.004026988 0.0041511096 0.0015100039 -0.0014271426 0.0003476669 0.0012486716 0.0036787074 -0.0009570455 0.0032411148 0.00326296 0.0012895683 0.0005615621 -0.002757277 -0.0022619094 -0.001962242 0.0041187243 0.00012672714 0.0032198003 -0.0022903755 -0.0043789507 0.0031224708 -0.0032950263
it 8.88545e-05 -0.004366509 0.0046351138 0.001580076 0.0009904964 -0.0012811106 -0.00062020036 0.0006047686 -0.0016007615 -0.0002025219 0.0028624765 -0.0048198295 0.0003201672 0.0019131982 -0.002729438 0.00145136 -0.00089960045 -0.004378047 0.0019847676 0.0004020735 -0.004589986 -0.0038866205 0.004692537 -0.0034361803 -0.0034978173 -0.0014773693 0.004838326 -0.003616208 0.00020983515 -0.003746352 -0.0011669025 0.0023525737 0.003323532 -0.004950077 0.002368321 0.002611992 -0.00082207314 0.0017947035 0.004873797 0.0040762513 0.004791632 0.002024197 -0.004859442 0.0032457942 0.0043808105 -0.0049527637 0.0033393018 -0.0026903527 0.0016469439 0.003472099 -0.004832351 0.0033722634 -0.0026369183 0.0014157993 0.0032259899 -0.0028828906 -0.0009347372 -0.0016105999 -0.0036334826 -0.0014911037 -0.004474617 -0.0013890588 0.00045371152 0.0034052336 -0.0017226044 0.0030949777 -0.0011489223 -0.0043758596 0.0001347846 0.00090910227 0.004662689 -0.0010163295 0.0047836537 -0.0004995096 -0.0032378633 0.0023097065 0.0026993107 -0.00060144585 -0.0030434085 0.0015345891 -0.004983734 0.0041026054 -0.004034286 -0.0047728173 -0.0036915843 0.0026767016 -0.0038491203 0.0044829086 0.0039151036 1.8546005e-05 0.0005745574 1.5703794e-05 -0.003522676 0.002183168 0.00011792495 0.0009983522 -0.0010204791 -0.00074832706 0.0015810389 0.0012789144
content 0.0022262053 -0.0048024678 -0.0013121112 -0.002897753 0.00282976 -0.0009150722 -0.004289056 0.0018352909 -0.0033598666 0.0023696553 0.0022319888 0.00072456314 -0.003997677 0.0012800157 0.004499809 -0.00048169898 -0.003480694 0.00243964 0.0025662368 -0.0006625604 -0.00032697595 -0.0021325168 -0.00043730735 0.0017601461 0.0030980355 0.00010287414 -0.0015893949 -0.003881365 -0.0034918825 -0.0035442337 -0.0028130978 0.0011343781 0.00233384 0.00035003122 0.0012369333 -0.003268236 0.0036125567 -0.0024920914 0.0024049806 -0.0011105646 0.001740493 -0.0016105609 0.004088014 -0.0031035182 -0.003758927 0.0011157172 0.0042563076 -0.004793389 0.0007831272 -0.0046563027 0.00094855245 -9.322527e-05 -0.0006537512 0.0036852106 0.0002290154 0.0045241923 -0.0020218906 0.00019980007 0.0021992577 -0.0032713208 0.0035590155 -0.004200716 2.6572305e-05 -0.00068719464 0.003995537 0.004560957 -0.0044072256 0.0029004777 -0.0001735302 0.004903761 0.0017950796 -0.0016282788 -0.002524046 0.0020743827 0.0020218354 0.00015643 -0.00479048 0.0036762888 0.00031285587 0.0032403937 0.0018881512 0.0014843971 0.0006524014 -0.0026820898 -0.0015221747 0.0023784766 0.0044330345 -0.004769886 0.002794457 0.00182779 -0.0038090672 -0.004381877 -0.0029577469 0.0044789743 -0.001492878 -0.0013557324 0.00042188246 -7.303764e-05 -0.0018954218 -0.0007305119
of 0.0020764908 -0.003273251 -0.0035963047 -0.0012868913 -0.0020389196 0.0037344506 -0.00072632905 -0.000845358 0.004036422 0.0012959971 -0.0049690544 0.0011248043 0.0025720494 -0.0033992098 0.00059972866 0.0046051596 -0.0012549569 0.001672417 -0.002495636 -0.0017668868 -0.00024933144 0.0012979152 -0.00035389868 -0.0036808585 0.0032664048 0.00059553416 0.0013658889 0.0039484953 0.0045092613 0.004978584 -0.0014052478 0.003261523 -0.0032423604 -0.002596927 -0.0034168372 0.00077491865 -0.0023686972 -0.0015535695 -0.000830828 0.0016422563 0.0038798912 -0.0037593152 0.0044421637 0.002583429 -0.0021154366 -0.0020529206 -0.00081750803 -0.0004291998 0.00082673214 -0.002128593 -0.0015643714 -0.004976994 0.0029653504 -0.0009834921 0.00030665338 0.0011583114 0.0047933063 -0.0018043468 -0.0019344797 0.0027839562 0.003620693 -0.0014460477 -0.00077286316 -0.0010876725 0.002722252 -0.0038716958 0.0007859712 0.0031153872 -0.0032356086 6.1546874e-05 0.0016354434 0.0009819447 0.0013320704 -0.0047377176 -0.0027732435 0.00020354608 -0.0020132028 0.0021103907 -0.0033383863 0.00040941156 -0.0016388721 0.0017065019 -0.002493533 -0.003593425 -0.003743857 -0.0006285703 -0.002099542 -0.0035675026 -0.0032772692 0.0021942805 -0.0049504205 0.001230962 -0.003441166 -0.0016252154 0.0025917199 0.0008778213 -0.0025839237 -0.002840359 -0.0046375464 0.0030156076
lorem 0.0019290895 0.0034282708 0.0036516136 -0.0007092038 -0.0036679062 0.0024089806 -0.000105716455 -0.002215044 -0.0025467377 2.0069016e-05 0.0022252873 -0.0032448552 0.0008607177 0.0001647741 -0.003951606 0.0016362976 -0.0016383528 -0.0026873332 0.0032955848 0.003758805 0.0025903627 0.0027354425 -0.0028545684 -0.0006484503 0.0012477913 -0.0046913465 -0.0018760867 0.0046862457 0.0015239235 0.00333901 -0.0018625377 -0.0018609837 0.0042774705 0.0047443765 0.002693245 -0.0032218916 0.0045954967 0.0007332734 -0.003312867 -0.0005141159 0.0014481017 -0.0009556864 -0.0020637107 0.0022297858 -0.0034635009 0.00040276212 -0.002749595 0.0015326383 0.0042432398 0.0031754735 -0.00041604965 0.0048615993 -0.0033253399 -0.0030411088 -0.0009639858 0.004471715 -0.0021339904 0.0011723199 -0.0044202353 0.0014465549 0.0024237183 0.001737132 -0.00016577789 -0.0039727245 0.0040910556 -0.001907165 0.0020082677 -0.003533009 -7.9324884e-05 -0.003110192 0.0020070141 -0.002228649 -0.0028005426 0.0013845834 -0.003888754 -0.004006786 0.0025341238 -4.5721306e-05 -0.0016599899 0.004984544 0.0048767664 -0.0026934368 -0.0025452727 -0.0030806991 0.0011131385 -0.0017953558 0.0015542295 -0.0036695779 -0.0038152025 0.0027584455 -0.0036130361 0.0012884988 -0.0023349451 -0.004805596 -0.0016233377 -0.0007923256 -0.002024998 0.004497057 0.0030734993 -0.00044866352
ipsum -0.003077717 0.003823279 -0.0026124273 0.00073807855 -0.0023449324 0.0033694084 -0.0038893668 0.0004793267 0.00038283013 0.004519521 0.0013731415 0.004916299 -0.002626266 -0.004316935 -0.0024662889 -0.0048673 0.0020693194 -0.0027449233 0.00447046 0.0014444691 0.0041167387 0.0049571316 -0.004202108 -0.0011200528 -0.0014092532 0.0029451798 0.0038779897 -0.0008511555 -0.004125823 -0.004228826 0.0041470323 0.002219361 0.0023259034 0.00089638715 0.0022500728 -0.0017284348 0.003031405 0.0012220646 0.001793258 0.0046971384 0.00067241606 -0.004500372 -0.0025113309 -0.0035767101 -0.00082499697 0.00201415 0.004543119 0.0021466159 -1.862003e-05 0.003919499 0.0013301568 -0.0022856512 0.00088450237 -0.004466319 0.00223938 -0.0026494586 0.002098933 -0.0018685323 0.0042420686 0.0028981254 -0.0040399735 0.001849681 0.0010630155 0.004677459 0.00010993024 -0.0029207247 -0.0013270556 -0.0010794505 0.004943244 0.0016175378 0.0011806563 -0.0035547891 0.0027983768 -0.004190415 -0.0014267846 0.004165717 -0.00072905543 -0.0033745063 0.0033763181 0.004714449 -0.0044285688 0.00017588683 0.0039272658 -0.0030863665 -0.003399513 -0.004641663 1.4037096e-05 -0.0011289914 0.00032008035 0.0046007116 -0.0029672072 -0.0036515845 -0.0032315992 -0.00025854306 -0.001148766 -0.0017228964 -0.0037823385 1.8559693e-05 0.0046303724 0.004089656
and 0.0036115136 -0.004873383 0.0016820534 -0.0021349383 -0.00013015943 -0.005017095 -0.0024195514 0.004132947 0.0045969333 -0.0010303677 0.0023197944 -0.00076071324 -0.0019631274 0.0024437215 -0.0024675177 -0.0032160205 -0.0044073556 0.004084103 -0.0011048291 -0.001802522 -0.0018570555 0.00030351654 0.0023230026 0.00090526347 0.0026169568 0.0043560946 -0.0026997947 -0.004260801 0.0042339205 -0.0014776931 -0.0039872066 0.00055454735 0.0021353043 -0.0034038455 0.0041512838 -0.0016605142 0.0014392268 0.003871 0.002660607 0.0030930738 -0.0018919699 -0.0012090368 0.0013226905 -0.003339383 -0.0028260478 -0.0046141664 -0.002874647 -0.0032809298 0.0032497426 0.0036252895 0.0032483456 0.000506329 0.0030681815 -0.0040344214 -0.0040582344 0.0014711218 0.001212861 0.00258412 0.0030034978 -0.0011042673 0.00475541 -0.0015145545 0.0048108026 0.001821888 0.003021993 0.0032768454 0.000869565 -0.004234994 0.0046710377 0.002733036 0.004040836 -0.0023426095 0.003592257 -0.0026824393 0.0030830575 0.004221663 -0.004360262 0.003559577 7.500805e-05 0.0035294516 0.0020291628 -0.0038632047 -0.00070419343 -0.0031507877 0.0049782326 0.004640964 0.0019261788 0.0021699665 -0.004424575 0.004956348 -0.0032125157 0.0029985784 0.0033211836 0.0029574796 0.0020175385 -0.00014161384 -0.0010684185 0.0037965488 0.0017700513 -0.0045859423
is 0.0003505223 0.0042941333 0.0007144599 0.0016327695 0.00067085424 -0.0039010914 -0.0021389783 -0.003226768 -0.001573956 0.0045773145 0.003367375 -0.0042626965 -0.001014097 -0.0023292764 0.0019559152 0.0024227374 -0.00015795317 -0.0045577753 -0.004121122 0.0034255642 0.00076978933 0.001571297 0.001977502 0.0030969756 0.0024026744 -0.002912279 0.004642105 0.00084705086 -0.00173127 0.00019611062 -0.0008383988 0.0021138657 -0.0007182983 -0.0042807586 0.0044834088 0.000845611 -0.0010920414 0.003627258 -0.0035690926 0.0014556192 -0.004558642 -0.002959065 -0.0038832922 0.0023763373 0.00012825901 0.0015263745 0.0013995606 0.0029779056 0.0018741521 0.0038388867 -0.0014901999 0.0017867961 0.0037649693 0.0006638127 0.0036941995 -0.00131234 0.003493219 0.0027176647 -0.0005780718 0.0008294981 -0.0012418716 5.752755e-05 0.0042657712 -0.00013701558 -0.0029602386 0.00209116 -0.001253365 0.0008844753 -0.0049407007 -0.004372785 0.0043268404 -0.0042808917 0.0028018502 -0.0047764126 0.004120338 0.0026938017 -0.00046523468 -0.0008665093 0.00043776262 0.0019981763 0.0027307814 -0.00267874 0.0037623066 0.0048093805 -0.0011498869 -0.002808317 0.0038620103 -4.8248163e-05 0.004576845 0.004242545 -0.0014170351 0.0033209003 -0.0027080432 0.0012013845 0.00415932 -0.003983409 0.0031880059 0.002753515 -0.0024672202 -0.004139527
that -0.00077717536 0.00011381734 -0.00372069 -0.0017594505 -0.004181875 0.0021301096 -0.0031773495 0.00015967812 0.0021205498 0.0038043815 0.0011186174 0.0013695193 -0.0022138874 -0.0015403486 0.0047010034 -0.003223775 0.0009651276 -7.6180615e-05 -0.0004442099 0.0039343485 0.004078489 0.003086869 -0.002312681 0.0047293 -0.0014789966 -0.0009979518 -0.003047216 -0.0049964935 -0.0007252692 0.0038026264 0.0026530428 -0.002662264 -0.0035762703 -0.0036880176 -0.0037578582 -0.0014923997 -0.0022443212 0.0014398283 0.0041186535 0.0017082446 -0.004829914 0.0002846679 -0.0017362139 0.0018624901 -0.00084601395 -0.003683144 0.0033734003 -0.0041968166 -0.00039605316 -0.0032670822 0.0031499667 0.0036827014 0.0009546572 0.003971215 -0.004484699 -0.0016584747 -0.0012198441 0.0010976669 0.0048609287 0.0049319468 -0.00044803612 0.00059343217 0.0017447995 0.00023470621 0.004020611 -0.0007634267 -0.0035270764 0.0014848337 0.0026185932 0.0012369192 0.0027795814 -0.0030500165 -0.0017138685 -0.0006309662 -0.003716048 0.0034922669 -0.0005531414 -0.002152858 0.0036602556 0.00034711632 0.001262137 -0.0034170726 0.0012701474 -0.0028342388 0.002128148 0.004581781 0.0006064839 0.00062292186 -0.0017852703 -0.00016686207 -0.003007488 -0.0036513158 -0.0043086014 0.004831123 -0.004150485 -0.002194853 0.0015814683 -0.0033233142 -0.0008688335 -0.0022294805
will -0.004677072 -0.00079171476 -0.0037751864 -0.0046209847 0.0049702404 0.002236898 -0.0026034133 -0.0032030768 -6.5827e-05 0.0025317236 0.00430216 -5.9960894e-05 7.623589e-05 -0.0029834248 -0.0030713438 -0.004936944 -0.0022124222 0.0006840471 0.0025366752 -0.0033116734 -0.0033898093 -0.0026454825 -0.0016470004 0.00078467245 -0.0006762557 0.004707884 -0.00380998 0.0007770378 0.0030588 -0.00402627 -0.00083504023 0.004403619 -0.0012965814 -0.0046965294 0.0029615993 0.0017665807 -0.003583317 -0.0039203167 -0.003138883 -0.0047892043 -0.0043211943 -0.001823529 -0.0020296727 0.0026673165 0.0017873592 -0.0022435558 0.004335973 -0.0016328902 0.00053217704 0.0012924836 -0.00095434237 -0.003814189 -0.0042274557 -0.0006981927 -0.0038902299 0.002561732 0.0016526176 0.000283261 -0.0029240616 -0.00483829 0.0013506045 0.0043218057 0.004490137 -0.0029396194 -0.003219486 -0.0005934493 -0.0010877047 -0.004711442 -0.0038908503 -0.0042797625 0.0043467428 0.0036139386 -0.0043885685 0.00071643695 -0.0040798397 1.7384666e-05 -0.0017564989 -0.0040684347 0.00021169988 0.0024732032 0.0028303743 0.0047147614 0.0004445728 0.0030905388 0.003775044 0.0027954015 0.004119482 0.0032913324 -0.002813517 -0.003441396 -0.003149743 0.0020584986 -0.00046710065 0.00500121 0.002647039 0.00018515218 -0.003440934 -0.0037838344 -0.0026494607 -0.0020860787
by -0.0020953142 0.004699529 -0.0022106643 -0.00019585807 -0.00064338616 0.0010863019 0.00022948548 0.004335815 -0.0014575153 0.0025942638 -0.00041011322 -0.004515268 -0.0035330325 0.0039363042 -0.003212358 0.0021008262 -0.004872885 -0.0043486324 -0.0037996045 2.8292357e-05 -0.0033839012 0.002583422 -0.0038979251 -0.0026477263 -0.0042197057 0.0049076355 0.0022845434 0.0013681833 -0.0024414435 -0.0012949593 0.0020802454 -0.004570362 -0.00072145445 -0.0031828366 0.0018427563 -0.0014119783 -0.0048197084 -0.0040652324 -0.002559621 0.003326584 0.0014110852 -0.0014890782 -0.00144311 -0.0042838803 -0.0018175057 0.00044631312 0.0010550739 -0.001813056 9.722876e-06 -0.0011988176 0.0030765608 0.00089906214 0.0034688737 0.00049705093 -0.0033897753 0.0020453976 0.002283428 0.004280338 0.002763711 -0.0043229936 0.0035594741 0.004387788 -0.0044173854 0.00093496585 -0.0022687644 0.0025034188 0.0048248507 0.0032126878 0.003921493 0.0017863042 0.0013949365 -0.00031116264 -0.004016022 0.00057513907 0.003007899 0.0041742567 -0.0036398584 0.0008123745 0.003926943 0.0002417625 0.0034372418 -0.0027522682 0.0012380143 -0.0022771908 -0.0049922313 -0.00202663 0.0044049644 -0.002332536 -0.0020759585 0.0031543402 -0.004256326 -0.002217008 -0.001324058 -0.0032008016 -0.0038981913 -0.00496339 0.0028273324 0.0027329086 0.0046614427 -0.00012236736
readable 0.0020960344 -0.0021365902 -0.00077939953 -0.0048088124 -0.001872247 -0.0008731068 0.0040824595 0.00469616 -0.0011474409 0.001342712 -0.00056429114 0.0047408035 -0.004329615 0.0035898515 0.0005504896 -0.004121277 0.00462084 -0.0028893454 -0.0045734877 -0.0018195963 -0.0032903024 -0.00025960951 0.0010279745 -0.0005228514 0.0010593093 -0.00033200937 0.0026630121 0.002260159 -0.002034885 0.003998997 0.0025773419 0.003516458 0.0005632716 -0.0006037018 -0.004928297 0.0028668947 0.0023261728 -0.0030367104 0.0022359288 0.0031411513 0.00041984572 -0.0023798102 -0.00037080282 0.0038371682 0.0016266059 -0.0024926136 0.00081793836 0.0046287915 0.0019986955 0.00016985473 0.002568766 0.0043842583 -0.0014144152 -0.0031573148 -0.001349324 0.003509168 0.0019731885 0.0036772224 -0.0007816883 0.0033376208 0.0021313056 -0.00125658 0.0030711568 -0.0007932271 0.0004311569 -0.0019148153 -0.002348084 -0.00012863868 0.004986469 -0.0022481347 -0.004018371 0.002674909 -0.0041824323 0.0020669198 0.00097188883 -0.0031312888 -0.0032776599 -0.0046398 0.0039991834 0.003726366 0.003428286 -0.0029147961 -0.0032370081 -0.0011102625 0.0006122168 -0.0010936487 -0.0020549982 0.00030690018 -0.003756744 -0.0030337684 -0.0015533067 0.0025020118 0.0026974743 0.002212115 0.0021067243 0.002553426 0.004781172 0.002036723 -0.002938708 0.0036942195
page 0.001519596 -0.0043875747 0.003990846 -0.00497557 -0.002791076 -0.0019890515 -0.0036181072 -0.0027698642 -0.003251715 -0.0036689776 0.0019251438 -0.0014864207 -0.00016896593 -0.0010281792 -0.003846647 -0.0025245524 0.0016195107 0.00024782066 0.0034551052 -0.002237479 0.0016722336 0.004105612 -7.6447934e-05 0.003751624 0.0034261602 0.0041567707 -0.0018279274 0.0003502819 0.004714587 0.0014212877 0.0028712132 0.002587185 -0.00014995191 -0.0025343641 -0.004171391 0.0006247489 -0.0043827835 -0.0014849266 -0.0047309413 0.0027055622 -0.0025111951 0.0011010783 0.0009902831 0.004326661 -0.00439626 0.0046295677 0.001558293 0.0031946248 0.00034391994 -0.00074382743 -0.0045283334 -0.0005274408 0.0015484485 -0.0045337235 0.0037380296 -0.0046300488 -0.0013220208 -0.003805675 0.001571491 -0.00083611463 -0.004900233 -0.00040819086 -0.0026092967 0.0021359937 -0.00069746916 0.0020516769 -0.0027955135 -0.0006510872 0.0040157423 -0.004898125 -0.0030854496 -0.00063438306 -0.0049448805 -0.0002615063 -0.0004275141 -0.002913862 -0.00044451343 0.0014161257 0.0035799162 -0.0044806413 0.0042464067 -0.0014474443 -0.0021303047 0.0013562812 0.0016867096 0.0028847766 -0.002914406 -0.0048861285 -0.00055896956 0.003409028 -0.0008776481 -0.0021292113 0.0023859271 -0.0007281922 0.0016828809 0.0047921296 0.004183631 -0.00013745317 0.004306846 0.0034924326
using -0.0020731448 0.0024686756 -0.00488194 0.0027044558 -0.0028183374 0.004653253 -0.0032838236 -0.0017701442 -0.00053231505 0.0012478223 0.00478704 -0.0022271827 0.0048868693 -0.0006810316 0.0031284727 0.0019994678 0.0021063334 5.6612003e-05 0.00075360807 -0.0001595559 0.0018321421 -0.0025836865 0.00015883947 0.004120016 -0.002156732 0.0032711362 0.0048980718 -0.0023289672 -0.0023429424 -0.0023083973 -0.00031678687 0.0043813605 -0.0026017074 0.004758404 -0.0034151191 0.00451167 0.00011500837 -0.002117221 0.0014648868 0.003962527 -0.0046049054 -0.0014378856 -0.002830312 -0.003988173 0.0034462002 0.0037199785 0.003922165 0.0015734396 0.0027764025 0.0035146629 0.0014613406 0.0021818362 0.0006096581 -0.0029238476 -0.00033004122 0.0043843277 0.0004849322 -0.0018277416 0.00061438745 0.004365345 -0.004570065 0.00090445 0.00062928756 -0.0013384054 -0.0031338094 -0.0012609246 0.0012998411 -0.0033328845 -0.003335405 0.0038235392 -0.001182016 -0.004638789 0.0043771337 -0.0047283885 -0.00063271413 0.003249899 -0.004395456 -0.0005732329 -0.002557236 0.0033813566 -0.0026956175 -0.0036996962 0.0035725834 -8.1291204e-05 -0.004877098 -0.00397674 -0.001395839 -0.0015402349 -0.0014899571 0.0005836511 -0.002079327 0.0029706878 -0.00187487 -0.0046386537 -0.004888784 -0.0046457946 0.0042057307 0.003732821 0.0025203137 -0.004373833
as -0.0014948773 0.004951594 -0.0028961494 0.00077616365 0.0037917204 -0.0013771171 -0.004853633 0.0044588805 -0.004709304 -0.002211636 -0.002600704 -0.0010045564 0.0039762626 0.00067656336 -0.0022033576 0.0034143678 -0.0041054506 -0.0035277929 -0.004968582 0.0032452536 -0.0022947614 0.0007635911 0.0007176002 -0.0038046772 -0.0022093526 -0.002593769 -0.0032917527 -0.0019510261 5.6083005e-05 -0.00067702687 -0.0020727057 0.0032064277 -0.0039953613 -0.0015387156 0.001419665 1.8292416e-05 0.0020953119 0.003925975 -0.0015524111 0.00017432962 -8.062975e-05 -0.00067621324 -0.0021868963 -0.0025956503 -0.0049795206 -0.003802232 -0.0001859821 0.00043231552 -0.003200864 0.0009975041 0.002107031 -0.0017988815 0.0024795425 0.0001459486 0.00062891946 0.0014091464 -0.00023494678 -0.0013025684 -0.00068815623 -0.0022303741 -0.00036444995 0.00344011 0.0017473033 -0.0013783256 0.001751184 -0.001514849 -0.000749758 -0.0037032485 -0.0014592031 -0.00011062864 0.0014383042 0.0015604068 0.004798734 0.0030325165 0.0032355497 0.0038136304 -0.0034917332 -0.0029534528 -0.0041298447 0.004757262 0.0039355145 -0.0041308156 -0.0032177644 -0.0021155803 0.0045290804 -0.004450802 0.002757756 0.00186955 -0.0027217832 -0.0033784325 -0.000588882 -0.0037654368 0.0032183775 -0.004400597 0.0015675626 -0.0043060267 0.0007686893 0.0021553854 0.0042148693 -0.0026676082
here -0.0039308546 0.002386387 0.004688368 0.0035621047 0.0011179529 0.004564534 -0.002321898 -0.00026626082 0.0010538716 0.00081922224 -0.0027081934 -0.002317654 0.0022465733 -0.0008746248 0.0005039301 -0.0021914754 0.003522845 0.004464043 -0.0038305675 -0.004351032 0.0008802004 -0.0011722442 0.0036400934 -0.0035367564 -0.00044054433 -0.0013165477 -0.0013774581 0.0039411867 -0.00027635804 0.0046442407 -0.00096160505 -0.001540347 -0.0013447398 0.0018385724 0.00019791284 -0.00021557455 -0.00074484985 2.2836573e-05 0.004707946 -0.002775773 0.0014958146 -0.0049849288 -0.0018585841 -0.00041783284 0.004499996 0.00011310108 0.0026063777 0.002048754 -0.0037631416 0.0045664767 0.0006285431 -0.002697128 -0.0048290216 -0.004449446 -0.004246379 -0.004242501 0.0040143593 -0.0032851864 0.0021340235 0.0009689523 0.004685075 0.0010938324 0.0036173412 -0.0025805847 -0.0014005166 0.0021051439 -0.0013588492 0.0007025936 -1.6601314e-05 -0.0033916514 -0.0031822082 0.0041489927 -0.00034442474 0.0019409161 -0.0034176959 -0.0022981935 -0.00010399924 -0.0016510788 -0.004286007 -0.0032822078 -1.0538064e-05 -0.0026099035 0.0044913315 -0.004736607 0.003473007 0.003964694 -0.0038967163 0.0008823017 -0.0016702287 0.0036091323 -0.004719879 0.00084475917 -0.004805514 -0.003991185 -0.0029071176 0.00461208 -0.0005707337 0.0032178753 0.002714995 -0.0027748137
like 0.003430604 -0.0010122851 -0.0018513864 0.0036682617 -0.0040730336 -0.0035379909 0.0039945277 0.00041237517 0.0016320148 0.0047625257 0.0022255671 0.0037843257 0.0014776713 -0.0011646204 -0.0048565296 -0.0027988672 -0.00023101325 -0.0029635988 0.0031750726 -0.0049791103 -0.0021192248 -0.0034078043 -0.0014522643 -0.004559081 0.004015827 -0.0046847155 0.0014805191 0.0023040273 -0.0003309487 0.004910299 -0.0014757715 -0.0006995247 0.0021870644 -0.0007998586 0.0008254112 0.00083257584 0.0011832045 0.004563218 0.0017944621 -0.004316373 -0.0033964212 -0.0044119726 0.0013917986 -0.0035805379 0.0016255577 0.0025250025 0.00457975 0.00025774993 0.0005494839 0.0044282987 0.0043588015 -0.0037501343 0.004013184 0.0021967385 -4.2009182e-05 0.004102959 -0.0007462588 -0.0010245824 0.001462218 0.00286622 0.002416493 -0.00023889888 -0.0020640271 -0.0010811692 0.0008852117 -0.0037115293 0.0016332864 0.0035058237 -0.004851426 -0.0041295607 0.0018277041 -0.0049482617 0.001129318 0.0038672956 -0.0045078774 -0.0019609139 -0.0018940785 -0.004286927 0.0043644807 -0.0018739578 0.0012198057 0.00073417043 0.0033418247 -0.0006790871 -0.0047124433 -0.0036769884 0.0032319385 0.003143533 -0.0015540331 0.0032783546 -0.002446788 -0.004444741 0.0022362457 -0.0025087942 0.0034166388 -0.0011172375 0.0031080924 -0.004455805 0.0023902322 -0.0012906756
many 0.0047149807 0.004577567 -0.0025058195 -0.0037330843 0.00021686402 0.00047123752 0.0034584815 0.0008638032 -0.000681048 -0.0011212445 -0.0028004097 -0.00042377805 -0.0049922727 -0.005012494 0.0023804544 -0.0049542873 0.004500434 -0.0023803385 -6.714877e-06 -0.0046852054 -0.0023918243 -0.004710265 -0.0039367867 -0.00053470954 0.0030516149 -0.00033908171 0.0008213206 2.3632234e-05 0.004411256 -0.004899565 0.0026820097 0.004993587 -0.004093724 0.0015393059 -0.00043996412 -0.004318367 -0.004030496 -0.0029333357 -0.0031864452 0.0013554458 -0.0035727588 -0.0018862354 -0.0009763787 0.0019991633 0.0019650506 0.0013173331 0.0049979934 -0.0029993062 -0.0045827273 0.00482147 -0.0014439005 0.0018435149 0.0006547846 0.0004733292 0.004052864 0.0038312762 -0.0031120793 0.00043598673 0.0027598625 0.00468074 0.0037716385 -0.0015139864 0.0037445982 0.0010039043 0.0012708635 0.0013377105 -0.003919917 0.0021399863 0.0027518403 0.0025227903 -0.00090498 0.0010189288 0.00026406464 -0.0017170259 0.0010917628 -0.004306105 0.0011932167 0.0007849717 0.00041421296 5.9752907e-05 -0.0010380235 0.002845832 0.0026800865 -0.0027999664 0.00042322796 -0.003921742 2.169793e-05 0.0019123342 0.0026370254 0.0024962793 -0.0027955177 0.0041436204 -0.004145263 -0.00012608874 -0.0030899055 -0.003284837 0.0015716194 -0.004381631 -0.0014039477 0.0048424574
web -0.0017360812 0.0029678263 -0.0017539633 -0.0031540415 -0.0008447833 -0.004447992 0.0006609896 0.0047899475 0.001207309 -0.001557605 -0.0006692696 0.0032331983 0.0015452029 -0.004201351 -0.0018875198 0.00010044937 0.0042918995 -0.0041072555 0.0039605885 -0.002910383 -0.0004639923 -0.0027446903 -0.004961136 0.0011911511 -0.00093036797 9.321189e-05 -0.0025249945 -0.0035917286 -0.0003474865 -0.0010056642 -0.0035009768 0.001488044 0.002136914 -0.004417729 0.0015150628 0.0021299012 -0.004719302 -0.0022265862 -0.0028074775 -0.0029128238 0.00093030813 0.0026394445 0.004537902 -0.003277474 0.004035826 0.0033216411 0.0015393929 -0.0019284369 -0.004588311 -0.00018588506 -0.0004165861 -0.00034746318 0.002055637 -0.0049338 -0.0026799245 -0.0046952763 0.0007446292 -0.003122671 0.0017989287 0.0028435248 0.0024510704 -0.0019462536 -0.0027694833 0.0032705138 -0.004016866 -9.277294e-06 0.00026104745 0.0011228853 0.0026451913 0.0034264277 -8.243481e-05 -0.0029916365 -0.0010985761 -0.0010657237 0.0009992205 0.00033166955 -0.0024559489 -0.004332958 0.00048528065 0.0015499188 0.004282547 -0.0033288673 0.0045940056 -0.0024367839 -0.00034650482 0.00017037922 0.0010403756 -0.000999099 -0.0014827426 -0.0022906824 0.00086092716 0.0005111452 -0.004876468 0.004631838 0.0012244256 -0.0048735733 0.0017487492 -0.0011198453 0.0007729575 0.0027475816
their -0.003925418 -0.002072552 0.0041919462 0.00072419236 -0.0014768895 -0.0036307645 0.0017825654 -0.0016872325 -0.002877839 0.004748662 -0.002380072 -0.0048859334 0.0013948944 -0.0038105354 -0.0043613818 -0.0030411733 -0.0016995396 -0.00017689823 -0.00019747936 -8.332942e-05 0.0031193334 0.0002816033 0.0015389349 0.0007301476 0.003819201 -0.0013328035 -0.0029089297 -0.0028663247 -0.0046114433 -0.0033411272 0.0036646056 -0.0034379524 -0.00061756023 -4.7795485e-05 0.0028853917 -0.0022566852 -0.0047255773 -0.0005215238 -0.00046672462 0.0030157487 -0.001326315 0.0011954302 -0.002682558 -0.0015910577 0.004173765 -0.0007491559 -0.002177704 0.0024578718 0.001627331 0.0035379003 -0.00084123487 -0.0008476468 -0.0010893603 -0.004968159 0.0031342818 0.0015744774 -9.027618e-05 0.0031136817 -0.0026655598 0.0039756005 -0.0026554803 -0.0040720548 0.00040085852 0.0036034482 -0.0019498271 -0.0049152905 -0.004941899 -0.0010179082 -0.0035029512 0.0027793476 -0.00455618 0.0038505455 0.0024455492 -0.0043086624 -0.00017372478 -0.003097853 0.004583119 0.0018109158 0.003967143 -0.00084189855 0.0015589641 0.004951771 0.003936184 0.0030789077 0.0035885002 -0.0039337715 -0.0012584706 -0.0010959778 0.0022400452 -0.0029302794 0.0003428494 -0.0034012748 -0.00037347974 0.004203969 -0.0044441633 -0.0032468862 -0.003722571 0.00086610846 0.0030112641 -0.003332382
sometimes 0.002826316 0.0035868047 0.004188687 0.0034893726 0.00081953616 0.0033231045 0.002004963 0.004210743 0.00063970627 -0.0022403698 0.004357661 5.0763036e-05 -0.0036776965 -0.0022916335 0.0014815895 0.0030194696 0.000999074 4.838471e-05 0.0021894432 -0.0007324089 0.004370646 0.0017012703 0.0035461332 0.00038432382 -0.00017204304 0.0032280043 -0.0023920885 -0.0006613389 -0.0017506287 0.0023531565 -0.00096884795 -0.00012308937 0.0013053837 -0.004158534 -0.003073525 -0.0029977341 0.0013208092 -0.002223236 -0.0030907034 0.004269194 -0.004430387 0.004551167 0.0005591044 -0.0001772402 -0.004383657 0.004974534 -0.0049842945 -9.765726e-05 0.0030873723 -0.004916958 0.0036696268 0.0015451374 -0.0006681494 0.00033998262 0.002194957 -0.00018646066 0.0040619057 -0.004207124 0.00029900658 -0.0030560824 -0.0048973467 0.0037165214 0.0030055703 -0.00016074606 0.0029220376 -0.00393731 -0.0006092504 -0.003352069 -0.002493302 0.001504247 0.0014488064 -0.0016849758 -0.00054743263 -0.0005037124 -0.0034130234 -0.0009723846 -0.00027852927 0.004322761 -0.0032248965 0.0044567133 -0.0006308902 0.003942804 0.0007220463 0.0034678087 0.004263338 -0.0019808065 -0.0034083086 -0.0043008844 -0.0025994151 -0.0033573196 0.00274645 0.002982132 -0.0023734213 -0.0004438273 0.0021963539 0.0040649124 -0.0022854407 -0.004641741 -0.0038297342 -0.0039030714
long -0.00095381023 -0.0049138768 0.003618985 -0.0014929516 0.0035973436 0.0020068907 0.0013088329 -0.0027109704 0.0019085134 -0.0034941188 0.0007585015 -0.00043418916 0.0016766373 0.00011147619 -0.0049070576 -0.004612814 -0.004759035 -0.00074511947 -0.0039244425 -0.0029972119 0.0010181302 0.0047552106 0.0044291066 0.0024610949 -0.0025944232 0.0016284299 -0.0008326704 -0.00050730066 0.0013844995 -0.0013414983 0.0044779503 0.0008911274 0.00018278991 -0.0032770454 0.0031564073 -0.0004354181 0.0026585246 -0.0010429402 -0.0005410398 -0.00015637127 0.0029648107 0.003720974 -0.0009084039 0.0004584445 -0.0003562552 -0.0022989928 0.0023185038 0.0026696569 -0.003225954 -0.0012011597 0.002686489 0.002188576 -0.0039773574 0.0020994619 1.748246e-06 0.0024053075 -0.0016551607 -0.00180995 0.0018284296 -0.0037878114 -0.0014861362 0.0020015985 0.00082797284 0.0044265203 0.0016097437 -0.0019310692 -0.0025204695 -0.00059045566 0.003525262 0.0015019784 -0.0014564748 -0.0038198219 0.004054856 0.0012437069 0.0036668445 0.003744066 -0.0011015009 -0.0014837178 0.00068972213 0.0017079414 0.0015427949 0.00062809925 0.0040747114 -0.0027351428 -0.0010528341 0.0017598172 0.0041919523 -0.0032017585 -0.0014187581 -0.0011660468 0.00025711601 0.0037845755 -0.0026273718 0.0032249712 0.0017360252 -0.002366296 -0.0049605398 0.001704252 -0.0029641439 -0.003614401
established 0.0029199407 -0.004879941 -0.0016261662 4.7986265e-05 0.0012578954 0.0003358294 0.0009747112 0.0013332545 -0.0030992627 0.0007662584 0.003591442 0.0025406675 -0.002275828 0.003051022 0.004130115 0.0038796472 0.0016753962 0.0017405044 0.0020176917 0.003506186 -0.00070290617 -0.0032043192 -0.0004374001 0.0011849587 -0.004707602 0.002237647 -0.0030059984 -0.003366513 -0.004482407 -0.003386177 0.0016869633 -0.002800574 0.003303797 -0.0013660768 0.004939928 -0.0043060784 0.00036473636 0.0007367521 -0.004167226 0.0038337333 -0.0015186064 0.0013003304 -0.00095859 0.0015706823 -0.0036321464 -0.0004323484 0.004317946 0.00228068 0.0016891808 -0.0012845465 -0.0039297254 -0.0024486617 -0.0029858216 0.001731807 -0.0042156638 -0.0028145039 0.0003470438 -0.000701594 0.001873634 -0.0015037678 0.0002512412 -0.003923887 -0.003174764 -0.0047712885 0.0027114959 0.0046142135 0.001050755 -0.0039818436 -0.0029221685 0.00042410617 -0.0031262743 -0.00011737583 -0.0023597332 0.002893882 0.0009767269 -0.0039583533 0.0040970943 -0.0010708175 0.0022948948 0.0034003814 -0.0025569464 0.0042557106 -0.00062852196 0.0016098865 -0.0042709056 0.0013074045 0.0011578229 -0.0035575004 -0.0014305885 0.0047199773 0.0023980776 0.004798752 0.0043764757 0.0003625317 -0.0029512728 0.00092724065 -0.0029370878 -0.0025988813 -0.0021860572 0.00072713324
fact 5.9119222e-05 -0.0032237938 -0.004424367 -0.0038585137 0.0006942879 -0.0022120292 -0.0022361812 -0.0027863574 -0.003373763 0.0010581571 0.00077805313 -0.00229127 -0.004191965 0.0010181912 0.0025144026 -0.0037502088 -0.002056016 -0.004633269 -0.0040087346 -0.0014817426 0.0009974868 0.0004515518 0.0019074079 -0.0026767643 -0.0022149081 0.0043054563 -0.002177067 0.0049443217 0.0007083864 0.00081742933 -0.0009523068 -0.0016123204 0.0036313634 0.0003194131 -0.003208788 0.003270901 -0.004704854 -0.0020178868 0.00066583307 0.0037180928 -0.0026021467 0.0008068121 -0.0012239495 -0.0048019406 0.00047679123 -0.0040037096 0.002753182 0.0022113542 0.00082275923 0.0024098298 0.0030731158 -0.0006183099 0.004020608 -0.0029002286 -0.0007542713 0.003460005 0.0030817317 -0.00038857223 0.0035649624 -0.0038503176 -0.0042589568 -0.0030505515 -0.0019313367 -0.0030674364 0.0047809025 0.0006113271 0.0048346566 0.0016823985 -0.0015804846 0.0008412161 -0.0012055549 -0.00418108 0.002466652 0.001175577 -0.0018196871 0.0017787555 -0.0019922396 -0.0013280625 0.00484021 -0.001584184 -0.0038395051 0.0044838255 -0.0023719824 -0.0018636405 -0.0015097861 -0.003426464 -0.0012915223 -0.003223203 0.0012313628 -5.487704e-05 0.0022440508 0.0047851508 0.0036116051 -0.0028550061 -0.004858621 -0.0027192405 0.0023192705 -1.5718315e-05 0.0031620963 0.0025285624
reader -0.0028682726 -0.0015265882 0.0016186251 -0.0049509783 0.0010267227 -0.0029571014 0.002905668 0.004730564 -0.0033370557 0.0043037347 0.0023487862 0.004951969 0.0034728877 -0.0050054253 0.0015262553 0.00086293515 -0.0049678567 0.0020900269 -0.00031434622 -0.0048247767 -0.0007895457 -0.002195525 0.00010478921 -0.0048553357 0.0022177554 -0.004754905 0.0048776236 -0.0003574916 0.00059491635 -0.0014260308 -0.00047564646 0.0015724369 -0.0015429959 -0.0016983545 -0.0027375212 0.0038032772 0.004438893 0.0025053911 -0.0045457208 -0.004765247 -0.0025087395 -0.0024422111 0.0031123178 0.0013986584 -0.0046147476 -0.0011852415 -0.0022397859 -0.0011114354 0.0042922692 -0.002698307 -0.0008641917 -0.0009997309 -0.003776609 -0.0023265572 0.00010486832 -0.0024425518 0.003782825 -0.0015410411 -0.0027788116 0.0029541673 0.003567924 0.0014783712 -0.004472823 0.003862831 -0.00015074061 -0.0037288868 0.0016712506 -0.0025358344 0.0009558037 -0.004610969 -0.0010042879 0.0009747939 0.0041479124 -0.00046555756 -0.004999277 -0.0028934942 0.0032450021 -0.0035617414 0.001422234 -0.00015690768 0.0032053094 -0.0027812193 0.0008369654 -6.385823e-05 0.0005670859 -0.0007725908 0.0038650793 0.00056940113 -0.00045250083 -0.0027384455 0.004459468 0.0036477912 0.0038535078 0.0012257146 0.001747803 -0.0041492633 0.0018075492 0.004804145 -0.0045347516 -0.00017249942
be -0.0008155737 0.0018087003 0.0010660096 0.001891222 -0.003358875 -0.0044422536 0.0022062631 0.002851879 0.0020321289 -0.0032189714 -0.0037981588 -0.0015430186 -4.224151e-05 0.003115731 -0.0012888762 -0.0020057603 0.0037414078 0.0024510575 0.0013397981 1.7227316e-05 -0.0044998312 0.002393687 -0.0038599204 -0.0045827837 -0.0005308503 0.0014179564 -0.004730711 0.004664562 0.0044193845 0.0014211626 0.0028581645 -0.0044395505 -0.001803128 -0.0007297152 0.0016739683 -0.00211552 0.0021744983 -0.005004736 -0.0019574997 -0.0036676566 -0.0023606396 -0.00499529 -0.00045072805 0.004552398 0.002128468 -0.0005168573 -0.0022615124 0.0010977451 0.0003828493 6.1196035e-05 -0.0032194427 0.0017794302 0.0028171274 0.003725994 0.004474702 -0.0004978829 -0.0043098666 -0.00032634923 0.0004773204 -0.004372368 -0.0023321996 0.0041782637 0.0007664695 0.00078977837 0.0029440976 -0.0046547935 -0.0015499445 0.0037499785 0.00044204248 0.004250061 0.0030623188 0.0048307325 -0.003709548 0.000270471 0.0024129928 -0.00068678515 -0.0030766425 -0.004541493 0.0049334997 -0.0035684244 -0.004828787 0.003638891 0.00038718252 0.004939179 -0.003768368 -0.00017569099 0.0023490267 -0.00017076719 0.003529758 0.0008189221 0.0043071937 0.0043283277 -0.0019440755 -0.00069272704 -0.0028240387 -0.001289078 0.0020872564 0.0020525835 0.00091798004 -0.0019583711
distracted 0.0040970864 -0.0012685572 -0.00079902716 0.0046937056 0.004017709 -0.0037764222 -0.0038658634 -0.00056292815 -0.0030157892 0.0006097586 0.003889047 -0.0026141312 0.0049306373 -0.0010858617 -0.0024737555 -5.8509584e-05 0.0025440294 -0.0026420348 0.0010829949 -0.0047109337 -0.0010542979 -0.004411644 -0.004577982 -0.0009812152 0.00057692506 -0.0045845844 0.0010823752 0.0025080065 0.0046477513 -0.004880932 0.001152665 -0.0045643128 -0.0032828092 0.002653047 -0.0005683236 0.002149471 0.000108470376 0.0041709025 -0.0023736209 -0.0022458439 -0.00443543 -0.0013485694 0.0036810525 0.0041516926 -0.0020468915 -0.00095301337 -0.0021089127 -0.0020994267 0.003910216 0.0019005359 -0.0032401006 -0.0038581488 -0.00031397952 -0.0014203885 -0.0046249074 0.0026174856 0.0015831053 0.0026208088 -0.0022638007 0.001400421 -0.0013655662 -0.00059624406 0.0046353503 -0.004166327 -0.0039865677 -0.00334038 -0.0028814673 -0.0045033423 0.0041024764 -0.0029942605 0.003393862 0.001548007 0.00305485 -0.0048638014 -0.004816534 -0.004874991 0.0012785629 0.003572805 0.00059488305 0.0041258927 0.000362994 0.0019204555 -0.0004715209 -0.0045774872 -0.00014384597 -0.004458086 -0.0024610055 -0.0005695528 -0.0024341226 0.0049703065 -0.004363016 -0.0030712534 -0.0043919655 -0.0040589324 -0.0005956132 -0.0016483328 0.0027718828 -0.0029174043 0.0009677959 0.00073257834
when -0.0016716812 -0.0014851711 -0.003996036 0.0048746294 0.00390707 -0.0020808661 -0.0036715951 0.003666562 0.0035405073 -0.0007870196 -0.0011503664 0.0013523658 -0.00018191604 -0.0031823353 0.0025561862 0.0037432679 -0.0007935488 0.0029349006 -0.001967168 0.002306511 0.0044572363 0.004654202 -0.002049323 -0.004499289 9.711188e-05 0.003421445 0.00070024154 -0.0013219386 0.0018333852 0.002268649 0.002230538 -0.0015781041 0.0036758643 0.002471444 -0.0011440184 -0.0045882827 -0.0011520953 -0.0046321633 -0.00058902794 -0.0033609143 -0.004800024 0.0039817737 0.0030978322 -0.0036701835 -0.0033923567 -0.0008796845 0.0023195064 0.0041032247 0.004872024 -0.0025005257 -0.0010152863 0.0019421765 6.7679604e-05 0.0042739017 0.0010774416 0.0034080977 0.00074604334 -0.0013493631 -0.0035856052 0.0030618804 0.0010821105 -0.00078851107 0.003178906 -0.0031314413 -0.0010667735 0.0043023303 0.004664936 -0.0040106955 0.0011702729 -0.0041116048 0.0024006118 -0.0015901582 -0.003940628 -0.004140374 -0.0015216832 -0.0015700225 0.00188386 0.00081794197 0.0036575187 -0.0034792603 -0.0021118606 0.0029338074 -0.0022159931 -0.0026528873 0.0023451739 -0.0010126744 0.004229906 -0.0028060146 0.00040162753 0.00242312 -0.0016666255 0.0017555729 -0.0036612554 -0.0044731298 -0.0040191775 -7.759131e-05 0.0037084688 -0.0027336238 0.004633466 -0.003099295
looking -0.0013071627 -0.0048735184 0.00027566912 -0.0011115032 0.004155281 -0.002721072 0.0039524627 0.004803481 0.0011836877 -0.0037204972 0.0019535238 -0.0020407476 -0.0009079963 -0.0034833762 0.00053811993 -0.0020945824 -0.0032584742 -0.0040837945 -0.0029672799 -0.0035042935 -0.004310311 -0.0031704276 0.0042896783 -0.0011369818 -0.0039209607 -0.00041644316 0.0003040234 -0.0026806728 0.00072864664 -0.0017694555 -0.0036256074 0.0049563525 0.004897026 0.0028948213 -0.0026179715 0.000900976 0.003959262 0.0030868766 -0.0026078734 -3.7995072e-05 0.0013557407 -0.0043680854 -0.0032817975 0.0035473416 0.0001701574 0.003167215 -0.0030103608 0.0044294153 -0.0041306247 0.003280088 0.0026019323 -0.0024733352 -0.0006529588 -0.0030339542 0.0022360357 0.0029940936 0.00041752076 -0.00017076673 -0.0029483903 -0.0030846377 0.0010614626 -0.004908837 0.0027504025 -0.003596737 0.0019432863 0.004297526 -0.0030144725 0.0016214242 0.0032198941 -0.0009951711 0.0041112755 -0.0039246036 -0.0044044564 0.0036071597 0.004864407 -0.0037394126 0.0048899185 -0.0032489644 0.0025047695 -0.0019268101 6.171614e-05 -0.0045195804 -0.0019066883 -0.0031965626 0.0023608909 -0.0045911386 0.0029369143 -0.003982817 -0.00026604265 0.003956289 -0.0027587754 0.0014164464 0.0013810936 0.004050356 -0.0043309336 0.002765741 0.0026147 -0.00047877966 0.0037116671 -0.0035397324
at -0.003650626 -0.0043535223 -0.0010762477 0.004812907 -0.004584727 0.0034256189 -0.0026050142 0.0027498435 0.002797547 -0.0014680865 0.004435115 -0.0026331153 0.004233759 -0.0029848088 0.0019101903 -0.001945174 0.00011509954 -0.0019031229 -0.0012269951 0.00359239 -0.002733123 -0.003347434 -0.0043062195 -7.552438e-05 -0.0018380054 -0.001171608 0.0011758807 -0.0013543998 0.004379165 -0.0012246891 -0.002837926 0.00069733086 0.003995244 -0.00017942586 -0.004428592 -0.00207027 0.0015357885 0.0012762658 0.0011119817 -0.004277828 -0.0012956422 0.0018561636 -0.0014185515 -0.002333832 0.0011237476 0.003999879 0.0036504585 0.004544251 -0.0010201031 -0.0022671572 -0.004774095 0.004410376 -0.0013287512 0.003865055 -0.0027496375 -0.00061797147 -0.0045005917 0.0040753665 0.0006286164 -0.004257091 0.001822329 -0.0037075493 -0.0046946 -0.002343687 0.0036740187 0.0039653587 -0.003288772 -0.0027182098 -0.0048755403 0.0034117268 -0.0018070721 -0.0030316538 0.0015630384 0.0036149272 8.470676e-06 1.6691121e-05 -0.0011613591 -0.0015821835 -0.0033271953 0.00023396326 0.004365224 0.0024472876 0.0004323673 0.0037550302 0.004555254 0.0033116587 -0.0029355066 0.003878317 -0.0027330637 0.00065874116 -0.002146459 -0.0010849738 0.00040779734 -0.00044761642 -0.0019283374 -0.0036180548 0.003671475 -0.0005707805 0.0038766612 -0.0037181792
its 0.0015108844 0.0022076296 -0.0041154833 -0.0012356105 -0.0034241104 0.004081675 -0.004585103 -0.0026582116 -0.0029557094 0.0013511211 -0.004199857 -0.0014041959 -0.0012939795 0.002954884 -0.0032058032 -0.0029722468 0.00092969486 0.0030772856 0.0039848695 3.4613007e-05 -0.004056226 0.00032215673 0.00050134107 0.0034090634 -0.0012675992 -0.003704649 -0.00083821575 -0.0015988909 -0.0044144583 -0.0035245365 -0.000103243576 0.0020733646 -0.003336148 -0.00020637934 0.0032163141 0.003833138 0.0047367187 -0.0044421237 0.0010538774 0.0035100244 -0.0037695689 0.003925143 -0.00024378842 0.0024795218 -0.0017037597 -0.0045026466 0.0032641569 -0.0004304423 -0.0026175037 -0.0032112417 -0.0037853809 0.0012465054 0.0012307871 0.0006908916 0.00092436076 0.0007890476 -0.00231436 -0.0024218855 -0.0014857043 -0.0015352756 0.0039561642 -0.0007667642 -0.001005508 0.00012938779 -0.0042090123 -0.0031540783 0.0048245173 -0.0042642606 0.0001327752 0.00019332622 0.00089102314 0.00067770627 -0.0034960548 -0.0039035887 0.0043007163 -0.0007599625 -0.0027195497 0.00046343158 -0.004178174 -0.00021484241 -0.0032298942 0.0016689874 -0.0049116313 -1.3697596e-05 -0.0029537585 0.0045305486 0.00185296 0.00017299745 0.004490301 0.0014366733 0.0023251614 0.0006310189 -0.0025434142 0.0047312626 0.0036493137 0.0020046257 0.0036154247 0.00313674 -0.0040966845 0.0036743646
layout -0.0045171836 0.004919513 -0.0030192568 -0.00462656 -0.00042097963 -0.0037100823 -0.0031349205 -0.004452201 0.002155842 0.0022882568 0.002788375 -0.0010493634 -0.003193407 -0.0019726132 -0.0048858738 0.001616978 -0.00073112367 0.0032088286 -0.004578151 -0.001905386 -0.00028750487 0.0040687504 0.002004012 -0.0018729799 0.0006139636 -0.0016615589 -0.0025912016 0.0014576573 0.0023309127 0.002421442 -0.0038260787 -0.0010585913 -0.004396769 0.0026641868 -0.0018473304 0.0014755661 0.0013332674 0.0023552796 0.0018416664 -0.003050462 -0.0017930585 -0.004588772 -0.0014813003 0.0040931124 -0.0012265993 0.0014393313 0.0031544021 0.00049290457 0.0040200474 -0.0028268858 0.0005170054 -0.0039882977 0.0019447725 -0.0035507646 0.004562466 0.0025326575 -0.0014407822 0.0017933986 0.0031628923 -0.00012232272 -0.0042613135 -0.0037796577 -0.0034826973 -0.0035056816 -0.002157816 0.0007018546 -0.0022637097 -0.0044464814 -0.004468601 -0.0009228295 0.0013032764 0.0037340173 0.0011526529 -0.0026863718 -0.0025258996 -0.0007053891 0.0038095403 -0.0012427728 0.0023601935 0.003224924 -0.0033249885 -0.00023864013 -0.001846946 0.0012130461 0.0029152068 -0.003774338 -0.0020614634 -0.00083363603 -0.0049109226 0.0041624 -0.0049724677 0.0046735494 0.002309625 -4.900604e-05 0.0012219008 -0.0023933088 -0.0029739684 0.004455639 0.00375171 7.807009e-05
point 0.004971892 0.0028697718 0.0039597875 0.0018525576 -0.0029449223 -0.00012745966 -0.0024684076 -0.0005733773 0.0023986085 -0.0008924003 -0.0038879344 -0.0032378673 0.0015117452 -0.004131251 -0.0017836295 0.00022866872 -0.002419806 -0.0020720698 -0.0019945449 0.0014419238 0.0046599214 -0.0038675526 0.0017783523 0.00047587795 0.004511936 0.000119744014 0.0043594437 -0.0021183023 0.004848623 0.002100577 0.004457145 -0.0010876363 -0.0027755315 0.0044608335 -0.002102842 -0.00096626714 0.0022830903 0.0019008969 0.003088641 -0.0005716415 -0.004741424 0.0032183884 -5.069653e-05 -0.0020986388 -0.0019163272 0.0012429744 -0.004372982 -0.0041450695 0.0031364216 -0.0018498343 0.0041872957 -0.0039418763 -0.003187695 -0.0011911396 -0.0015728237 -0.00369495 0.0037433992 0.0017938466 -0.0025510625 0.0013586029 -0.0004158764 0.0013956042 -0.0038896357 -0.0026985996 -0.0007082861 -0.00023722691 0.0010148827 -0.0041418453 0.003419687 0.0041844645 0.0045486437 -0.004279446 -0.0005068542 0.0036563831 0.0048964606 -0.0038665542 0.0035977352 0.00054927816 0.001349398 -0.0007837318 -0.0023284864 -0.0048700627 0.0029346661 -0.0011602156 -0.004553362 -0.0035480403 -0.0011239124 -0.003394447 -0.0037757712 -0.000105440326 0.0016280076 0.0038353503 -0.0024710621 0.00055575586 -0.00080800155 -0.0019162896 -0.0017502937 0.0017111911 -4.7506972e-05 -0.004231778
has 0.0022821648 0.00048604875 -0.00059111736 0.00019439642 -0.0036966226 -0.004912874 -0.0034006427 0.0020036998 -0.004545837 0.004083509 -0.0005358148 0.0017464553 -0.0038754488 -0.0012813827 0.0011220778 0.00090877555 -0.0020039808 0.0036012416 -0.0003466309 0.0037998639 0.00089607225 0.0007121219 0.0010241024 -0.004883111 0.0007090618 -0.0039656786 0.0029733796 -0.002622544 -0.003448611 -0.0012928675 0.0012056383 0.0044512255 -0.004934703 -0.00042752855 0.002303415 0.0037897613 0.002539903 -0.0008787918 0.00074319687 0.0006962084 0.0014943486 0.0015140129 0.003944776 0.0024399434 0.001365916 -0.0039383364 -0.004774788 0.004035472 0.00048123254 0.002737124 -0.00397879 -0.0044957423 0.0040664393 -0.0035156978 0.00040634465 -0.003971972 0.0029481626 0.00030387347 -0.0030083812 0.0013041007 -0.00013405067 -0.003694239 0.0044955797 0.0014113066 -0.0007322621 -0.0048886896 0.00037619512 0.0036230886 -0.004446517 -0.0005774212 -0.0024467432 0.0021814976 0.00011788529 0.001847772 0.0009409317 -0.0038192729 -0.0005033397 -0.0007910825 0.00089700666 0.0047246222 0.0027750998 0.00498459 0.0017663619 -0.002106167 -0.0049721496 0.0037892843 0.0041711666 4.5725286e-05 -0.0032150222 0.0020679552 0.003540358 -0.0030438784 -0.0047766906 0.0009938806 0.0010254027 -0.0016962604 0.0036814085 0.00056238513 -0.00040028643 0.002983664
moreorless -0.0007553608 -5.5679822e-05 0.001269682 -0.0026208356 -0.0009907496 -0.0025925771 0.0024884397 -0.0013987493 0.002548988 0.0036761276 0.0047773914 0.004270094 0.0037065726 -0.0039038295 -0.0009354011 -0.0019437018 -0.002806293 0.0030882983 -0.0004403629 -0.003579132 -0.004573068 -0.000759437 0.0022855843 -0.004113014 -0.0037461836 -0.0033717935 0.004593639 -0.0008359875 0.0003317872 0.004362881 0.004429244 0.0023514477 -0.0005826554 0.003915618 -0.0019228837 0.002010565 0.0035801658 -0.0016138813 0.0036637918 0.001326816 -0.0043917676 -6.322051e-05 -0.0019322544 -0.0009976574 0.00013193132 0.002388551 -0.00034826712 -0.0001249524 0.004110862 0.0012502694 -0.0028198578 -0.0033740099 0.0014994957 -0.0022605637 -0.0013819166 0.00451272 -0.004235477 -0.0040565166 0.0008976339 0.0010050071 -0.0017221408 0.0035946982 0.0045760684 0.0031553279 -0.0013152341 0.0026531569 0.0024175192 0.0005881791 0.0031249407 -0.002309397 -0.004896194 -0.0021341338 0.0030024208 -0.0028904623 0.0043752356 -0.0030903833 -0.0017579446 -0.002125567 -0.00039426875 -0.00021538176 0.0032878458 -0.003596902 0.004149763 0.0039141355 0.004778437 -0.0033051262 0.0005864349 0.0005815832 -0.0012153313 -0.0037343006 0.0034193255 -0.0021263333 -0.0020735695 -0.0012926112 0.00088573934 -0.0015104074 0.0015840327 0.00037892658 -0.00354615 -0.0013668301
normal -0.0017111985 -0.0015897328 -0.0010212342 0.0013373083 -0.0044517755 -0.00215656 0.0030583018 -0.0024263884 0.002024097 -0.0027953384 6.79723e-05 0.0009132746 0.0047681076 0.000665258 0.002406466 0.0024293882 0.0032081977 0.0009832445 -0.002388767 -0.0029474124 0.003207229 -0.00077225326 0.0021232849 -0.004739316 0.00413543 -0.003856514 -0.0049919575 -0.0011950586 0.003675377 0.0024674847 0.00011317324 -0.0002459245 -0.0013983402 -0.0045576235 0.0034357917 0.0037805263 -0.003156986 -0.0032012407 -0.0026026939 -0.001786841 0.002191199 0.003760268 0.0026964135 0.0019576666 -0.00085791654 0.0047241026 -0.0039368765 0.001251703 0.0045141187 0.0011351905 0.00074397924 0.00092395564 0.0035799365 0.0047914735 -0.0010247887 -0.0027731273 -0.0020405261 0.002092097 0.00017724451 0.0022035632 -0.0016696729 0.0029759388 0.004342946 0.0043586646 -0.0029672573 0.0049360106 -8.896756e-06 0.003748711 0.002648291 -0.0019708173 0.002257284 -0.002411855 -0.004048441 -0.004598708 -0.0045375032 -4.249172e-06 -0.0024862231 0.001822646 -0.0042953994 0.0047954447 0.0022400846 0.004263027 0.0034444972 0.0013692715 0.0044317064 0.0040283906 -0.0040351003 -0.0032526623 0.00041585817 -0.0017406716 0.00036009087 -0.0043649874 -0.000630421 0.003300745 0.00022431366 0.00087108766 0.0011257569 -0.0016446838 -0.004521984 0.0034462519
distribution 0.00102016 -0.0022406308 0.0003157126 0.0003183019 0.001348803 0.0033884111 0.0027618888 -8.719742e-05 -0.0019110603 0.003976391 0.00017498268 0.0018129109 -0.004727695 0.003929196 0.00066250516 -0.003964188 0.0035208687 -0.0037463268 -0.0009818557 -0.00047470795 0.0019773638 -0.00491609 0.0015334736 0.00011217698 0.002732487 0.0015508798 0.0018434256 0.00015459568 -6.4843584e-06 -0.00065745466 0.0022606365 -0.00063268613 -0.0012512996 -0.00031287852 -0.003802449 0.0037495897 -0.004597169 0.0034191161 -0.0011972042 -0.004710731 -0.0036423919 0.0037058173 -0.0045453897 -0.0041016135 0.00017944278 -0.0012877595 0.00090172124 -0.0011368908 0.0040378724 0.0033334645 0.004402471 -0.004216233 -0.00477732 0.0009474287 0.0012969623 -0.0007887007 0.0021579715 0.0020945692 0.0030030403 0.0011703635 0.004265742 0.0031608157 0.00040756306 0.004680046 0.002418655 0.0015202087 -0.0035340798 0.002181536 0.0018621972 0.0043077446 0.0027163292 -0.0019803992 -0.0001527143 -0.0013893703 -0.0032203835 -0.0023321293 -0.0047764545 -0.00089156866 -0.0012943794 0.00027874994 -0.00085509423 0.00028531943 -0.0013129133 -0.0047338195 0.0035173097 0.0017736817 -0.0018259956 0.0008563584 -0.0024001088 0.0031024055 0.0029897832 -0.0021524525 -0.0038872398 0.0012163209 -0.0038732202 -0.004094592 0.0021181435 -0.003764482 -0.0027211017 -0.004111464
letters -0.0038479168 0.003335885 -0.00025864874 -0.0011331905 -0.004843525 0.0037551674 0.0025578656 -0.0007009457 -0.003826169 0.00460484 0.003901724 -0.0010640956 -0.004344951 -0.0020291836 -0.0034336965 0.0008311189 -0.00079733744 -0.0033050685 0.00029215403 0.0005360356 -0.0043847547 -0.0024001382 0.0037037432 -0.002838192 -0.004777328 0.0011904184 -0.0040977723 -0.00017576406 0.0038459296 -0.002385887 0.0038033824 -0.00029598523 0.002902228 0.0019690085 -0.0003563008 -0.003168799 0.0013974973 -0.0023230948 -0.0016089602 0.00055799034 -0.0011469945 0.00087146723 0.0016447525 9.911806e-05 -0.00041951015 -0.0030361596 -0.002406911 0.0024170664 -0.00039291897 -0.002435769 -0.0023169692 0.0012202864 -0.00025650012 -0.0044816094 -0.00084659975 -0.00025570812 0.0030845013 -0.001934425 -0.0003082572 0.0010276984 -0.004187299 -0.0029823086 0.000650823 0.0031097867 0.0015788127 0.0001447286 -0.00091440935 -0.0036053103 0.000749373 0.0014497761 -0.002375343 0.002602375 0.00416936 -0.0012079146 0.0001967075 -0.0038930108 0.0048754783 0.0031390223 0.0020646523 -0.00434263 0.00092919124 0.0034157736 -0.0019984543 -0.0018854367 -0.004829237 0.0035398847 -0.0013242769 0.0036916 -0.0041626394 0.0027466763 0.002548222 -0.004348382 0.001446262 0.0025205025 0.00022790061 -0.0027397082 -0.0022700862 -0.00017139233 0.004136547 -0.0026225518
opposed -0.0030844999 0.0046227574 0.003161949 -0.0013948667 0.0033828565 0.00085981 0.0018076086 -0.0011930085 -0.0019633966 0.0041191843 -0.003558558 -0.004757665 0.00095937226 0.0015429343 -0.004664242 -0.0031102698 0.001020493 0.0014823133 0.0046216925 -0.004877058 0.0017462278 -0.004327854 -0.0016533509 -0.0008723041 -0.0013625075 -0.004081804 -0.0014156784 0.004536368 -0.004711264 0.0021951569 -0.0018377323 -0.00091673475 0.0047442387 0.0022684813 0.004909214 -0.0030498842 -0.0016710968 -0.0013990405 0.004036417 0.0049704504 -0.0024713976 0.0048809084 0.0012131244 -0.0016330595 0.0007178311 -0.0015341389 -0.001410416 -0.001249873 0.0011166111 0.0042782263 0.0012995125 0.003992965 -0.0018475776 0.004035369 -0.0039481963 0.00031955 0.0048426534 -0.0045882175 -0.0016731492 0.001953943 -0.0017265012 -0.0014926658 0.0004939165 0.0033680187 -0.0045741405 -0.0034855013 0.00067711814 -0.0022855105 -0.0029148695 -0.0034477045 -0.0035683385 -0.0024510454 0.0018230905 -0.003621032 0.0011006449 0.0011845141 0.0037533941 0.0028018707 0.0023940918 0.0014472416 0.002435271 0.0048349705 0.0045040827 0.0007359851 0.0028093827 0.00021393308 -0.003569297 -0.0040199123 0.003867621 0.0011601651 -0.001406914 -0.00026267685 -7.5330645e-05 0.0019434683 0.0022700927 0.0043870215 0.0002537131 -0.0031418544 -0.0025668384 -0.0003186603
to -0.0046129874 -0.0040108077 0.0035154058 0.0011194394 0.00075973634 0.0036850467 -0.0046237465 -0.0025393975 -0.00077852426 -0.0011531175 -0.0005950007 0.0014996724 -0.0035531812 -0.0043558725 0.0038979512 -0.0029341893 0.0023823145 0.004719141 -0.0019110166 2.3845452e-05 -0.0031481383 -0.00012668139 -0.0003532608 0.004886311 -0.0010894208 -0.0009581594 -0.0028474205 -0.0046517523 -0.0010254029 0.004820117 0.004364369 0.0020655561 0.0031083762 0.0031608418 0.00456733 9.271637e-05 0.0048748394 0.0009209593 -0.003847512 -0.0022957714 0.003813947 -0.002228552 0.0023594585 -0.0042691347 0.004589557 0.0037625232 0.00259664 -0.0046315794 0.0006176423 0.00053047756 -0.0009656117 -0.00026987423 0.002303308 -0.003702247 -0.004163447 -0.004610701 -0.0017590211 0.0023565786 0.0031873393 -0.0034619332 0.003934885 0.00024656396 0.0031669678 -0.0017720236 0.0042006434 0.003156776 -0.002993131 -0.0044933776 0.0004738993 0.002099544 -0.0016939539 -0.0019483084 -0.0029479815 0.0019446348 0.004906645 -0.0042022336 -0.0044910633 0.0027627272 -0.00018885464 -0.0042456733 -0.0019085684 0.0015650763 -0.00068228086 -0.002516389 -0.001080517 0.0029038675 -0.003025923 -0.0039151185 -0.0022371293 -0.0049583213 -0.002329214 0.0047119414 -0.0044745733 -0.0032390768 -0.0046590883 -0.004611895 -0.00046049585 -0.002620691 0.00239119 0.0014641098
making 0.0028807072 -0.002960116 0.0013426258 0.0049649035 0.004700617 0.00049165625 -0.002296376 0.0023778186 -0.003126246 -0.00042090722 0.0044428366 -0.002698688 -0.00089899194 -0.0040111155 0.002851921 0.0032196674 -0.00044127688 0.0005803004 -0.0026977824 -0.002376927 -0.0006471754 -0.0026984492 -0.0014540948 -0.0011412936 0.004949607 -0.0045869304 -0.00067609706 0.0038464572 0.00016167773 -0.0023439934 -0.003288328 -0.00038903372 0.001591454 0.0031012832 0.0016703587 -0.0038362835 -0.0018817723 -0.0024930015 0.00228521 -0.0038955272 0.0033782744 -0.002924041 -0.0049843783 -0.004010662 -0.0043963282 0.0018460331 0.0048421994 -0.0033725689 0.0027294706 0.0017542139 0.0026660627 0.0026197287 0.0009060309 0.0024924912 -0.0027152002 -0.0007450864 0.002340285 0.0032795935 0.0045965244 0.00074293336 0.00088324415 -0.0013233114 -0.0026906657 0.00063194847 -0.0029511182 0.0038697857 0.0019262191 0.0019558503 0.003881062 -0.0018656171 -0.002862454 -0.0035419385 0.0045074276 0.00051399635 0.0010226633 4.0592306e-05 0.0029671788 0.0008336227 0.003105787 0.00138591 0.004626529 -0.0044717956 0.00454505 0.0008276825 -0.00045318576 -0.0009707341 -0.0018286641 -0.0021663758 0.004093785 -0.002294093 0.0046696984 -0.0043255463 -0.00045010875 0.003170856 0.0042130994 -0.0038158402 0.0018022623 0.0043987758 0.00046547138 0.0045751575
look 0.0028475928 0.0037348198 -0.004015207 -0.0007008263 -0.0029867794 -0.0015522364 -0.00016578658 -0.0018692159 -0.0038776468 -0.003734319 -0.003836272 0.00405974 0.0036087865 -0.0001910965 0.0049857195 -0.0012956612 -0.004284614 -0.00057116733 -0.00089403056 0.002764891 -0.003936227 0.0022329076 -0.0035389285 0.0035263677 0.0036043676 -0.00086590793 -0.0032286963 -0.00011635297 -0.0049852673 -0.002172127 0.0009248195 0.0034930124 0.0022789869 -0.0014549955 0.004390125 0.00043795095 0.0041880696 -5.3981545e-05 -0.0048382576 -0.00041739573 0.0023480738 0.0029141263 -0.003858129 -0.002005911 0.002763259 -0.00012115495 -0.0020729846 -0.0014453463 -0.00012807526 0.001803107 0.0025388536 0.0015619919 -0.0028606146 -0.0038640085 0.0046340604 -0.0007064737 -0.0019944091 -5.5167933e-05 -0.00102394 0.0035977708 0.0026234114 -0.002525296 -0.0038719766 -0.001784147 0.002955641 0.0015756105 5.8429403e-05 -0.00293599 -0.0009841552 -0.004080705 0.0018116313 -0.00393913 0.0016431367 -0.0048454534 -0.0028625089 0.0018286586 0.0013410995 -0.0016577196 -0.0006654074 0.002500873 -0.0010512554 -0.00036395935 0.0014095899 -0.0033894985 -0.0023680592 0.0030295653 -0.004439011 -0.0031284895 0.00060635235 0.0032685432 0.002465429 0.002643187 0.004271201 0.0039555603 -0.0017970988 -0.0002773057 -0.0042626513 0.0034218826 -0.0024037436 0.0034838484
english -0.002332135 0.0033584354 0.0022377898 -0.0028386114 0.002223498 0.0045288936 -0.0025955846 -0.000934139 0.003333825 0.003472799 -0.0024135786 -0.0024335657 4.1850453e-05 0.004929387 0.0019788088 0.004912996 -0.0046507004 -0.0021567966 -0.0011003827 0.0011618009 0.0034923875 -0.0033589767 -0.0029464953 -0.0016053246 0.0008780018 0.0013980966 -0.0016037659 -0.0013156232 0.0031678868 0.0038093387 0.0033132771 -0.0037601213 -0.0026770183 -0.0029528514 0.0011252495 -0.0028658716 -0.003852024 -0.0011469437 0.0008811502 -0.0043307403 -0.0041401545 0.00015226174 -0.004271102 0.004528335 -0.0020623056 0.0026551937 0.003783323 0.0019916145 0.0038088989 0.0033295327 0.00021375141 0.0049394844 -0.0032489912 -0.004122252 0.0001322228 -0.00075066934 0.00023876269 -0.0026877285 0.00097469543 -7.117227e-05 0.002642244 0.0031315193 0.000989119 0.0010274117 -0.0037611425 -0.0042254115 -0.0021480503 0.0027931263 -0.00078738795 0.0012718013 -0.0009557974 -0.0015026504 0.0007852207 0.0044453368 0.0008403199 -0.004749655 0.004375281 0.002032124 -0.0033975868 -0.0012459162 0.0031377543 0.0020250208 -7.4540556e-05 0.0032508872 -0.0017052722 0.0048786667 -0.00012582084 0.0028730778 0.0041113496 -0.0015863599 0.00013316418 -0.0033663174 0.0024027317 -0.0029502646 -0.004967132 0.0022877299 0.0013554523 -0.0029688675 -0.0026124078 -0.002361085
desktop -0.00091427896 0.00048581793 0.0029464103 0.0011432904 0.002457366 0.0024587784 0.00019370497 9.846618e-05 -0.0035281598 -0.004020136 -0.001850564 -0.001283235 0.004720938 0.0019607549 0.0046856897 -0.0002786781 0.0029177384 0.0041643386 0.0017429328 -0.0048623 0.0027603714 -0.0025077923 0.00019848661 -0.0043362067 -0.0023907379 -0.00019857091 -0.0001353192 -0.0039531225 0.00028129472 -0.004724354 0.0019847036 -0.0042507183 0.0040832194 -0.0008464911 -3.6903246e-05 -0.0029663797 -0.0027366648 -0.004462771 -0.0024363298 0.00076415273 -0.0011161927 -0.0043313517 -0.0019583341 -0.002222079 0.0014033467 -0.0033565923 0.00040111018 -0.004281976 0.003958945 -0.0019318167 0.001202545 -0.0020215006 -0.0010468349 0.0010152375 -0.004175901 -0.0008980116 0.0042588487 -0.00402481 -0.0012589825 0.00045184634 0.0006948492 0.0008430398 -0.001043491 -0.00123129 0.0025189735 0.0015308601 0.0039031843 0.004313591 -0.0022361898 -0.00036863575 0.0014401211 -0.0048230304 -0.004174517 -0.0012706289 0.0021223025 -0.003176433 0.004299953 -0.003105274 -0.002849001 0.0030380157 0.002134031 9.687918e-05 -0.0027255036 -0.002495732 -0.0007071876 0.0037216635 0.0018373716 -0.0009329791 -0.0013126472 0.0017262426 -0.0036738843 0.00077374064 0.004141254 -0.0011975027 0.00074576697 -0.004909396 -0.0028874518 0.00044224612 -0.004888757 0.0029778457
publishing 0.0041375076 -0.0042743026 0.0020628942 -0.00097569526 -0.004769143 -0.0031152228 -0.0034368124 -0.0008448812 -0.0006394458 -0.0034848454 0.0003899899 0.0022116906 0.004162841 -0.00053199864 -0.0046156277 -0.0013613206 0.0011198453 0.0044597657 0.0008613766 0.002727242 0.001875809 -0.0001427391 0.00055089744 0.0006472774 0.0040569133 0.0019404421 0.00089955673 0.0026924764 5.686033e-05 0.0035288369 -0.0011120603 0.0004520136 -0.0018668096 -0.0028087597 -0.002873648 -0.0024921575 0.0020190347 0.0025432964 0.0035072006 0.0006859336 -0.0044777165 0.002080789 -8.155457e-05 -0.0036342428 -0.0047288253 -0.0029909697 0.0024239083 -0.0031817053 -0.0039128633 -0.0017715873 0.00093214505 0.0003322783 0.002501785 -0.0039836685 0.0045669163 0.004438269 0.0030965211 -0.0030042138 0.0013447368 0.00018222214 0.0042809923 -0.002016624 -0.0013966889 -0.0004130195 0.0047092424 -0.0002726321 0.003181396 -0.0022454318 0.0019089155 0.004876625 0.001251197 -0.004648822 0.001302488 -0.004804432 -0.0010759806 -0.0014327423 -0.0024033154 -0.0036402824 -0.004514886 -0.0010549277 -0.0030453836 0.0008621256 -0.00025466035 -0.0005453876 -0.0013447447 0.0027383505 0.0004675823 0.0030543169 -0.0018269293 0.0023102185 -0.0031183052 -0.0017991755 -0.001849654 -0.0022057667 0.003026704 0.0040303017 -0.002682719 0.0045574694 -0.00097189273 0.004821788
packages 0.0018345962 -0.0024268026 0.0020481006 0.0014306311 0.0022929881 -0.0045804363 -0.00048688435 -0.0015759354 -0.002742052 -0.0038945284 -0.004563832 0.0015005055 -0.0005211216 -0.004101201 0.0041875257 0.004874382 0.0044061025 -0.0023793627 0.002966633 0.003640395 0.003702506 0.0035955447 0.003054896 0.0018250811 0.003164218 0.0017604895 -0.0017175588 0.002642881 7.156393e-05 -0.0023709992 0.004008408 -0.0024599575 0.003257898 0.0035413306 0.004438174 -0.0037358606 0.0031237095 0.001178622 -0.0018117721 -0.0015235872 -0.0031350928 -0.0038009323 -0.0033141323 -0.0013437973 0.0004887617 -0.0021962721 0.0019225924 0.0044241296 -0.001959962 0.00060625054 -0.004467675 0.004896864 -0.002298259 0.0015241287 0.0007057409 -0.00015322563 -0.0033049772 -0.0020096283 -0.0040520523 0.0027420903 -0.0025253794 0.002240529 -0.0016898642 -0.0037371537 -0.003155003 0.003760875 0.002103178 0.0040303143 0.001778582 0.0018805312 -0.0030212216 -0.003503103 0.0011145212 0.003360562 0.004445123 -0.0024205304 0.001591874 0.0046334253 -0.003183736 -0.0041028033 -0.00047830353 -0.0002181157 0.002459756 -0.0015613559 0.00041692852 0.003694768 0.0047560604 -0.0045968764 0.0031732894 -0.0015739296 0.004117748 0.0036322074 0.004733715 -0.00020523711 -0.0017174733 -0.0025512462 0.0008512908 -0.0048046615 0.004597709 0.0041993074
editors -0.0031471741 -0.00089279574 -0.0033685833 0.0046073943 0.0014695829 0.00018211304 -0.0035377485 0.0045451215 -0.0010539541 0.0003626107 -0.00070788467 0.002018762 -6.599208e-05 0.000678384 0.0039718384 -0.00020861461 -0.003991308 0.0037984047 -0.0025708394 -0.002138667 0.0046447245 0.002652657 -0.0026395132 -0.0010272943 -0.0035210657 0.0042816103 -0.003001738 0.0023079421 -0.0020944239 0.00045061865 -0.0019548323 -0.0007902048 0.0032570255 0.0012721305 -0.0025378272 -0.00086122204 -0.0017589108 -0.003938953 0.002273787 -0.004629892 -0.0014203532 -0.004478878 0.0018097446 0.0024036218 0.0006395079 -0.003709639 -0.004066445 -0.003605929 -0.003408161 -0.004442494 -0.0026746637 0.00018771215 -0.0018655834 -0.0016871445 0.0041755573 -0.0045565716 -0.0024631235 -0.0016993153 0.004676999 0.0019350002 -0.0048274766 0.0037443314 0.00048341215 0.004230353 -0.003966229 0.0018734923 0.003115517 -0.003924431 -0.001057675 -0.004837049 -0.0014232848 0.002263458 0.0028117825 0.0043141814 -0.0046677515 0.00040495547 0.00040173682 0.0036606824 0.002748632 -0.004801854 0.0019816929 -0.0024901058 0.0049031503 -0.0043674437 -0.0038816982 -0.003440339 -0.003248335 0.0035824627 0.0010683205 0.0040109796 -0.0033565625 0.0049043163 0.0015772689 -4.665067e-05 -0.0015831031 -0.0041677207 -0.0015706574 -0.0030135687 0.002614752 -0.0034147396
now 0.0002038751 -0.0012239198 -0.00056295254 0.0013668856 0.0032174555 9.372695e-05 0.00021176971 0.0021017655 0.0017078947 0.003589245 0.0042865123 -0.0027289873 0.001673822 -0.0038085324 0.0012092777 -0.0026535164 -0.0006021395 -0.0031516445 -0.0041576847 0.001623533 0.0011544129 -0.0036716082 -0.00025983766 -0.0033888703 -0.00022610281 0.00021907243 0.0020309067 -7.58385e-06 0.004997089 -0.00031433717 -0.0015055691 0.0009803338 -0.0017097984 0.003912777 0.002354197 -0.0003056257 0.0040076543 0.0018855174 -0.004987314 -0.00027472634 0.001234485 0.0038542496 0.0014301044 0.00487951 -0.0030938394 -0.0023049552 0.0044271154 -0.0048420243 0.0005975849 -0.001347034 -0.002357194 -0.00097118615 0.0042285956 0.0026485526 -0.00074323936 -0.0033234174 0.0009248263 0.0024083946 0.0050025512 0.001490767 -0.0038480002 0.0041652927 -0.0013538722 -0.002617403 0.0012273979 -0.0017092848 0.002808668 0.0019413499 -0.00059096183 0.0016718342 -0.0013797021 0.0041989395 -0.0011294314 0.0008980097 0.0019515416 -0.0021571876 -0.0045344406 0.00072329707 0.0011519436 -0.0031122863 -0.0011632243 0.0028926607 -0.002097548 0.0007687186 0.0017502086 -0.00045214992 0.004950168 -0.002599572 0.00029492308 -0.0039532334 0.0046040216 -0.0029704503 0.0003734612 -0.00063140877 -0.0014183591 -0.0024482717 0.0038266622 -0.0045558717 0.00022162819 0.002162091
use -0.004267995 -0.0041695377 0.0014047782 0.0034610566 -0.0005532244 0.0024860774 -0.0039484077 -0.0028505984 0.0044103274 -0.0049805855 0.004024004 0.0042429953 -0.001540687 -0.0017340659 0.0032149393 -0.0012725673 -0.0049802503 0.0025176043 -0.004406714 0.0018364633 -0.0012957433 -0.0016081779 -0.00080886343 0.0019074416 -0.0033399365 0.0050060935 -0.002853537 0.0041752635 0.0010059812 -0.003790401 0.0020450181 0.0032509165 0.00281372 -0.002195986 0.0012623445 0.0011749299 0.0038757946 -0.00037382764 -0.0004128631 -0.0029209633 -0.00034964638 0.003091563 -0.0006782613 -0.0010174314 0.00014472243 0.0036070878 -0.004386446 -0.0032662814 0.0047790133 0.0028144221 -0.0024189025 -2.8351167e-05 0.004641569 0.0026827503 0.0005271688 -0.0008963345 0.0020272767 0.0024992342 -0.00065857935 0.004531139 -0.0021190809 -0.0023897048 0.0033934982 -0.0019303323 -0.0023718218 0.004887953 -0.00090586947 0.003640568 -0.0038044625 0.0037769026 -0.0047784187 -0.0003529616 0.0047141206 -0.004325699 -0.0015291912 -0.0007954585 0.0005797864 0.0046821157 0.0009619801 -0.0030922364 0.0023224107 -0.0043131923 -0.0014567702 0.0040536625 0.0034522328 0.003148097 -0.002325695 0.0043743984 0.0030805946 0.004175398 0.0039149886 0.0022986098 -0.0035257929 0.0012255958 -0.0037684233 0.004480353 -0.0025389108 -0.0034857208 0.0031704013 0.0046634176
default 0.00056308234 -0.0021032963 -0.004921885 0.0014431494 -0.003241759 -0.0012312641 -0.002930798 -0.0037974573 -0.004471708 -0.003484843 -0.002106167 -0.0003636591 -0.0014921993 -0.0019444088 0.0044929534 0.0043686638 -0.0030041402 -0.004855486 -0.00015664377 0.0019094306 0.0044687195 -0.0014264887 0.003618562 -0.0015406742 -0.0013261848 0.0017473468 -0.004679844 0.0018986831 0.0026234882 -0.0042791935 0.0026133077 0.003099712 0.0031866035 0.0033292274 -0.00034302808 0.0015325285 0.0007106393 -0.0019865027 -0.0007763312 0.0036450808 -0.00066465774 -0.0024359128 0.0016583859 0.0032213212 0.004545766 0.004409667 0.0019143537 0.0030388397 0.0028261547 -0.00021485345 -0.00060907885 0.004986937 -0.00033963996 -0.004229203 0.004732237 -0.0036732273 0.0010444054 0.0046179597 0.0013357488 -0.0023111627 0.00037889325 0.004121922 -0.0011128498 -0.00024078142 0.00057115406 -0.0020716651 -0.0009787842 0.0011722674 0.00076138077 0.002033796 0.0035990553 -0.0019137594 0.0005634059 0.00030865514 0.0018873066 -0.0015231739 0.002676359 0.0014610292 0.0046648537 -0.0034707922 -0.004676919 -0.0013048721 -0.00068651204 -0.0019714858 0.002522306 -0.003306974 -0.00038166216 -0.0030459175 -0.004548369 0.003324024 -0.0042719846 0.002790453 -0.0014098306 0.0016550401 -0.004312234 0.0043978957 -0.0039738268 1.0047117e-06 -0.0013929885 -0.001644155
model -0.001313834 -0.000410698 -0.0033731866 0.0045279255 0.0022943034 -0.003958762 0.0019865958 0.0020987482 -0.0018878856 0.00024574212 0.0036094636 0.0003823018 0.0030568782 0.0011225885 -0.0019058118 0.0024364977 -0.0007275321 -0.0004295149 0.0021616674 -0.00068100967 0.0034673505 -0.00030564383 -0.003374498 -0.0040337965 0.0035224066 -0.00045051976 -0.0015434343 -0.0029281906 -6.813692e-05 0.0048360424 -0.0011487823 0.0023897623 -0.0013059877 -0.004809072 0.0015056591 -0.001792377 0.00087669765 -0.0041606557 -0.0003102402 0.000139527 -0.00026256056 0.0006996862 0.004219599 0.0024868567 0.0033952142 0.0037747428 0.0025177076 -0.0014814823 0.002332091 0.004112132 0.0015873413 0.0027859956 -0.0010112856 -0.0016328342 0.0016750366 0.003476146 -0.0017059146 -0.004804877 -0.0020863183 0.0010056916 -0.00473995 0.003609655 0.0018163156 0.003996362 -0.0019635328 0.0004364564 -0.0012682066 0.0004225084 0.004098736 0.0031963736 0.0038815066 -0.0020238308 0.004619738 0.0023847735 -0.0037523478 -0.0038429548 0.0008588453 -0.0041828724 -0.00030722612 0.003551386 -0.0044954396 0.0041083503 -0.0031552974 -0.0031785422 0.00018365456 0.0017436082 -0.00018583416 -0.0046307878 -0.002463654 0.0005683778 -0.0033641243 -0.0014906698 -0.0020128444 0.0029135048 0.0017833512 0.00022596914 0.0042842235 -0.004382692 -0.004057497 -0.0014861822
text -0.0012828648 0.0043454217 0.003034981 -0.0007628637 0.0017590058 0.0028165586 0.0025281468 -0.0011963426 -0.00455019 -0.0006176451 -0.002302068 0.0031808952 -0.00018725987 0.002237847 -0.0005647058 0.0041555944 -0.0034028846 -0.00084997964 0.0022966322 -0.0029134299 0.004915931 -0.0013979567 -0.0025627615 -0.0009562961 -0.0014390633 -0.0031153772 -0.0032330279 -0.003951837 0.0001745991 -0.0017541398 0.0012801914 -0.003214196 0.00093218713 -0.002878996 0.0018959008 0.002941742 -0.00049915677 0.0036940258 0.00291249 -0.0008250077 -0.0011053521 -0.0015973013 0.0045040054 0.0008943695 0.00492622 0.0023543234 0.0006832081 -0.0010632494 0.0035962013 -0.0019918864 0.0036358195 -0.0044387565 0.0007469629 0.004288038 -8.111291e-05 -0.0046202927 0.0046542706 -0.0029072585 0.0040281676 -0.0028839903 -0.0009857469 -0.000117162956 -0.0026267746 0.0006808349 -0.0021702424 0.00023692104 0.0027097398 -0.0017035577 -0.0014751108 0.004985677 0.0040181987 -0.0038399866 0.00053837866 0.0019870347 -0.0022827694 -0.0035709532 -0.0026311618 0.0032410806 0.0034961433 -0.0017327281 0.0028188785 0.002857065 -0.004425075 0.0018231571 0.0046004625 0.001803728 0.0026678327 0.004275422 -0.0010876247 0.0045879814 -0.0034516226 0.0019944971 -0.0018859283 0.004589154 0.004771239 -0.0017918898 3.5289733e-05 -0.0024198436 -0.003468016 -0.0014826125
search -0.0015052718 -0.002669442 0.003141569 0.0019207945 -0.0009942898 -0.0022458683 0.001250831 -0.00024359017 -0.0029545259 -0.0031992083 0.0048820036 0.0035857267 0.0017527492 -0.0011523009 0.003386622 0.0044514854 0.0006985045 -0.003335477 0.0038603311 0.004443013 0.003436261 0.0015499967 0.0030840528 -0.001887383 -0.00085311296 0.004640365 0.0038058802 -0.0035509965 -0.0044807205 0.0011346004 -0.0017082667 0.0037468732 -0.0018782261 0.0033522258 0.0031646802 0.0014023487 -0.004562233 -0.0026967488 0.001648336 0.0044189044 -0.003154229 0.0047688936 -0.003982882 0.0026605816 0.0029656498 0.0011053734 -0.0028437357 -0.0019942457 -0.0024912579 -0.0008160471 0.00087762356 -0.0010121124 -0.000116966046 -0.0001685562 -0.004787575 0.0034860962 -0.00301767 -0.0026355633 0.001731861 0.003865929 0.0008178309 2.8105775e-05 0.0010798401 0.0012371623 0.00065936387 0.0031856103 0.0031034239 0.0022145153 0.00273735 0.002471916 -0.0029824073 -0.0039013305 0.004394401 -0.0039562145 -0.0029978731 0.0021072987 -0.004777979 0.00026770393 0.0028453593 0.0016635038 -0.004334639 -0.0037984145 -0.0045275628 -0.004113389 -0.0027762994 0.0001123952 0.00045652164 0.004478263 -0.001652369 -0.0005104856 0.0010188643 0.004293213 -0.00028352672 -0.003458199 0.0019160218 -0.003397363 -0.0025283915 0.0045175697 -0.003291775 0.00015215947
for -0.004740724 0.0048323376 0.0029461705 -0.0046433904 -0.001581827 -0.0048122746 -4.6364443e-05 0.0032683767 -0.0018242609 -0.0015754909 0.0032545961 0.0013730563 -0.0028779367 0.0005608131 4.708366e-06 0.0049488638 0.0010085126 0.004372282 0.0038499958 -0.0023263288 0.0032358044 -0.0010510501 1.6555971e-06 0.0014064384 0.0033489051 0.0034715869 0.0014205314 -0.00080807664 0.0011580086 0.00395859 -0.0024561598 0.00478142 0.0013907192 0.0023015786 -0.002993856 -0.00069235446 0.0045189587 0.004325064 0.0019243405 -0.0012292226 -0.0018638842 0.00092632417 0.0017492337 -0.0031026676 0.001424173 0.0019081826 0.001113375 -0.003821892 -0.0016616766 0.0042560324 0.0016531816 0.0039538373 0.002219278 0.004552902 0.0021299971 0.003420982 0.00372216 -0.00020810438 -0.0035695487 -0.0028562197 0.00042451086 -0.0034886284 1.9566356e-05 -0.0030871257 -0.0040105586 -0.0007833122 -0.0022371484 -0.0012373526 0.0038394001 -0.004658906 0.0014191293 0.0021807034 0.0010259438 0.0027386094 -0.0039446587 0.0031395508 0.0010417533 0.0036258064 0.0017938815 0.0018647625 0.0040509854 -0.0032751886 0.004387594 0.0036278788 0.0035809956 -0.002407018 0.00031890505 0.00036774116 9.616977e-05 -0.0039588567 -0.00040679227 0.001115846 -0.0030753752 0.002373719 -0.0045966376 -0.0001728516 -0.0013917056 0.0036243675 -0.00092066184 -9.2155875e-05
uncover -0.0010513396 0.0018367801 -0.0041390443 -0.0015255837 -2.3783092e-05 -0.003083246 -0.0010246673 -0.0030645006 -0.0030245364 0.0036324318 -9.4122064e-05 -0.004716619 7.02058e-05 -0.003839998 -0.0036192846 -0.00039329904 -0.0030921467 -0.0007960691 -0.0030014194 0.0029960768 0.00014024448 0.0010655476 0.0012517048 0.0023827557 -0.0019496438 0.0035502305 -0.0038010085 0.0018670936 0.0034948392 -0.0038699491 0.0034082395 0.0026199804 0.00077452086 -0.0029165058 0.0013783817 0.0024588357 -0.0045697847 -0.0043093325 -0.0043288246 -0.00047351824 -0.0013891512 -0.0034801608 0.00012684152 -0.0007774454 -0.0009417136 -0.0004261916 0.003115236 0.002790946 -0.002282604 0.0012864664 0.0014887603 -0.0036687858 -0.0038675426 0.0012128154 0.0025580586 0.0040037087 -0.004062121 0.0037426015 0.0022072538 0.0025466324 -0.0007939 -0.001415696 -0.00079952116 0.0019600105 -0.0006592911 -0.0016418118 0.0023874897 0.0032259035 -0.002238881 -0.004392795 -0.0014064872 -0.0027988746 0.003768087 0.003835379 0.0048045157 -0.0016100104 0.0025311082 -0.003444276 0.004594868 -0.001956502 -0.0011273065 0.0047957953 0.0010236274 0.003686306 5.114088e-05 0.0013395422 0.0047592237 0.0041837925 0.00064079266 -0.0044168443 -0.0034951721 -0.0028219582 0.0046100495 -0.0041928 0.0009115078 -0.0016919471 -0.0044893087 0.0016531534 -0.0001765012 0.0037051982
sites -0.0035394276 0.00043334236 -0.0039368095 -0.00053081056 0.003668201 0.0027595684 0.0032802182 -0.0014872997 0.0018386417 -0.0034050152 -0.0042180032 0.0007326328 -0.0013844174 0.003479385 0.003110811 -0.004670852 0.001736716 0.0021606768 -0.0003398709 0.004199345 -0.00090059487 0.0049437797 0.0049557793 -0.0006137116 -0.002005101 -0.00050184136 -0.00015683092 0.0037787522 0.00013682648 0.0015651165 -0.00079652417 0.0040957145 0.0035978577 0.002047267 -0.003892155 3.305704e-05 0.0010990162 0.00047495877 -0.0046975943 0.003111133 -0.0045108027 -0.003894262 -0.001992755 0.0010751487 0.00018342496 -0.0024786044 -0.00055329455 -0.0007738991 -0.0031375263 -0.0022844388 -0.0004354078 -0.0022263837 0.0013181114 -0.00014251469 -0.0032298602 -0.003649982 -0.0005750879 -0.0029274293 -0.00381213 0.002874367 0.0023141499 -5.124289e-05 -0.001533438 -0.003927718 -0.0027609367 0.0033806441 -0.0024505875 -4.969936e-06 0.0006392284 0.0037681477 -0.0036210218 -0.0026513801 0.0004185154 -0.0036252963 0.004213843 0.0038620166 -0.004140699 -0.001835785 -0.004318479 0.0015994916 -0.0016541325 -0.003720457 -0.0005598761 -0.0029543263 0.0008071286 -0.0041001146 0.00022957154 -0.0025154776 0.00011549764 0.00037720858 0.000749411 -0.003203965 0.0047199554 -0.0026839636 -0.0036187933 -0.0043672808 -0.0016471043 -0.0032716657 0.0019575914 -0.0042792084
still -0.0005252855 -0.00050988817 -0.0006488908 0.0015282951 0.0018691191 0.0009976199 0.0027795252 0.0012542809 -0.0039004246 0.0042838617 -0.0006883668 3.9111677e-05 0.0008488044 1.0938582e-05 -0.0026510803 -0.0029944212 -0.0039295177 -0.0018007228 -0.004974348 0.003292637 -0.002798766 0.0036995017 -0.00020348535 0.0016840559 -0.00023670097 -0.00096886035 -0.0007355833 -0.0019816179 -0.00024829005 -0.004495936 0.0030149284 -0.0007600541 0.0041806474 0.00053929526 0.0045993705 0.00492854 -3.0764884e-05 -0.0005470542 0.0029749826 0.00058297254 0.0022921446 0.0034783464 0.0015373053 0.003944099 0.0011453062 0.004833574 -0.0030692222 -0.0011471822 0.0030003414 0.0038019489 -0.0012529511 -0.0042067654 -0.00019296707 -0.0047331043 -0.0039570937 0.003801445 0.0007621775 -0.0022082138 -0.0032487244 -0.004546079 0.003744474 0.0012679007 0.004598654 0.0019204355 0.0027134723 0.0029074387 -0.0035583554 0.00031946518 0.0017778123 -0.0044200723 -0.0020819358 -0.0021154294 -0.0009955342 0.0044385046 0.0024101236 0.004329061 -0.002294338 -0.0009184422 -0.0007309223 0.0023604762 0.0039999494 -0.001555933 0.001793604 -0.004515636 -0.00087771215 -0.0023510552 -1.20957775e-05 -0.0041191657 -0.0019104221 0.0043050763 0.0035165953 -0.0009704522 -0.0018758078 -0.00051545905 0.00038426963 -0.002892031 0.0038177976 0.0032909408 0.0018497662 0.0008325224
in 0.0040874067 -0.0018742395 -0.0002577771 0.00434659 -0.0011656353 0.0009933353 0.0010404733 -0.00056712254 -0.003661226 -0.0032561696 0.0036195198 0.0010861645 -0.0035451332 0.0041403663 0.001541342 0.0038731366 -0.0026761503 -0.0048041563 -0.0014469594 -0.0013241422 0.0024941387 -0.0023820696 0.0021721686 -0.0007416304 -0.002509216 0.00065523986 0.0045551555 0.0014912172 -0.0018521764 -0.0025846164 -0.0025054235 -0.003319809 -0.0047291 0.0032339587 0.002224375 0.0048313825 0.0009920725 0.0037044561 0.0029033283 0.004124907 -0.002666247 -0.0014787063 0.001352122 -0.0004947702 -0.0024587107 -0.0035560953 -0.0027811592 -0.003945876 0.0046470193 -0.0045714625 0.00128894 0.0033059162 -0.0008981952 -0.000249767 -0.0023123897 0.0024013438 0.0041233734 0.0043549635 -0.004487228 -0.00065251294 0.0008563033 0.0020865856 0.0035685995 0.0028914227 -0.00018603483 -0.00475004 0.004499654 -0.0001677989 -0.0019543297 0.0033900195 -0.0022547164 -0.0034104171 -0.0014213644 0.002698503 0.0043178545 0.0033541888 0.0031266364 -0.0042929887 0.0048524267 0.0016347438 0.0005222051 -0.0013219585 0.0018565276 0.004442351 0.001137445 -0.0015177089 0.0028727823 -0.0011261563 -0.0025345122 -0.001492637 0.0033815224 0.0026708303 0.0023676206 9.672036e-05 0.0042830515 -0.003150613 0.0037068625 0.0017833887 0.0031254413 0.0031581817
infancy 0.0026861746 0.0035795653 -0.00031193098 0.0018268939 -0.0024739136 0.0013120788 0.004153922 0.00038858267 -0.003607233 0.0040128855 0.0046890196 -0.0007036103 -0.0003473828 -0.001047417 0.0030568407 -0.0017840663 0.0028372456 0.0022034345 -0.004646411 0.0048229396 0.004674038 0.0019679645 -0.0041480553 0.004668987 -0.0030119577 -0.0026462947 0.004565647 0.0041512777 0.0018362715 -0.0012904257 0.0021036165 -0.0026782127 -0.0045665284 -0.00091873907 -0.0022939066 -0.0046120263 -0.0013112365 0.004971173 0.003925895 0.0024188499 0.0042494 -0.0044481363 0.00278424 -0.0019983228 -0.0018191424 -0.0004457458 0.0018627194 -0.0038848568 -0.0028830338 0.00026122533 -0.0016852303 -0.0018137977 -0.0021220862 0.004893805 -2.4692906e-06 -0.0014403343 -0.0011517942 -0.0030552112 -0.0020617011 0.0016362834 -0.0042829644 0.0025545813 -0.004734177 -0.003766877 -0.0011976048 0.0025655876 0.004276827 0.00036068677 -0.004542535 0.004767935 -0.0019232194 0.001783862 -0.0033219694 0.003090721 -0.0010961271 0.0013287676 0.00147731 -0.0012277529 -0.0011609809 0.0036806038 -0.004558219 -0.0016033262 0.0023500961 -0.0049354755 -0.0018246976 -0.0020842436 0.0006427935 0.0009078306 0.00036511157 0.0019353944 0.00107925 0.0026081032 -0.0016732236 -0.0022250682 0.0035423979 0.0049934643 -0.004714027 -0.0013634538 -0.004910329 0.004650143
various -0.0025835887 0.0030206044 -0.0010290373 0.001825971 0.0012298768 -0.00041117566 0.00093267264 -0.000226283 0.0021925946 0.0035775104 0.003906805 0.0019149723 -0.00294576 -0.0028442726 -0.0046522114 0.001025786 0.0042068292 -0.0020867796 0.0042298217 0.0016887294 -0.0018921939 0.0010341228 0.0018467112 -0.004173267 0.004516556 -0.0007143597 0.00046428264 0.0022896852 0.0001538468 0.0018476229 0.003816851 -5.3482227e-06 -0.0018494573 0.0019384628 -2.4349736e-05 -0.0029415193 0.000106958585 0.004982982 0.0046867314 -0.0005864565 -0.00058486563 -0.00376754 0.002288722 0.0048422306 -0.0029504132 0.0040920787 0.00068972516 0.004863027 0.0005908583 -0.0010871923 0.004440658 -0.004418257 0.0022735498 -0.0011145511 0.0031521514 0.004193453 -0.0033921239 -0.0021755234 -0.003645296 -0.004030659 -0.003226111 -0.0022546193 0.001828005 0.004246096 -0.0003428971 -0.0018836291 -0.0044965646 0.0032373732 -0.0011711792 0.003901004 -0.0031995378 -0.004581249 0.0045976625 0.002820603 -0.0002898407 -0.0041251867 -0.00013314931 -0.0023283868 -0.0010091077 0.0029115176 -0.0006299495 -0.0006613027 0.0036406645 -0.0049768584 0.0041355207 -0.00072703644 -0.0010156933 0.0038759205 0.003833873 -0.0020075445 0.0011789609 -0.0039241826 0.00085281365 0.0007051203 0.0049221795 -0.0047447938 0.00093063863 -0.00048060896 0.0012269742 0.0036092422
versions -0.00064305327 -0.0044281585 0.003671082 0.000105303196 0.0044427817 0.0029596107 0.0019130838 -0.0014913869 0.0046343566 0.0044900803 0.003387633 -0.001010572 -0.0032408743 0.0038137315 -0.0039366675 -0.0002840723 -0.002894939 -0.0031575034 -0.0010414997 0.0026202062 -0.0026655854 -0.0049066725 -0.0015753328 -0.0012096218 0.00068669673 0.002755672 -0.001026374 -0.0036191589 -0.0021325739 0.00071397267 -0.0019334457 -0.001735738 -0.004069472 -0.0038208747 0.0046591554 -0.0036850853 0.00085475505 -0.004376313 -0.00396057 -0.0036706512 0.0019766495 0.0014895832 -0.003727695 0.0044946685 0.004165609 0.003356029 -0.0033054012 0.0018659218 0.000121245226 0.004601007 0.00315358 -0.002220657 0.003019823 0.0028122887 0.00061836815 -0.0016204532 0.0044176476 0.004763081 -0.0036700012 0.004593953 0.0029777682 0.0040815813 -0.00032485116 -0.0035338374 -0.0042978465 0.00167428 -0.002475246 -0.003364235 0.0019840938 0.0037684964 0.0044539594 0.0018702716 0.0017612966 -0.0004978621 0.003797644 0.0016065513 0.0019774288 0.0024782103 -0.004251168 0.003345841 -0.0047384934 0.0015796489 0.001458051 0.0049264976 0.001092373 0.0036544623 -0.003003495 0.0025870348 -0.0048976494 -0.0038111524 -0.0013552007 -0.0011223563 -0.0037533108 -0.0037861383 -0.0044175857 0.002526469 0.002934266 0.002717804 -0.0048632114 0.0024912236
have 0.002869057 -0.0041802083 0.0010831122 -0.0039836154 -0.003041714 -0.0046741124 0.00058036123 -0.004129181 -0.004081347 0.0033903108 0.001267264 0.0043947827 -0.003567636 0.0021856027 -0.0036221722 0.0027405946 0.00035374163 0.0031535092 0.004618711 -0.0023245763 0.0012506173 -0.00060427346 -0.001242825 -0.0021681432 0.0036565228 -0.0011594178 -0.0022912628 -0.0018183584 -0.00028200416 -0.0026686431 -0.0018412076 0.0007615951 -0.0015261442 -0.0016554341 0.0028200108 0.002230413 0.0016229616 0.0043479246 -0.0034707324 0.0004125776 -0.0029742809 0.0020264909 -0.0028860555 0.0027860983 0.003944967 -0.0009914801 0.003611006 -1.7624841e-05 -0.0014209911 0.00067213154 -0.00053202576 0.0013287002 -0.0027680732 0.0009356442 -0.0021220897 0.003542844 0.0009814731 -0.0046171895 -0.00019380162 -0.0037018228 0.00053344795 -0.00089564273 -0.0016699428 0.0031965168 -0.0013572507 0.00313577 0.002132829 0.0020139322 0.00038897942 0.0019772442 -0.0002937553 0.00057644513 -0.004454497 0.004248871 0.0049605784 0.00026269906 -0.0036352552 -0.003601571 -0.0024668102 0.004217619 -0.0032393527 -0.00076124055 -0.0036937464 -0.0014796453 -0.0027715035 -0.0035325342 -0.0032024423 -0.0040600034 0.0038934508 -0.0010248054 -0.0008198675 -0.0018445341 0.00050178054 -0.001536958 0.0025143148 -0.004221406 0.004031791 0.0045891358 -0.004856748 0.0030648622
evolved 0.0015865188 0.0043598693 -0.001387752 0.0016773766 -0.0033322533 -0.004316989 0.0013051989 -0.0014399268 0.00389205 0.001228613 -0.0038710812 -0.0021816527 0.0011553366 0.004022216 -0.002660474 -0.00091581873 -0.0011144995 0.0042395787 -0.0048472825 -0.0014862852 -0.0035198217 0.00203683 0.0049402486 -0.0039737453 -0.004114633 0.004251529 0.002735801 -0.0032329517 -0.0017197948 0.0044736154 5.7180212e-05 0.002784442 -0.0016938023 0.0044031343 -0.0013168181 0.0017758361 -0.0036833342 0.001053526 0.004217068 0.000115302435 -0.00038072982 -0.0035949575 -0.00047416758 -0.0014666583 -0.003284277 -0.0012452157 -0.001016736 0.0022478905 -0.004586272 -0.0018768297 0.0031052527 0.0026344399 0.0017027048 0.0020015277 0.0005202924 -0.0023827928 -0.0022046696 -0.002571199 0.0021869843 0.0035481395 -0.0044252337 0.0010329937 -0.0023177417 0.0027768256 -0.0033707877 -0.0044163656 0.001482894 -0.0011294498 -0.0016190058 0.0019429462 -0.0016991385 -0.0033388152 0.0012364582 0.004309524 -0.0022756518 0.0034498577 0.0002597654 0.0035224631 -0.0027131077 -0.0017654137 -0.0033464192 0.003573149 0.0001298743 -0.004648929 -0.0026738916 0.0040020864 0.00366515 0.0007869142 0.00083603134 0.0038678502 0.004661415 -0.0019199981 0.0040419158 -0.004528589 0.0029463714 0.0024679664 0.00056310114 0.0042279866 0.0021816532 0.002371975
over -0.0023440628 0.002203444 -0.0027350264 0.002026917 -0.0016710596 -0.0050124116 -0.002330865 -0.002449705 0.0003518122 0.003891347 0.004681281 -0.0010146981 0.004283526 -0.0020523586 0.0006290496 0.002803676 0.002112251 -0.00071996305 0.0037676182 -0.0015449878 -0.00019262347 -0.0037744555 -0.003249874 0.0033621772 -0.0030938424 -0.0048330314 0.0045918585 0.0046741217 -0.00089607283 0.0031324327 0.0006130215 0.0019198849 0.00097259274 0.0006040467 -0.00442719 0.0026678701 0.0027264354 0.00047742302 -0.0037140057 0.0029303513 0.00030087822 0.001832635 0.0003092288 -0.003945943 0.0020417757 0.00036439326 0.0005934535 0.00011198303 -0.004602135 -0.004934441 0.003703181 -0.002048132 1.3721365e-05 7.828101e-05 0.0037389714 -0.004350042 0.0031920082 7.373208e-06 0.0006992981 0.0014071516 0.0014937208 -0.0037180267 0.0016425487 -0.00075688225 -0.0008162341 0.0021497023 0.0042464966 0.0021817726 0.002795102 0.0006489449 0.0010233804 -0.0006658514 -0.00057237747 0.0003689522 0.002907873 -0.0039576297 0.00014505854 0.0010994963 0.004500624 -0.00481665 -0.002259403 0.0016842935 0.002779634 0.00423866 -0.002874406 0.0005459555 -0.0008029506 0.0017244224 -0.004504402 0.0047446294 -0.0036566202 -0.0024592055 -0.0003545955 0.00078388816 0.0015744895 -0.0006184627 0.0027458547 -0.002561116 0.0011003852 -0.00034108528
years -0.0030012499 0.0003664855 -0.00036482405 0.0025981835 -0.0034691896 0.0014851132 0.0012137713 0.0017825249 0.0044170963 -0.00025043683 -0.001472696 -0.0020073438 -0.0030647623 0.00429965 0.0033900538 0.003241362 0.00010871407 -0.00043473174 0.0034365896 -0.00023322584 0.004988489 0.0019209548 0.0048748357 -0.0011463525 -0.0042565386 0.0030080157 -0.004949715 -0.003417457 0.0017716398 0.0026534263 0.0002616597 -0.0031406304 -0.001752564 -0.003563814 -0.004245949 -0.0018226829 0.0017441361 0.0035550816 0.0024622194 -0.0038518892 -0.0039758775 0.0045185457 0.0043693576 0.0045540067 0.0034235325 -0.0012946855 -0.0023499303 -0.003939242 0.0017541226 0.0026318543 0.0028814906 0.0030217646 -0.0023905907 0.0034043712 0.0039392444 -0.004035521 0.004917733 -0.0022144907 -0.0023153794 0.0046946295 0.0012299166 -0.0022448213 -0.0008953448 0.0019834714 -0.0017426708 -0.0016861196 -0.0023100025 0.002451645 -0.0034920888 -0.00032066513 0.0033959593 0.0024479874 0.004019373 -0.0044415123 0.0025517913 -0.00072295574 -0.0044535105 0.0023995654 -0.0009450824 0.003083454 -0.0038442132 -0.0027861255 -0.0033367826 0.0019284638 -0.004129215 -0.0031608723 2.5971323e-05 -0.00304742 0.0047528637 -0.0037582123 0.0011046049 0.003860362 -0.004532994 0.0033934037 0.0010951917 -0.002566059 0.0044229543 0.0017908813 0.0004903819 0.0036373003
accident -0.00025949653 0.0018958154 -0.004992905 0.0018051869 0.002709011 -0.0041930536 -0.0027545665 0.0003002966 0.0019573958 0.0012887847 0.003205666 8.251011e-05 0.00040005727 -0.00055051 -0.0005567231 -0.003103904 0.0005429953 0.0040748864 0.0004278021 -0.0021385665 -0.00487305 0.0010234719 0.0034058238 0.0017866924 0.0015149079 0.00336581 -0.0023114104 -0.003875121 -0.00089433393 0.0041276515 0.0023342466 -0.0005941045 0.00036607002 0.00043362123 0.0025073027 0.0011900878 -0.0013966578 0.004049328 0.0021006651 -0.0037793703 -0.0005489923 0.003652662 -0.00019159909 0.0019836416 -0.0032048128 -0.004402871 0.004429536 -0.00075522834 -0.0023882168 0.0037987968 -1.28594975e-05 0.003602315 -0.004077901 -0.0011924837 0.004141422 -0.0020039806 0.004262522 -0.0017641037 -0.0031311146 2.364009e-05 -0.0010857953 -0.0005385564 0.0015871639 -0.003910221 -0.0034473466 0.0012987241 0.0044037392 0.004131138 -0.0026566146 -0.002920749 0.0037149896 0.0001943282 0.0027884254 -0.0022179848 0.0004283027 0.0047436208 -0.0025582316 0.0014169767 -0.00417579 -0.00030768875 -0.0017733973 0.002343713 0.003201311 -0.002886276 -0.0037761587 -0.0037939334 0.0042553907 -0.002217608 -0.0019455197 0.0015405626 -0.0037879457 -0.0015118695 -0.0034017297 0.0009836236 -0.003001804 -0.00066421786 -0.00031154408 0.0049671913 0.0006012921 0.004942664
on -0.0024293025 -0.00095617055 -0.0037847413 -0.0048517175 -0.0040040133 -0.0009062685 -0.0017653549 0.0005961037 -0.0037435535 -0.0019575302 -0.0020725047 -0.004556155 -0.0017771425 -0.0024997008 -0.0035834857 -0.0018156479 -5.812716e-05 -0.0028543766 -0.0015398844 -0.0013729623 0.0038376944 0.003194907 0.001852519 0.0028806922 -0.0033006147 -0.00087370287 0.002098737 0.0020732097 5.3411703e-05 -0.0023044366 0.00019170041 0.0018922887 0.003987902 0.0018808163 0.00014739377 -0.0030664087 -0.0017933303 -0.0015887012 -0.0038660953 -0.0033376007 0.004613543 0.003948154 0.003025719 0.0006716886 -0.0008623707 0.004803168 0.004009503 0.002429948 0.0027267376 -0.0019881236 -0.0011746131 -0.0031707434 -0.004271583 -0.0037257643 -0.00038205387 -0.0045954273 0.000440742 -0.0020312807 -0.0025029653 -0.0019479197 -5.692216e-06 -0.0038651228 0.0028262755 -0.0009833723 0.002114066 -0.0026607672 -0.0028803986 0.0020409287 0.0013663957 -0.000894555 -0.0013461034 -0.00089120166 0.004428046 -0.0010304537 -0.002653429 -0.0027031098 -0.0004976262 0.003917862 0.0034905265 0.0025154375 0.0040229694 0.00013887759 0.004452985 -0.00011205543 0.0037367656 -0.004299626 -0.0034769196 -0.0012559537 -0.0025043187 0.00053751917 -3.1731593e-05 0.0044775745 -0.0012246525 -0.001217174 -0.0022316773 -0.000674842 0.0041608755 -0.00044022838 0.0013644734 0.0015317174
purpose 0.004798377 0.0010566708 -0.003485733 -0.0016291143 0.00048902084 -0.0037480409 -0.0015564419 -0.0011754048 -0.002925561 0.0049571693 0.001044708 0.003491334 0.0030120765 0.0008418044 -0.0006781102 0.0041655065 0.0037678275 0.0035819144 0.0021148364 -0.0011593347 0.0028326754 -0.0010124203 0.00037991218 -0.0029873224 0.0035871682 0.0041475375 -0.00028525764 0.0027716812 -0.0001690705 0.002174254 -0.00043634148 0.0021751209 -0.0015060247 0.0027231819 -0.004615215 0.0035672442 -0.0048788586 -0.0038380146 -0.0025908342 -0.0011840111 0.002974575 -0.00088832754 0.0024745779 0.0027782263 -0.0028994987 0.0019600978 0.0030850254 0.004635889 -0.00025817784 0.0048095495 -0.0028301268 -0.0015385725 -0.00401779 0.0013600208 0.0022727079 0.0033664198 0.00085880887 -0.0026298587 0.00020536546 0.0006407489 0.000624801 -0.0018199402 0.0014029506 -0.00049298786 0.0030802658 0.0033151703 0.0035908842 0.0015176914 -0.0026051847 -0.002603806 -0.0022705032 5.0160666e-05 -0.00022742042 -0.00044761997 -0.0037379758 0.0033222756 0.0026736564 -0.0031321927 0.00026707439 0.004542792 0.002694196 0.0048190593 -0.00055988575 -0.0012339132 -0.0039286916 0.00192519 0.004633711 0.0015119106 -0.0023856089 -0.00039235508 0.0030114544 0.0029136233 0.003810139 0.0036313715 -0.0013442273 -0.0033201012 -0.0016160031 0.001806615 -0.0007526967 -0.0024218191
injected 0.0014177865 0.00049402774 -0.0042276536 0.0011930082 -0.0028549284 0.0009625625 -0.0006517593 0.004653591 0.0041334126 -0.0032217996 -0.004707412 0.0018748486 -0.0044092946 0.0024947796 0.0002192686 -0.0036556164 -0.0007181046 -0.0019271865 0.0039086267 -0.0036293517 -0.0048626913 0.0037011825 0.0018391361 -0.0043827416 0.0018505747 0.0009188881 2.0192529e-05 -0.0024865062 -0.002188549 0.0032887834 -0.0015494915 -0.0023028352 0.00075735844 0.004643803 -0.0002314965 -0.003910093 0.0042139916 0.0033043493 0.004933256 -0.0021473127 -0.0008278552 -0.0007522088 -0.004808347 0.0024840154 0.00018487337 -0.0023098923 -0.0010034754 0.00021052666 -0.00045841106 -0.0027624173 -0.0010099222 -0.003374332 0.002291403 -0.0021505048 0.00063511904 0.0025856972 -0.002853954 -0.0011141917 -0.0033562523 0.0032993483 0.0031621433 0.0043593203 -0.0032294285 0.0023418472 0.00067331485 0.0009900448 -0.0012623903 0.0019576028 -0.0040539857 -0.0016653553 0.0001293082 -0.0033482858 0.00428562 0.0009508234 -0.0019140881 0.0015411839 0.0047904924 -0.004667816 -0.0047333287 0.0011618384 0.0007523501 0.0026775098 0.00012913611 0.0023874536 -1.4542493e-05 -0.0010761605 0.00024096604 0.0009571665 0.0015617543 -0.0026365197 0.0019970676 0.00095761707 -0.0045962073 -0.0019624743 -0.0011971458 0.0004825438 -0.0025635874 -0.0028624581 -0.0032151197 0.0040426515
humour -2.0986889e-05 -0.0009138351 -0.00041420845 0.0013186218 0.0011509955 -0.002347989 0.0026284775 0.0020158459 0.0020125455 0.0021301967 0.0008345187 -0.0010745019 -0.00064604124 -0.0009068014 -0.00019797515 -0.0040106685 0.0008983546 -0.0042431424 0.0027555702 -0.004272622 0.003209706 0.0010432206 -0.0029112098 -0.0002492556 0.004498589 -7.424912e-05 0.0038172205 0.003681781 -0.0026900175 -0.0028058614 -0.0048242602 0.003654387 -0.0004256392 -0.0009398483 -0.0009790807 0.002844998 -0.004849694 0.0025326281 -0.0011993906 0.0048156586 -0.00015497043 -0.0018828448 -0.004998357 0.003311782 0.00032654556 -0.0019084188 -0.00029756653 -0.0010472008 -0.0041104015 0.00045131447 0.00060806173 -0.0020617456 0.001050811 0.0016830732 0.0015429425 0.001926115 -0.0034317928 -0.0018335481 0.00091194327 0.0015418679 -0.002644486 -0.0047691097 -0.003929598 -0.00034270354 0.0030487438 -0.004100441 -0.0045110467 0.003306112 0.0044000517 0.001027539 -0.004847232 -0.0042582573 0.0006334266 -0.0011931944 -0.001006946 0.0012554765 2.7975686e-06 0.0018492109 0.0036322859 0.0019738036 -0.00165275 9.9163975e-05 -0.0032746606 -0.0009358759 -0.0017999355 0.0047094324 0.002246949 -0.001842632 0.0033411193 -0.004716259 0.0040226784 -0.0031997224 0.0023606496 0.0014868166 0.0023379195 0.003965361 0.004763266 0.004181343 0.0045270473 0.0042998316
 0.0022260575 -0.00019267216 0.0006176853 -0.0012362414 -0.0038960758 0.0030300133 0.003126176 -0.00097464246 0.0038725073 -0.0045402967 -0.00464442 -0.0047812513 -0.0019303531 -0.0001251669 0.000909392 0.0040559974 0.0040679723 -0.0036661136 0.00033541486 -0.003394106 0.0016798825 0.0021388922 0.0002675454 0.0015904245 -0.0047180164 -0.002266027 0.0041506705 -0.0041121347 0.004088561 0.00092879933 0.003216693 0.00089885027 0.00038927994 0.003056981 0.0010663827 -0.004865442 -0.000119942975 0.00050484 -0.004574373 0.0019619698 -0.0035125182 0.0038914017 0.0022588018 0.0014918015 -0.004345718 -0.0045632226 -0.003499221 0.0023104693 0.0045780926 -0.0038312867 0.002660959 -0.0004373252 0.0044778604 -0.0042048353 0.00423561 -0.00294624 0.0017012773 0.0038636113 -0.004577843 0.0038976604 -0.002066018 -0.0019008447 -0.004299945 0.0032385748 -0.0034042094 -0.000449966 0.003254299 -0.0038660844 0.0026546551 0.0006840901 -0.0031737676 -0.0035285563 0.00079775526 -0.004467791 -0.0017056218 -0.0029636754 -0.004956361 -0.0019451939 -0.002132596 -0.0045413887 0.0018743301 0.002802013 -0.0013965969 -0.002462408 -0.0038156635 -0.00067621 0.0042307344 0.0031152067 -0.0041789105 0.0020823516 -0.0029900952 -0.0022401428 -0.0034322732 -0.003681499 -0.0020961938 0.0043896525 0.0038873677 -0.004248748 -0.0048433067 -0.0018962657
