438 100
<UNK> 0.45974883 2.0888932 1.1052039 1.2484823 1.8615674 -0.4030574 -0.010225799 0.1717961 1.5479907 0.65992504 -1.6650524 -0.023926541 -0.35172474 -1.3764856 -0.3301883 0.91032994 -0.9736488 -0.8892223 -0.67789924 -0.47616464 -0.9714807 1.3155067 0.37960133 -0.9659237 2.4339387 -0.0586822 0.08246636 -0.27173927 -1.654969 -1.3138602 2.3028736 0.46109414 1.019522 -0.728118 2.526226 -0.5752676 0.014345128 -1.7773384 1.1359128 -1.0837064 1.8726103 0.50240135 0.9989233 -1.8868237 2.834528 0.42118078 1.0000293 0.44163382 -2.826465 -3.0191524 -0.018037273 -0.3983753 -0.2583646 0.014871505 -2.2877672 -1.2025329 0.4016251 1.0809758 0.0132861 -1.0579184 -0.30893475 0.1813012 -0.2232828 -0.4597622 -2.994111 0.43741795 -0.21712935 2.6081016 -0.38888207 1.077715 0.08417553 -0.63565284 -0.2500942 1.5463003 -0.15708111 -1.0609965 -2.1116734 -0.115607455 0.8894912 0.006537204 2.7036765 1.2445823 0.95160323 -2.2882555 0.18548776 -0.27254212 -2.1586428 -1.0620059 0.73558 -1.3953617 -0.2601201 2.1221778 -0.25350967 -1.3583126 1.6703918 2.7159414 0.10224962 0.15202518 0.12365604 2.167125
to -1.9926465 -2.0156984 2.3826737 2.814753 -3.604786 -0.4826906 -3.0743277 1.8196714 2.9516346 -0.8935593 -0.051124573 2.271669 -1.8588853 -4.424227 -3.5633354 0.8985273 -0.8639793 1.7088292 -0.011704299 1.6271733 -1.7492324 -2.3864262 0.03930353 -0.62004405 -5.283934 -1.9451083 -1.6328337 -0.16510025 -0.056728862 -1.4813995 2.455937 -1.4862177 -1.8718364 -3.7271743 0.4827017 -1.4735937 3.1911347 -0.16910617 1.4113373 3.126418 -5.238243 -1.8332968 0.23476674 -0.8632911 -3.266327 -0.56896365 3.7961602 -2.1896894 -1.0157458 -3.4696963 -1.0021135 -2.323715 2.6394773 -2.898809 -0.52659047 2.1745198 -3.7521884 -0.49670622 2.8417475 -2.2853475 -2.7557163 2.0135152 -1.5223914 2.2920713 -1.2185681 -3.7325995 1.2705232 -1.0380243 2.870646 0.62576216 -1.3543439 -1.1050065 4.024718 -0.41586527 0.7838511 -6.242581 -3.4053676 -0.03034797 6.0871615 2.6813743 2.3522782 -2.8946035 -2.3258953 -0.7856103 0.5016592 -0.4078822 -3.063616 -0.22206566 2.7863374 0.68115735 -4.8841176 -0.35013396 -0.9115436 -6.700691 3.1640787 7.546261 0.39720088 0.5789109 -2.3296537 -1.8937079
from 3.6522777 -0.5125668 -1.0845021 1.9100381 5.757552 1.1785693 2.406393 -1.12108 2.3150957 1.5915143 -2.0614593 -0.8678443 -0.5505604 -1.3787123 3.268803 0.022908239 -1.2252 -4.053637 1.1524278 -3.348673 -2.1860697 -0.3374434 -0.3074048 -3.4349356 4.333137 -3.841057 4.0936475 1.9829135 -4.896283 4.715095 3.112271 -0.8620321 4.7288895 -1.9880613 0.039765216 3.5400057 1.3959249 -2.6236541 0.25645208 1.2296432 -0.077245735 -2.1348813 4.6315317 3.5172803 3.0018656 4.9578686 0.23550321 2.3482223 -4.6720495 -3.276566 0.3520417 2.9593709 0.21957482 2.7788079 -3.1456552 -5.2302995 -2.559588 -0.7726051 -4.1516213 2.359504 1.4883497 -1.2645795 -5.0546227 2.282649 -7.772552 -0.4464986 -2.6705496 2.32282 -2.9193246 3.7165027 2.5041535 4.791025 -0.3933941 -3.4136972 2.3376265 3.5187511 -0.102136806 1.0723319 3.850052 2.4246762 0.474486 0.42549872 0.48486573 -0.26740602 1.9469975 -1.870245 -1.146973 2.7562037 2.3558402 0.28860244 -3.4167018 -2.0790431 -0.9913473 0.5871715 2.4731586 4.957082 -0.43010914 -3.6026745 -1.4129057 10.789548
flights -2.0153117 -1.3926477 7.973596 4.1155515 1.1419283 2.9700482 -2.5663478 3.2374723 3.0986059 1.5940909 4.311074 -1.324695 1.532276 -1.8722804 -1.258229 -0.22476822 0.6754186 2.1030436 -5.026538 -1.6784692 0.70692325 1.6207228 -1.5399432 -7.0216446 -0.026481075 -3.9350486 -5.016342 3.08903 4.6797404 2.0508926 6.929888 1.069121 -1.8386899 -2.433815 0.43552914 -3.995834 1.8940098 -1.490947 -6.24934 -3.4544976 2.3323863 1.8549294 -1.5789974 -3.4877088 -0.029953802 1.040643 -1.8960528 4.6231365 -0.7678368 -1.9377767 -0.2658367 -2.791485 0.955194 0.23857611 -2.2370806 -1.4685498 -1.9622648 4.975357 -3.8624768 -0.8975842 2.680067 1.3565475 -1.473964 -5.1103134 -2.1558206 -1.73783 3.6420133 -0.9037771 1.5691371 1.6124088 -2.6416237 -0.639864 2.2751327 3.961262 -1.1123055 -3.690411 -3.8030741 0.08019877 -7.6054296 -3.382065 -2.1129794 4.175591 4.859431 -3.8768532 -0.92460424 0.16060412 -1.0614152 -3.5745754 1.2702249 -1.9414736 -0.5630061 4.5164056 -2.6625912 -2.0785031 2.3645911 0.17833282 -1.8097359 -0.037996013 0.9273929 3.0424275
the 2.1618211 -2.2598066 -2.8310964 -1.8206817 -1.3605456 0.16323502 1.0082083 -2.476608 3.292129 1.4918361 -0.115306504 1.1768458 1.6775815 -1.0716043 -1.3951359 1.3697392 0.83793473 4.10519 1.7669489 0.64387393 -5.614819 -4.52888 -4.8168545 0.46699625 -0.507081 3.251845 -4.9636064 -1.1503941 -4.3915854 -0.44101387 -4.8328476 -4.6756177 2.316711 1.5292943 3.0519624 -0.06791217 -1.2611669 -2.1720488 -2.9481547 2.8529766 1.564564 0.97299296 2.6935458 -2.005278 1.7799104 -2.2748775 0.37732804 -0.75180197 1.984809 0.5429464 -0.7561188 -1.5944121 1.5330281 -0.48727426 -2.1725478 3.3476093 2.7570825 3.5328918 2.9317877 1.4093496 -1.669811 -1.7018225 0.0491311 2.033546 -1.5283766 1.6878825 1.7987862 5.8094273 0.50335145 -3.213517 -0.13608368 -1.1885716 -4.5194087 0.9203263 -1.4779725 0.12113839 -1.1150926 2.9895191 3.9593225 0.70930934 -1.4638495 -4.8503823 2.3762975 3.2017055 -0.62077266 -0.64639765 -2.659734 3.8732002 1.5009265 1.4370594 2.0194645 2.0495627 0.38730228 0.6642135 2.0552845 -0.88895655 -2.2402415 2.5510035 1.4380296 -1.3417516
on 0.09120527 4.8199563 1.4214694 0.06493103 3.6314363 3.0284772 0.14630526 0.13251129 -0.7298471 -1.1754028 0.610883 1.1634752 -3.1965058 0.03470311 1.8514282 0.093798935 4.2047486 -0.26153955 -0.7297159 3.462674 -2.274599 -1.628351 3.4088178 -1.1874137 -2.2894058 3.1159565 -0.9571981 2.1695237 2.6590579 -0.8589228 0.10078174 4.2239294 3.1407218 0.72940844 -0.27948156 2.0232902 7.0264797 2.8586628 2.4373894 1.4472653 2.2554402 5.037839 0.36270246 -2.0388188 -1.3349409 -3.0927353 1.1382594 -2.1750767 -1.7644578 -0.05285289 -3.1311162 0.41017804 -3.5357778 0.06556182 -5.7265015 -2.1227233 1.3073704 -0.23985815 1.5458115 -1.7866539 -0.9786035 0.32272303 2.3838458 -0.051198546 -8.2753 2.1774921 2.186562 2.127056 1.3579208 1.5299573 0.79537094 0.62463725 -0.2790351 -0.17645763 -2.403234 1.2926866 -2.7479732 -1.3988886 0.58393776 7.160118 0.09296809 2.7312353 1.089503 0.17902711 2.139206 -1.1005144 -1.3175794 -2.0398426 1.5608716 -4.051924 -7.526677 -0.2535805 -1.9856347 -4.7211866 -3.3366435 0.9409068 0.16436757 1.8308097 -1.5340372 3.973343
what -4.955129 -4.3416195 -4.9608235 2.6559503 -1.8317058 -3.2311282 0.51966923 0.82576793 2.4688222 1.3846539 7.3014617 -0.5533701 -5.8798943 1.1831506 1.528182 -0.97379863 -4.2613783 7.160824 0.7363615 -4.709839 -6.4091578 2.1997678 -3.823043 2.319054 -4.2018204 -0.37870443 -0.17055884 5.05988 1.3761501 -0.5317237 6.039965 -3.454222 0.1518554 2.8093138 -2.8124616 -0.094859816 5.092953 -6.124208 2.5171788 3.636365 0.0097749205 -3.3499036 -5.950848 -0.5871743 -2.6625812 -3.9404104 0.72100353 -1.9703573 -3.6298575 -0.58654493 -6.149181 4.114279 -3.422636 -1.9680916 1.5082474 1.58195 5.5133476 2.1395693 2.715383 4.6059365 -3.8927317 0.9280105 1.1178737 -1.3416734 -0.38745993 -0.7803631 1.3805002 0.5608263 -0.5614423 1.4420432 2.2422125 3.409107 4.1895766 -2.5093915 -2.08721 1.6161995 -0.6023029 -2.0405047 4.057672 -2.581313 -0.31578696 -0.6983943 -4.7902346 2.7103517 1.2780032 -2.7313085 -0.8439204 4.069983 0.8426415 1.8786744 -4.2159123 0.37895414 0.05094123 0.9533724 4.214054 -2.9498267 1.3940414 -3.2145998 -3.0226932 0.26294047
me -3.6548493 0.026613615 3.3934917 -5.4823394 -0.411304 0.3738715 -0.635817 -1.7250555 0.25772431 0.17545255 1.971056 -1.0909376 -2.0045547 2.1944814 -0.72685355 1.0511003 2.8604014 3.9207282 -1.8133178 2.1589077 -1.8666471 -3.1064901 -4.234947 -1.855384 -1.8809507 -3.090781 2.442486 0.22476487 -2.7694578 -0.028692516 6.606443 2.9841402 4.0566816 3.3432572 -1.3886064 1.1367462 2.0696282 -1.1049984 -2.3939874 -0.6861514 -2.9773738 -0.8872952 -0.58082056 3.0829546 -0.8172035 -4.3177285 1.0456002 -4.0153313 -0.98957753 3.4161716 0.7695217 1.4990338 -2.009417 1.7253112 -4.2314177 -1.2024721 -2.8574104 3.6886375 -0.9903117 2.4024215 -2.4761035 -2.8566394 -4.743268 0.9357942 2.5727916 3.0645769 0.9081173 -4.9984894 0.5965792 -0.95377344 2.5777187 0.9697582 1.9916302 2.667133 -0.19681169 -0.0023244256 -3.466132 -4.6981683 5.6889496 0.8112957 -1.321815 0.6672141 -5.901736 4.574461 3.5833204 -0.45854884 -0.5701068 3.2687528 -0.090263434 1.6315632 -4.5160074 -4.185366 1.9195426 -2.2653806 1.4626455 4.3534374 2.3248599 -2.2613392 -8.127417 -2.6208258
flight 0.6011427 -0.26768965 8.928973 5.782624 2.8778949 0.061669562 -1.9449952 -1.2901727 9.5984335 -5.053613 5.076061 3.557298 3.713367 -4.197967 -4.3984694 -3.2101724 0.08282548 -1.4332592 -2.887543 3.745118 0.4365217 0.1994823 1.0855823 -3.2492461 1.5455937 -3.2520547 -5.74673 2.0067732 -3.5074387 0.052187793 5.1126657 1.3404796 2.3557432 -0.82608205 -5.072493 -3.1535645 3.12335 -3.5874429 -4.2159653 0.8760401 -1.2555509 6.666341 -2.1432405 -6.013392 1.0400543 1.7466121 -1.0296408 0.23108783 -3.1916478 0.41969332 -3.7277281 3.1424189 0.0808419 2.835125 -2.4749017 -7.4439807 0.65721834 2.6046743 0.43333587 -1.8903992 4.797462 2.306305 -0.8531936 -6.1708937 1.877317 1.5443038 3.159455 -1.695066 -0.97026837 0.7614662 -2.279095 1.4412332 -0.8027956 4.271904 3.7776895 -3.1451385 -3.7403455 -0.84916073 -10.085124 -2.573289 -1.1795105 4.8372855 7.25926 -0.9344728 -0.32901248 -0.0062684324 -0.33047393 6.921816 -0.46913612 -6.4805574 -2.3264978 0.9590604 -0.3523716 -2.3998415 -2.228321 8.843999 3.2797446 -1.3800952 2.4220767 -0.82061476
show -4.070317 -2.288336 -0.3206027 6.754739 0.62533903 4.6429763 -1.3325157 0.20248671 3.942988 -0.26679847 3.8909638 3.2493057 -4.153201 0.65237415 -4.288676 -0.4861219 3.0784223 4.155171 0.20120159 -1.593017 -3.936866 -1.2493343 -4.775623 -0.39685473 -0.085387625 -1.6880306 -0.766471 -4.15873 -2.3328097 0.83140457 2.5672104 0.7096434 -0.41006565 -2.507947 -0.24975082 -1.2830892 6.9189954 -0.1570452 -3.296653 -1.7191049 -1.4808033 1.2053612 -0.02899979 -1.1710495 -0.09152672 -5.0004735 1.6145314 -1.5963258 -2.8495495 3.2073133 -0.08317457 -0.18456188 0.8153561 0.86149734 -0.101925686 -4.0386825 0.022000145 3.9971933 1.239925 3.1003754 -2.9791462 -3.6875713 1.7756395 -2.8896978 0.33708873 5.942064 4.473548 -1.4505035 -1.9115072 -0.1052201 -1.7496786 0.45825508 2.0981843 -3.600801 -1.1078155 0.08162482 -1.1652535 5.173786 4.808197 3.77877 -1.1271955 0.69004244 -3.2623742 5.188655 3.4006515 0.71797097 -1.1500368 -1.228567 0.3310975 -0.893843 -3.2557325 -7.1112423 1.7935843 -2.1520147 3.4516542 5.615192 -1.6756701 0.32894263 -0.80202514 -0.23270077
i 3.1117043 0.7337275 3.89528 0.16197655 -1.202315 -4.2971535 2.6488245 0.13685578 -3.634317 3.0084817 0.018565008 6.25531 -0.50352174 -4.2783318 3.7485883 1.6807353 -0.16128144 0.2646664 5.3469386 0.5597082 -0.27981716 -1.3548194 0.5859355 2.6358473 0.6341611 -0.55195546 2.2967224 1.7081379 4.3373165 0.81320775 -0.5657941 -3.7786078 2.4556296 3.5330272 -4.8169703 -3.0279312 0.5829324 1.0294013 2.6585267 -1.210092 -5.0950913 0.98685545 0.21174227 2.8188136 -5.978647 1.3675743 3.90653 -1.5812535 1.9300623 1.1711148 -0.45192227 4.6102314 5.462843 -0.93590945 -2.94304 2.2668378 -3.4974988 -0.7202973 4.3199916 5.3836894 4.816474 -4.1081414 -0.2256482 -0.6224584 -1.1727444 -1.6547532 -2.2357605 -1.071544 3.6612139 -2.3537726 1.5451688 -0.33850563 2.2862768 -0.22557564 -0.97763807 3.2831192 -0.7428585 1.0495019 -0.32927537 -1.4828614 -1.831638 -0.3287577 4.290853 0.90534633 1.1184328 3.225583 1.5251542 1.3419424 -3.366798 2.4643521 -10.689971 -0.7732612 -1.5274892 3.194069 -1.4828142 0.37042424 1.8249542 4.986091 -2.3320885 7.0365386
boston 0.043462925 1.4239464 1.8037575 -0.85143584 -0.50886625 -1.8406572 2.155562 -2.22584 -2.8260193 1.7185212 0.18601276 3.1722574 -0.2930788 6.369676 2.2809768 1.2248365 4.6900344 5.6685185 2.197431 -0.5760442 1.7858235 -3.0537484 0.5419037 -1.8089714 -1.589147 4.451838 -5.386445 2.5210593 0.25631422 0.8073044 -1.2954454 2.727819 -1.6237385 0.024963308 -5.3454795 -2.3826437 -2.4400141 1.1334422 -1.6984094 1.1483315 -2.079144 1.6015406 0.1588984 -0.73922807 -3.2183213 -3.3586829 -4.350971 -2.318941 1.1328151 7.0647454 1.7963194 -1.69921 -0.92835766 0.59380466 0.5789469 3.8482652 3.5044942 4.0902195 -0.22558707 2.6363235 -1.4432375 -6.5646415 1.8274962 -2.2806683 0.1709092 -0.86593586 1.2483323 -1.24304 -0.21322013 -2.5723827 2.5568829 -3.7775087 -1.2407665 -1.7453245 0.04003794 5.36818 -0.3107085 0.49173686 -1.1109298 2.427928 -6.4727936 -2.4325237 -0.1878096 0.83197105 1.4638809 2.4287605 2.9577262 2.2318575 1.0061499 3.7839026 1.5038121 -1.3060142 -3.6740239 1.0374638 -1.9337306 -1.1898923 -2.0732973 -0.3551631 1.5346327 -0.56741625
san 4.207356 2.077238 1.5764802 -3.2383554 0.9995981 3.0435784 -1.6022094 0.7998279 -0.22245187 -3.991695 4.1895623 2.0105567 -2.4628084 0.61868846 0.41918418 1.4973575 3.4224005 1.4989173 0.39713812 -0.0025405667 -0.1525787 -4.8254805 -1.0158967 0.049799412 1.8937057 -1.5469646 -7.142624 7.423334 3.1630657 -1.3641318 -2.7160096 6.6018233 -2.2246654 7.3500056 2.6453364 -0.9205066 -2.998882 -3.4861488 5.4264817 -0.7785588 -2.2146022 -6.0788465 -0.31887558 -7.218035 -1.3479377 -2.0325303 -1.1279861 1.5949386 0.20628853 2.6553051 2.5140855 -2.2341595 -1.9244633 2.0994515 0.70338005 2.725166 -7.074182 4.086303 -1.0251657 5.2343726 -0.76944876 -8.261793 0.7569802 -1.5761333 2.0221899 5.797258 0.21736842 3.0390837 -1.2372681 3.6938124 -1.7458678 2.7146657 2.1583834 -0.78404355 2.6152596 1.3942201 -1.1752046 7.194751 0.75266737 0.33396083 -0.21106404 -1.3748515 -1.3254331 -1.9189943 3.3836403 -1.1987892 -0.3144163 -1.3258526 2.0165198 1.1254333 -1.9277841 -0.2204906 -5.5995874 0.24798055 -2.8696334 1.5780998 3.6487658 3.2736487 1.1066616 -1.0853565
a 0.60504144 -1.8325671 -0.014147493 0.7637786 -2.2645354 2.1435642 1.3686992 1.8529807 -4.179935 5.123282 -4.4826965 -7.3475046 2.121393 0.92518574 0.2517537 1.7994395 -2.0431988 -2.06577 0.07704445 -8.758349 -2.1878111 -0.5518178 -2.0671194 -7.8256865 -5.343209 2.458892 -4.3363786 -2.0999365 7.902214 1.4490172 -3.2212481 -1.490575 -5.7123404 2.2276208 5.6310625 -2.692777 -10.082332 0.58756846 -3.968782 -1.8231153 -1.0297219 -4.491847 5.9596963 0.7381912 3.4702451 -5.525517 -3.317121 -2.5612555 -0.9633562 0.4614506 1.2926775 -3.8077018 3.2452328 0.6944011 1.3431602 3.2521095 -4.3471446 1.3649101 -0.036907583 3.5445294 -2.4953718 0.18733259 5.097689 2.606794 -5.317112 -5.110988 -1.2227091 2.7447321 4.484694 -0.20279628 0.3187298 -1.3501202 3.623121 1.5900942 -3.181321 0.21459371 -0.7676087 2.9322212 2.1242356 4.554261 2.937952 -1.3290405 -1.11555 2.5827792 -6.0287323 1.2722976 -5.2645864 -4.190896 3.1361313 -1.6835157 1.2903824 2.2468276 0.21434279 -0.82306 5.4779024 4.6609874 -0.9347118 -2.5294511 -2.1818256 5.466308
denver 2.832483 2.653163 1.9069022 -3.3831644 -1.4437466 -1.5564183 -0.019762462 0.8291064 -1.7563866 1.8953465 3.7861447 0.23127513 -0.46392697 4.027665 2.4554884 1.7808374 3.5159392 3.6425467 3.140782 -1.8932186 0.4650587 -1.3249378 -4.271066 -0.7151324 -0.8642256 1.5480717 -5.062588 3.2649305 0.57499343 0.6463361 -3.3229723 -0.32739335 -2.562887 0.026021104 -1.3149614 -0.46912196 0.112775624 4.852729 -2.640618 -2.6382887 -3.648785 -1.1490408 1.1074344 -1.1956812 -2.564463 -1.7576183 -1.4639125 -2.2415638 -0.46287113 5.5139847 0.7652081 0.6925609 -1.5097331 -0.40289855 0.4907375 1.5756421 0.7749405 1.4151635 2.8965106 2.304398 -2.482052 -3.8768973 -1.2676257 -2.1666698 0.49441615 1.7355715 -0.5536349 -1.844122 -0.3817445 -3.3010566 -0.38590133 0.7391132 -1.4015232 -1.8542389 -0.6194476 2.9968503 0.28258246 0.038327016 -0.41908166 1.713291 -9.328468 -0.9433937 1.6202163 4.0683346 4.001602 0.7309731 2.9252684 -0.072800085 -0.79079646 1.7517505 1.8588002 3.128408 -0.07888258 0.47314087 -5.9733686 -0.99499834 -0.8617171 1.6204895 3.2239628 -3.032454
in 1.2310587 -5.0489197 -0.8902941 1.1958373 -3.2109373 -0.55188906 -5.5839095 -3.6398978 0.85016006 -4.649748 0.37522897 2.276285 -4.4753947 -1.3889314 -1.662184 2.4600859 -5.2541246 1.7286237 0.44793478 2.5046043 1.7299701 -0.43890733 1.5460702 -6.408161 -2.0171535 1.4281908 -0.89201033 3.9836793 0.20152357 6.403025 3.4542294 2.9785724 -2.3563263 -2.8386729 -1.4175516 1.5945759 5.8221045 1.8045212 -2.9494817 1.1634849 -0.8135584 0.43167683 -3.8916562 3.113199 -3.1888077 8.294015 2.438271 0.8357784 -2.1554484 -3.3957283 0.6993628 -1.3241928 2.617053 -1.6970061 0.05022197 -0.46748924 2.4595382 -3.9728205 -10.201483 -2.1961606 0.91730535 0.60424495 1.4612979 2.8248615 -0.21598206 2.8898249 0.47111642 1.4124069 -3.8650289 6.322019 0.97120136 -0.9898671 -1.089552 -2.7316854 4.0645995 -2.8569999 1.0625144 -1.5481627 -6.322999 1.2296215 5.623161 2.5203815 1.3302974 2.7393079 2.3649156 -0.98720837 1.3157424 -1.6953017 -0.9082159 2.9072204 -3.1586251 -3.000277 -4.1172915 1.703149 0.79530984 3.3936765 0.2547905 -7.138776 -2.9741762 -2.23557
and 1.9802294 0.14869283 -6.6541862 2.574526 7.7565427 -0.9075412 1.8005599 2.4107988 0.6106662 1.838865 2.2991111 0.101207085 2.5135424 -2.1001723 -3.48634 1.394655 0.12654327 2.158972 -3.5998356 -5.8464313 1.0628256 -2.823943 -1.9139085 2.3839667 -0.7283722 1.5991038 2.001772 3.2179022 -2.41098 -3.132365 0.7818445 -2.3524284 0.21290644 -1.3516282 -4.3673086 3.098805 4.8818913 -3.515745 0.106022686 -0.57276946 0.5451555 -5.4329014 -2.3862686 1.2673583 2.7395 1.4055883 0.09147422 -2.0748384 -1.4667945 -3.5357652 -3.51045 -1.861204 -1.4788972 0.6724973 -5.036446 -2.1760776 -4.60148 5.8727036 -0.4233338 1.2885975 -2.3548768 1.8680352 -1.0654124 -0.2834707 -5.0834527 -8.604865 3.0526474 -2.3226287 -0.63235146 3.4764414 -0.8634077 -0.7303701 5.4057384 -6.238191 -3.943743 -1.3590509 3.1862311 -1.639443 2.6391032 0.45698765 2.3417113 6.0749354 -2.9475958 -0.6868506 -2.2742138 0.3567346 -1.6189382 -1.3513047 -1.9131037 1.9077121 -0.20621772 -0.2160871 -0.36599284 5.477108 4.4584827 0.46685034 -1.6682743 -0.4061185 5.7813206 -7.563886
francisco -1.5184528 -1.198479 5.038694 3.5608773 -0.84770584 -3.0851686 1.0086572 -3.1653814 2.413363 4.53979 0.6128261 -1.3785645 3.4731464 1.3498759 2.83139 3.1771338 1.146898 -0.6485968 3.3128262 -0.5300552 -2.0983932 -0.24492419 -3.8653913 2.622939 -4.2167196 1.7990699 1.9790521 -0.65413827 0.34426263 1.1582576 1.0108443 -1.1296871 1.9416729 -4.3331647 -7.296774 2.1847794 0.20700382 9.145374 -10.556978 0.3211546 0.76415646 6.7173357 0.021139065 6.652125 -2.749143 0.1488669 -1.2054489 -6.04532 -2.4242468 6.10876 -2.615928 -4.0645547 1.2525522 -3.5700173 -1.080481 -2.1613219 6.913963 0.47088146 2.2537775 1.398889 -0.9379777 2.4134767 -0.6766849 1.2223194 -1.8316258 -3.707218 -2.188579 -2.4830651 -1.9127785 -2.2174902 0.056474384 -2.0144656 -0.62830967 2.3920753 -3.6876588 3.4974236 -1.1526995 -1.3013188 1.5305547 -1.9143208 -5.203533 -0.29340148 1.945144 3.947352 0.6241534 0.56621164 1.3753653 -0.39754125 -0.32745495 0.20393477 1.8925405 3.2878075 3.2819946 -2.7063205 -2.0760186 -2.2380872 -5.316235 0.95396256 0.7771438 1.6563607
atlanta 1.4178233 0.642752 4.883653 -0.2192267 -1.3820983 0.47932157 0.2690056 -0.718727 1.551745 3.3614423 4.4444547 1.8404334 1.3148328 3.0478752 4.307079 4.5428987 3.1600792 0.57536054 4.7197843 0.26981586 -3.357711 -1.2530738 -4.0695415 3.6608992 -1.0146202 1.7977892 -4.1169686 1.7758719 0.710228 1.8001628 -2.3109071 3.5286894 0.21434563 2.858366 -3.1979065 0.47972614 -3.446635 3.7249885 -3.2426703 2.7260776 -2.568375 0.5978061 0.019792438 1.8565878 -2.1634939 -0.79643285 -0.11867185 -5.23557 0.26497972 5.932062 0.8368812 -0.07196168 -1.5994716 -1.8873973 0.34024885 1.6286545 1.7336179 2.154118 0.1112078 4.7092443 0.33689186 -6.1154737 -0.7992564 -1.3061502 4.8094053 -0.07473597 0.041611865 0.07144941 -1.9434476 -1.8053119 -1.1737447 -2.0795984 -1.7384211 2.0020938 -3.1776524 3.5190468 2.6207278 4.5913258 -2.1299696 2.3036077 -3.0511901 -4.680751 -1.4482547 2.8030496 3.162618 2.3487434 3.115884 0.8357996 0.97348905 1.8646634 -0.2972382 -1.8174456 -1.4754555 -2.2172837 -1.3333322 -4.69437 -0.19899398 2.8899567 0.76779455 -1.6579763
is -1.8474734 -2.0313098 3.9955232 -1.2393734 -1.9102002 1.9137988 -1.9588677 -3.5270166 -0.36770883 -0.07598416 0.013547055 0.15422358 5.8699565 9.243275 -7.4847336 -1.4388572 1.160309 -0.22009255 2.6478786 -2.6481905 1.8374374 -3.3294044 3.766103 1.3157104 -2.3122325 -1.6237395 -0.96571577 -3.8001783 -4.8131847 6.235153 0.44076803 0.5738907 2.319581 9.216065 0.7282495 1.3238497 1.96152 -0.41564283 -2.2769809 6.459457 2.6110263 1.0418606 2.0266652 2.6454918 -5.493853 -1.6901809 0.60538965 -1.1125414 7.8056154 -5.625898 8.427226 4.0455284 0.30323648 -4.8335514 3.6959364 -0.35050678 -0.12650436 -0.7953105 2.6490242 4.690079 4.1853375 7.277114 -1.817377 0.80427647 2.878514 -8.121885 3.2865105 -5.6097775 3.9834094 1.0623305 0.5908539 1.5317127 1.2099142 -4.0415087 1.0210435 0.9439235 1.91138 0.9875076 5.8109164 5.7380037 -2.4620788 4.566539 -3.4804251 4.0299563 6.2001653 1.4398129 1.0822666 3.8093553 0.051541068 -4.5931726 1.6412494 -7.808879 -2.326449 1.1550411 -4.150904 -3.368198 2.946077 0.17888026 0.08598283 0.7718937
pittsburgh 2.5504146 1.5446774 1.9015653 -3.44219 0.6570973 1.0306604 2.0025158 -0.4924271 -1.4638591 2.3460994 -1.7338533 2.4211195 -0.71990174 3.5014338 5.011509 1.8756918 2.1961946 5.190979 -0.3720882 1.4155432 -1.9290961 -3.2707589 -3.0179386 1.2489876 -1.8144128 -0.26365125 -4.503102 1.5680939 -0.58516026 1.7637017 -1.2151803 -1.0108013 0.7756574 2.095486 -5.2045455 1.0864333 -3.6884506 4.0060506 -2.4095597 0.072036296 -1.0072548 3.6046226 -1.7175918 0.6900387 -2.4838903 -4.7106185 -1.8405144 -1.7618691 0.15790386 8.030778 3.4849982 -3.1899107 -0.54185456 2.2369337 1.0687773 0.9440312 1.6679482 -1.1089662 1.168189 4.350043 -6.0680847 -7.144793 2.114168 -3.1367037 1.772802 2.024396 -0.044442162 -1.7530799 1.6643142 -0.0022484586 0.99584806 0.48447207 0.085901 -0.36666644 -3.2905617 3.3400936 -0.7806363 2.3485293 -2.4059403 0.22012396 -4.8718567 -3.2795894 0.5689551 -0.014513787 3.211761 2.3525627 3.7668571 -2.4767356 1.9162341 1.7124876 -0.247249 -0.13080089 0.12637416 -0.40793723 -1.2540582 -4.544379 -1.0502461 -0.12185683 4.421203 -3.786526
dallas 1.4076475 3.1357033 0.9523911 -2.3332043 -0.33288532 -1.1978195 1.7561458 -0.10652023 -0.04489311 3.508733 0.2438612 1.1409458 -4.5754213 4.9400926 -0.69100815 2.737712 0.7328954 1.3793361 0.45276183 -2.4016075 -1.170266 -0.7669636 -3.5170045 0.01917289 -5.1425653 -0.78683245 -2.5081658 2.137224 -1.4127243 1.1869454 -1.997636 0.28639424 -0.7570343 3.6749945 -3.7371712 -0.44889534 -1.3296741 3.7101884 -4.5053983 -0.5929045 -2.924826 0.15520723 -2.9046876 -1.5470005 -0.2303731 -5.1219172 -1.8144429 2.3275945 1.2904556 4.3821487 2.3913798 0.29558057 -3.0491798 -0.3054344 2.039263 2.7385902 -0.17205624 -1.9715178 -1.0892577 1.7925647 -2.9135563 -6.9378266 1.74722 0.36279926 1.4387525 0.30002034 -2.644984 -0.34623653 -0.92439157 -0.8655138 0.34753448 -1.9336015 0.13922079 0.51739085 -3.4629111 4.270764 -2.4601307 3.132848 -1.8509552 2.5243855 -7.4396925 -2.693775 1.6985753 4.7059546 4.418449 2.4341211 3.490884 2.905849 0.011995684 2.2019327 2.9626806 3.0048635 -0.92038655 -2.0388184 -3.3395956 -2.3441288 1.1939609 2.6823967 4.6468287 -3.698601
all -0.05160402 -0.59843093 -0.40023452 2.3062549 -0.95612055 -2.152086 -1.8363519 -0.58409953 0.1120564 1.3092299 4.6686406 -0.45727283 -0.43870923 -3.9125311 -1.7710065 -2.8879275 1.7696728 0.79684746 0.4644122 -0.82644105 -1.8422033 0.71498716 -5.9627213 -5.339985 2.1064682 -1.2679284 0.2568107 5.289635 -0.99141437 1.3726993 -1.3123827 5.3063436 -1.065361 -1.6571541 -1.492645 1.3825734 0.04249419 0.9902869 -2.526901 -2.0375257 -3.8136632 3.4980075 4.4303703 -1.4639684 3.0361812 -3.8156404 -0.45965704 0.93913627 -5.3549943 5.9825625 -2.1004922 -4.0605907 -0.7434931 0.97915953 -0.9029966 -4.735197 -1.7139361 -0.67503923 2.406199 1.5323195 -3.4758823 -4.300161 -0.9503474 -2.0325572 0.48885146 3.2753475 1.9635205 -1.5019435 0.94912124 -2.1576698 1.8797232 -0.51186734 -0.32804784 2.7757857 -0.50117785 -4.1755843 3.9215221 1.1218573 1.9945875 3.3579226 2.8146982 1.6222376 -1.6264397 0.7421247 -2.149839 -0.3253041 -0.8603601 -0.81686527 3.3334327 3.0591555 2.410331 0.7198835 4.1082373 -1.7815406 5.203 7.260271 -1.8706229 1.9199347 -2.1008599 -4.82953
baltimore 0.9699948 0.7941464 3.6354952 -2.0032847 0.80727726 -3.6127422 0.10166896 2.114533 -0.7965083 -2.467377 4.6501017 0.11000725 3.0915217 -0.049457416 3.2000582 -1.7185686 4.9674153 4.0144815 0.83632755 0.05959836 -4.496765 -1.0842117 -1.6569152 3.19917 0.12674096 2.860995 -5.401631 1.3215424 1.7044046 2.0313346 -1.571926 1.7468282 -0.7404513 -1.7658391 -1.8339875 0.5822404 -3.6452472 4.0260816 -3.8083148 -1.1254834 -1.4710605 0.92960954 1.0338429 0.8174147 -5.5939517 -2.6502695 -2.2072163 -2.475574 3.5919058 8.724626 3.13938 -2.9629157 -1.9452444 0.9611171 -2.4583044 0.5281136 3.1071095 2.7733805 4.0098867 2.5583646 -2.8670444 -2.4946346 -0.79227614 -4.889178 2.1082587 2.1069193 -0.70208883 -3.385382 -2.0758114 2.0531209 -0.072352484 -0.6659433 -2.6687346 -1.9059496 0.02843416 2.9386582 1.4326359 2.0392482 -0.71658087 3.3491151 -3.8121672 -0.5862462 -0.5942836 2.204764 0.39213762 -0.5591372 1.5262226 -0.44256777 1.0500705 3.3683841 1.0029496 -2.4470549 0.0017575579 3.6979303 -0.20434749 -4.44496 -0.9290262 0.19403464 0.033973318 -0.08425554
list -1.8451742 0.8513894 -1.3708313 1.4261639 0.80876446 1.0682746 2.2713764 -3.9494135 1.8714353 -5.0557218 5.1764812 0.46532127 -3.5732422 3.0011566 -3.6952536 -1.0830132 2.5224936 7.4402637 -0.4279637 1.4299743 -2.8080943 -2.4758039 -5.384844 0.28533405 -1.4282699 -6.205647 3.0844524 -3.3898976 -1.6382046 -2.6691165 5.775441 1.7228898 5.0517488 0.67317885 -0.9051563 -0.92969894 5.6384 -1.9121944 -2.87886 -2.281438 -2.8886213 1.163849 -2.7466967 0.0510849 1.1681024 -5.0477505 -0.8103942 -4.8998337 -2.113521 1.5150329 0.6166876 -0.8163112 -2.404451 -0.6439472 -2.3309603 -2.0777736 -2.5098138 4.39651 0.6096561 4.1470547 -1.3710876 -5.160132 -1.5137084 0.6367633 2.351243 7.581306 5.020592 1.3368866 -0.4215303 -5.0828695 0.24990168 0.96945524 1.7464007 0.6195017 -2.2582898 -2.2705042 -5.667692 -0.32648492 3.2000954 3.7689838 0.15413165 2.3125758 -2.8283937 3.7935214 3.958947 -1.015466 -1.8249074 -0.95235085 -3.7161565 3.1623268 -3.15213 -7.6358624 5.5362086 -2.1102803 1.696948 9.264861 -3.9964223 -2.3825312 -4.048145 0.4057759
philadelphia 1.0109308 1.3871032 0.7743921 -4.588665 0.49884206 0.24125782 0.2691106 1.095126 -0.41458637 0.63460374 -0.30591962 -0.25309417 -2.175677 0.5243609 2.806556 0.7651791 4.217178 1.6594458 0.009470821 1.1779512 -1.3852378 -5.1687346 -2.542584 2.2865748 -0.8289932 1.2325858 -4.7952156 2.6405501 1.8637104 -0.92851454 -2.0600352 2.0013642 -0.13354588 -1.8938601 -5.0877666 -0.6157707 -1.343289 2.0303464 -2.6384084 -0.165993 0.36306453 3.0294454 -1.3521782 3.720853 -1.812412 -0.029013162 -1.5548823 -2.6055496 -1.0766331 7.283104 2.264783 -2.2413597 -0.41784647 -1.6771573 -0.7958534 -0.66933244 3.3107762 3.8203986 0.28498772 3.4287598 -1.4772578 -4.496398 2.335492 -3.15274 3.99975 1.4338338 -0.95951396 -0.6112292 -2.1295528 2.568415 2.0316644 -0.6559158 -0.4221807 2.267665 -0.33491448 2.3444555 -0.1682287 4.056376 0.41919824 0.2336807 -4.8068423 -1.7345682 -1.7322149 0.42823032 1.3175988 0.89480543 3.7797413 -1.8447278 -0.01337911 1.0619348 -1.301447 -1.6790805 -3.6572037 0.7463343 -1.0802013 -2.821774 -0.83522266 2.5912018 -0.25070655 -0.14870702
like 0.19292642 -0.58233666 7.8366365 3.093231 2.014871 -0.81340456 -4.938319 -0.5459973 -1.6758379 1.1122206 1.8707477 -0.5256646 -0.7881567 -6.736933 -0.99198353 2.1731734 2.592967 1.1059064 -0.3157578 3.4168375 -5.8913 -5.154153 -0.8572388 2.3140302 1.8644466 2.4818091 1.8965077 -1.312721 -1.297474 1.7430037 0.96349335 -0.038348854 -2.2052727 -0.72952807 -1.1563375 3.0319438 0.78670335 -2.041465 1.3664107 0.53498995 -2.1742113 -5.042805 4.9453144 3.206697 -6.120731 0.04024589 -6.0495114 -0.7658821 -1.7910441 1.0097828 2.0244539 2.5799234 2.0745447 -0.93363535 1.6553465 2.121849 1.3555261 1.3859726 0.7962254 6.090434 5.4466457 -8.206824 -3.723061 -0.33367154 -2.7257395 -2.8327513 -5.315565 -0.5619952 -1.2957295 -6.871294 5.046571 4.5914083 2.8420095 -0.17572163 -3.2820938 7.6274133 -2.3598135 -3.4469583 0.6430579 6.1478148 -4.0340886 2.7893865 -0.6741818 -3.9274404 1.0932137 -3.0293572 0.45488846 2.2237215 2.8436484 -0.7602478 -7.2473025 -2.6384199 -2.8068411 -6.8976626 0.30484644 -3.6661842 2.0348942 -1.1200044 -0.11559127 -0.85536546
are -6.5986385 3.1921911 0.61227006 -3.4577463 3.1403062 7.3726892 0.38429996 -1.5853437 4.4566574 -1.7515628 0.2896296 -0.95056176 -0.59832036 3.5457442 -6.9718738 -7.1340346 3.6584027 1.5658214 -4.1422887 2.003074 -2.2040625 1.2965316 -6.7052174 -2.7615268 0.17180796 -8.579875 2.1063159 -2.340091 -0.8228526 3.1268656 9.743222 6.7507644 -1.1350235 -2.4415038 0.47159153 3.499514 -0.8490106 3.0292025 -4.4840155 0.17100208 2.9526904 5.325765 2.605091 5.111126 -1.369416 -2.921417 6.4086723 -1.1487714 -1.3647712 2.7169468 1.0239944 1.7189999 0.8633072 1.3220745 1.026934 -3.6628416 -2.334801 2.3993387 0.56102717 -0.6104499 -0.45101193 -1.8553452 -0.13635519 0.3810734 2.751002 7.148967 2.7290633 -4.429021 1.5621301 -1.039305 -1.6732233 -1.4613645 2.0044765 -0.14373906 5.596504 -4.4550037 0.02440836 1.7895601 4.9875813 6.525573 1.7247791 4.709175 -1.383212 5.2712235 6.335692 3.0736377 1.5030488 -5.3770022 0.9718305 1.6715331 4.2888613 -7.3205395 6.214087 1.6495006 6.6993194 3.131347 2.747313 1.7124637 -2.788318 -4.0878425
airlines -2.119986 -2.6897569 -0.1629831 -0.30741897 4.683459 0.86666304 1.1253811 2.7478595 -2.8703842 1.1899071 1.7923952 -1.19315 -1.122827 3.2616038 -6.192313 -8.557067 2.846176 -1.4839796 4.9943933 1.1557815 7.082744 -5.165516 -0.99465513 0.7615251 2.1581914 -2.8958995 0.39198318 3.3759384 5.184003 2.0945122 -1.3226277 2.2033463 4.822526 -1.4283202 -2.7775955 -0.2394154 -2.5221229 4.9917903 -7.072428 -2.561031 -3.7235749 -0.36019552 -0.15310308 0.15226571 -1.0529964 2.1396139 -3.2610981 3.5697398 7.0419803 0.9670079 -2.7627513 -3.5203345 4.2274137 -3.3092518 7.1631675 4.370966 -4.3368673 -1.6360047 4.0418186 3.8286827 5.9483905 -3.4731715 -5.7865953 2.251444 -2.7381055 -2.6189055 0.452734 -1.9413081 -3.0368493 -0.37142274 -0.88390654 3.3090892 4.6611567 0.40713176 -0.27483582 -2.7414284 0.7044478 3.7369204 0.47126216 -0.2623298 -3.6740654 -6.2823524 1.1488597 5.037171 -3.1832488 -5.808143 -1.8931521 1.3411855 1.296337 4.340445 0.5313601 3.3672786 -0.08459549 -6.3061213 2.2501237 1.7848493 -0.023046393 3.4876218 -0.72087646 -2.3058703
DIGIT -5.035209 4.6128683 -3.6995518 3.3856242 0.7843609 -1.2465053 -0.46224904 2.1538956 -0.93521965 0.6088333 4.6820726 -6.9764323 3.7973762 3.6360404 -3.208192 4.0290384 -1.2258782 7.0373635 4.448149 2.989955 -0.018333301 -3.3232484 7.719299 -3.0401676 0.19814445 2.897275 3.3439515 2.2630615 4.022386 1.9047223 3.3769276 3.4610674 2.9881432 -3.1637392 -3.557663 4.2273655 1.2048652 -3.4489257 3.84982 -7.9251833 1.0612168 0.123994485 -1.0024219 -2.911222 7.965508 3.1660168 4.3804 -0.39536434 0.73386514 3.89082 4.3201504 1.59075 4.6003556 -5.1230755 -0.98616594 0.18407997 0.032416187 1.9744303 -8.619609 -6.786644 -2.7797306 0.33148736 -0.69328815 -2.8968496 1.7933433 -6.436976 2.2454934 5.7290335 -0.9195419 3.1730273 -3.93486 0.9492444 -0.08891987 -1.3494788 -7.0787706 0.91366976 3.046763 1.1237189 1.7299727 -0.5153814 3.7816837 -7.1697507 4.580897 -5.5688286 -1.0219591 -4.8867564 9.007313 -3.4830794 -0.6741663 1.0550675 3.5367227 2.7850451 5.7664943 5.487204 1.1040571 -2.4032984 1.5274432 6.26811 3.643442 -0.36715275
of -0.20031859 -7.5024815 2.8890004 0.99771744 1.780327 -2.7201357 -0.58477265 -0.5736103 1.5451437 0.46509692 2.4350688 4.056976 -3.0593605 -0.20642237 1.8767803 -3.636901 5.209654 -7.4172435 3.1416824 4.248787 -2.861838 2.7651727 2.8924823 1.2916614 -2.0957623 1.3716359 1.0594916 5.030674 -1.2406965 -5.2121916 2.680486 -1.0611916 -3.5540953 -1.9395632 -2.4275842 4.1411033 4.5043583 2.8541415 2.874746 0.26938337 -0.6418479 -1.4542177 -5.6704545 1.0205904 1.0843681 1.5329088 4.229637 -0.19021493 2.7776859 3.7763934 3.1175475 2.0798447 3.3741176 0.086382136 2.2397966 -3.9811282 0.5364038 3.1161072 -3.1599555 0.09640198 -4.4556847 -0.22643733 -3.8647606 -3.4292083 -3.632092 1.7485292 -1.6025743 -6.0301166 -0.8380673 1.269419 0.5451996 6.82875 0.9098131 -1.2745386 3.722614 1.0176928 6.4334197 -0.18886161 0.6223311 -2.6432805 1.8321928 2.1527107 -0.71976286 3.079568 2.7661614 -0.46654585 1.838491 6.885855 4.933669 -6.4009285 -1.2796978 1.8210931 -0.6735055 -1.9706603 0.30578548 -1.2179737 2.2510245 2.0210931 0.13811983 -6.0192094
between 6.7305923 -7.0493965 1.5041009 -2.0222375 -5.481109 -0.43445483 3.7024531 -5.7110796 1.9157426 -6.391221 -1.5336096 4.924742 1.8789881 -3.5505834 1.6145533 -1.254128 -4.011155 1.7533128 3.1593182 -5.314503 0.75980645 0.9850995 0.7085207 -4.8078523 -4.626953 -2.2618384 5.1000786 -1.8420241 -0.58667773 5.3341475 -1.0881567 -0.7370044 0.925641 -2.619095 3.5607913 -2.7373407 4.5203266 -5.326835 -3.6847534 7.630186 0.024983574 5.1353254 -0.63211304 5.3997583 -4.782982 6.696085 2.8169062 3.5914721 -1.512445 -3.1632564 -3.975024 1.8311381 5.031041 -3.547163 3.3861303 -2.173614 -2.5029135 -7.353544 0.9013191 -5.155588 -1.4474082 -0.6599123 -7.351076 5.4233236 -3.0211627 8.090186 -0.966225 3.363244 -6.8766575 -5.481486 -4.057007 2.7959704 -3.4857216 0.08702603 7.9214244 -0.26807463 -0.14337677 -0.6800067 2.8929715 5.5663967 6.648795 -3.3249187 -4.945968 -0.56240994 10.575933 -2.3949702 -2.0926545 -0.7890972 5.0705166 0.39196384 -5.249255 3.6574237 -0.4056594 -7.5033927 -0.5333002 8.649906 2.7045872 -0.92028147 -6.8660007 7.955881
that 4.7551727 -0.62262005 -6.2316704 4.627917 1.90518 -1.5053275 -1.138687 1.0754379 1.7302014 5.104325 0.5880479 1.1107433 -7.047702 -3.6646092 7.9002037 1.916781 -2.8994598 5.1331477 -6.6688633 -4.1281257 -2.619103 2.2271032 5.3359504 1.8472205 1.715635 4.4918466 0.090263374 5.8827295 0.075835854 1.4985477 5.348446 -5.8341446 2.0579286 -2.680967 -7.0867586 -3.9809294 -0.9197069 -5.097247 0.29094976 0.35745442 -1.2558663 -6.465986 -5.447199 -0.36985648 -5.5046787 0.5168665 2.333264 1.0453589 -6.230388 -2.5568135 -3.65924 2.9952965 0.40536892 -5.933707 -2.6635525 -1.8265573 -0.032183 2.2348027 2.0751352 5.2511196 4.0792727 -0.26669073 -0.78459793 -3.553766 3.1189513 -2.1322038 -2.057691 1.162887 2.360921 5.051792 -3.0636697 2.8358946 1.4760774 -1.6386653 -1.1352718 6.977411 -6.225665 -3.7147434 1.4851274 0.47800857 2.567872 1.9930086 -1.8225604 -2.887726 -5.5824733 2.0251412 1.4233005 1.8099124 -0.4324692 -0.78297114 -1.2081138 4.4161844 -3.554218 -3.865652 -1.0908377 -0.54643 0.2646217 0.8085186 -1.0834416 -1.887532
washington 3.007772 3.5518181 0.7818736 -1.5355172 2.3141563 0.6693962 -3.3464952 1.272992 1.2710743 0.32460713 1.5600481 -0.71948856 -2.951308 3.7162828 2.1467493 1.9906669 -1.9343258 1.4416925 -1.8193753 -0.25129032 -3.7251537 -4.95297 -0.3357747 0.5159387 1.3160636 0.6199674 -2.233353 4.756862 -2.3825681 -1.7509278 -3.048072 -3.2843912 0.040420104 2.7114036 -1.0014715 1.5607322 -1.5177406 3.2785728 -2.8130066 -4.4308605 -5.154725 -0.19983107 -1.4294995 5.6332874 3.5662081 -5.2640524 -3.3722394 -5.2643633 0.55242455 6.36668 -1.2000737 1.1051809 -0.7927434 -2.0331364 0.6230417 3.3603356 -2.871499 0.2660766 3.9874609 -0.09271285 -6.654846 -2.4531312 1.578676 -3.397136 2.4306235 2.8900795 -1.9346929 -0.59950894 0.3849388 0.85102355 -0.75860596 -0.68302447 -0.06542351 -3.9227679 -2.6673825 4.3035436 0.9197631 2.8761482 -4.054692 -1.3823261 -6.561613 -0.23934337 -1.6316272 -0.5560257 -0.31532612 2.2509916 3.6776674 -1.8326458 0.18612806 1.7541201 -1.0437458 0.017890234 -3.3727303 -1.1871984 -0.19417115 -3.4450579 -2.2849467 2.3412964 1.1602128 -3.0607243
pm 2.3319762 -4.8153 -5.5442657 -5.0375547 -2.9764128 3.0731795 -0.5952854 -1.5319878 -1.165872 -3.7549098 1.7962861 7.0845194 4.50873 -5.8188524 1.8339564 -3.5399094 -5.0668554 3.1516037 -1.7885296 -4.8299584 3.6319435 0.999831 -0.848261 -3.1197274 -2.9693048 5.948156 1.4747778 2.1751518 -2.446254 3.6499896 0.48632106 3.1164207 -0.93552697 -1.038113 -7.776749 -1.1478276 3.1038096 -1.1947798 0.75205386 0.54720414 2.2750566 -3.410972 2.121136 3.859838 -4.2061424 -2.3968368 -1.008538 -2.1984825 4.226366 1.3468114 -4.298791 -7.314435 -5.6837735 -2.7365847 -3.6071498 0.53706473 -2.625673 -6.9509807 0.24019384 -7.6391115 2.279883 0.4898204 1.7361112 1.6706718 1.7935135 6.8214526 -1.2794441 -1.7790896 2.4553778 -1.3442827 -2.124359 -0.62421644 -0.18054627 -3.0901282 8.083848 1.413964 2.10291 4.320121 2.6075253 -1.5312098 -0.7849736 1.8429288 -0.9633826 -2.5439596 -1.787912 -1.3608391 1.2824737 -2.7042425 -4.355315 -3.4987924 -4.732323 2.9761853 1.0896978 0.25798404 -5.972742 -1.1158205 -4.786619 -2.6081848 8.340631 -1.5142546
please 0.38129652 0.70900995 0.43936732 1.939428 -1.9982588 1.9627059 -1.9002421 1.5439545 3.2151232 0.64205015 -0.19368678 1.5065901 0.23055573 1.0721314 1.6260437 3.3445146 3.860533 -0.5599891 0.51098686 -1.4052167 -0.84335554 -5.522878 -0.48778978 -2.4448218 -0.23712373 2.433576 -0.7260389 -2.8857243 0.91786623 -0.15577477 2.1895728 0.15680742 -1.3286049 -2.678771 -3.085486 -1.9150615 4.080466 0.46551207 0.5768095 2.1700559 3.5006347 -2.4763577 1.1156586 1.8436167 -3.8063226 -3.670505 -0.99636424 -1.6787467 -1.6755284 0.0011098486 0.8962924 0.5779927 4.420718 -0.08320822 1.7415882 -3.340668 -1.3863032 1.7502649 -0.10752275 2.045474 0.23079678 0.123878285 -0.023188433 0.009946169 -0.39395726 2.522276 2.427057 -5.653466 -0.42980048 -0.7936925 -0.66327316 3.9619298 -0.4981724 -0.020930152 -0.5861403 1.0030756 -0.10800662 -3.4564865 1.9618595 3.1803937 2.895656 -0.08207389 -1.1517826 1.5739342 2.4609485 -1.1921285 -2.1020927 1.5269158 0.675649 -1.9568628 -2.2261667 -1.4023796 -0.4021547 1.0261215 2.606564 -0.57649386 5.1138306 2.0627337 -2.044592 -2.1099172
morning -1.6652894 2.450686 -2.5270832 1.1371653 -2.9493253 3.3625288 2.0026922 2.4943352 -0.6050351 -1.8555435 5.116029 2.2937148 5.8743715 0.90175116 3.2626302 -2.2295346 -0.7125546 -0.6142775 -3.2471888 -3.4880438 -2.8267586 4.9106483 2.504697 2.3959966 -1.5415826 -3.2455685 0.3257244 -3.722022 -1.1586276 0.06839617 2.316109 1.4317445 2.9037788 2.7404866 -8.058676 1.032459 -0.80562925 -2.5474315 4.198772 -4.5025525 -1.8914088 -5.92477 0.91598046 3.5927217 2.8902824 -2.0209246 -0.7574013 -2.1340446 2.9383738 -1.1844612 -1.976906 -0.43845594 -2.7359731 -0.23838407 1.0871037 -2.8476458 1.481849 5.5540795 1.3054136 -1.7424794 1.551755 -1.137036 1.1192214 -3.6100166 -2.4945982 4.496659 3.6985495 -3.7153246 7.4741397 -0.5641125 -4.4721336 3.6676953 3.943081 1.9315437 -1.5405169 -0.1817925 0.5968828 -4.547223 3.2457464 7.2630944 -4.885383 -0.17430763 -1.2011746 -1.3400596 -2.4062073 -0.65994906 -0.75278455 -3.8235493 3.7921875 -2.0253727 -0.9099153 -1.7389919 3.4225016 -4.8069024 -0.82905424 0.37416133 -2.0100555 1.0937066 -1.4951712 2.7512968
leaving -5.0523567 -0.21393073 -0.121521786 -0.304062 2.3534436 1.1396319 1.0400804 1.5018167 -0.88518155 -2.4016676 -1.0311879 1.594467 -2.0715072 -0.279257 0.023698682 0.22997491 1.1472498 1.1834317 1.6136101 -3.0422833 -1.4449818 -3.2276893 0.65111583 -2.252939 3.9101512 1.368614 1.6470139 1.6075029 0.055641107 -3.3205564 2.297002 -1.9288396 3.949187 -1.8923533 2.1098592 -2.7157013 -1.3123567 -3.5637825 4.410136 3.4168878 0.46478537 1.2726684 0.33615425 5.081544 -2.7425992 -1.6367456 2.2566123 -3.9015644 -2.6685317 -1.9417627 3.485249 -1.3904302 4.796107 -1.0804065 -2.4774098 -4.767495 2.8914425 0.73059005 -0.50396013 -1.0021946 -5.7891197 -0.011643156 0.27191028 0.08907408 -5.3653846 5.0160713 -1.7773709 1.6712373 -2.5350444 -0.29596072 -3.2017307 2.299986 -0.8405301 3.1652446 3.3593345 -0.37256044 -0.12399586 3.0620508 -0.32700267 2.9894931 -0.53700703 0.31127527 1.5078248 1.4698933 0.79195803 -4.425613 -0.34478113 -2.2321749 -1.2087939 -1.425933 0.8412491 0.6647037 2.1531296 -5.8832383 0.72886145 7.5861073 2.267106 0.1201099 1.7269381 4.6898346
would 3.6080623 -2.7003517 0.8092045 6.0607615 -0.71356994 -0.73616457 2.7041125 1.7822434 -0.6289643 -1.7714807 2.450714 -0.50833565 -3.5550895 4.118766 2.4583204 0.2836581 3.4412155 -1.6475405 0.9506406 3.1529002 -0.2874006 -5.956471 1.0290556 4.532273 -0.67790633 2.9323044 -3.6809273 1.725353 -4.073518 0.7806128 1.4958607 0.5191715 6.7946568 -0.17621112 0.9372086 -0.39502385 2.3836904 4.638876 0.51276445 2.6316056 5.488049 3.3890681 2.1872663 3.6521602 -5.829494 1.8062178 0.13732974 0.90123224 1.8110104 -1.3722252 -0.9282656 -1.4197447 -5.7892914 4.6441855 2.7676 0.013549859 -0.590123 1.9652604 -3.0902483 3.468478 -2.6683483 -0.075639226 -0.6582479 -0.47423592 5.0681624 -1.0496802 -1.1016325 0.14392571 5.6669097 -0.94780284 -0.044237796 6.783367 -1.3174658 -6.156847 3.4543252 0.41912863 3.1733177 -5.9381714 3.3608418 -1.2214583 2.4276726 -2.8539038 2.0624652 -3.1002667 -1.181366 3.498644 3.4871466 0.7022402 -1.3430431 2.7483428 -0.53841555 0.9054634 -7.6263156 -1.6135377 0.9327132 0.90353215 -1.5349344 -1.4020923 3.5868156 0.1017923
for 3.3303902 -2.369203 -0.015972827 4.5770297 1.6426572 0.4793302 -1.9984738 -3.0684056 -2.2075045 -3.3303876 2.5252883 0.8111743 -1.0299942 -0.90397865 1.761865 -4.7140393 0.75316715 -1.5782288 4.101807 4.0609684 -1.9530731 -2.2353535 0.3385562 -0.2959295 -6.578049 0.06917475 1.7233787 -0.5356688 -0.99043244 2.5988002 -2.8582113 1.4473244 -0.16295445 0.1838194 -1.3143148 2.734336 3.7446628 1.9189521 0.94662756 5.3538146 -0.035445437 3.3225324 1.2935187 0.19646865 -0.6650833 -0.8180502 0.7333222 0.08901178 -0.3270575 0.096574835 -3.7994921 1.9730765 -0.986257 2.4943686 -1.8159738 -1.0291923 0.6695698 2.2015815 -1.0525067 -0.023480916 -3.5103703 -4.031537 0.36568728 1.2924035 -5.296986 -0.31187043 -0.22271131 -2.3144255 -0.061178334 3.1356223 0.93239605 1.8158841 2.9063141 -1.2186034 -1.0042882 -1.3419908 -1.0633725 -0.016940761 5.4092813 2.1676002 6.7854185 3.8948421 -1.7058016 -4.949713 1.1730409 0.65522385 2.3582156 -0.10162406 1.354279 -2.2313707 -5.9718657 -3.0347548 1.0389074 -0.77359617 -2.1601572 -3.236755 0.08577537 2.9791448 -1.5518085 -0.13426709
fly -0.99523824 -0.82430345 6.830239 2.4468572 4.8259525 6.7937393 3.1750867 -1.8003596 6.8506255 2.8311548 -3.8662987 -4.3764625 4.864996 -0.43622464 -0.53567094 -1.0891982 -2.2625144 -1.7273022 -2.2994642 -0.15575492 -0.46810877 3.0756216 -6.447342 -10.092956 3.2776763 -3.493135 -4.7741942 2.713152 -1.3341756 -1.4534765 3.9499755 5.428236 -5.1293054 -0.6604869 4.556684 -3.17328 -4.511479 -2.2723467 -3.3645244 -4.719392 -1.0647784 6.386524 2.4988163 -4.532301 10.203982 -2.0379674 -6.370929 3.7934418 -3.1388035 1.9626884 -0.020444741 -0.11184273 1.4911703 5.6613274 -6.999061 -7.5266924 1.0969589 -0.1253109 0.62873167 -5.881967 2.3185334 4.5679264 0.25370884 -4.133776 -1.3165351 3.255598 -0.57959884 4.507574 -2.8701067 -0.24136814 -2.803853 -2.2663822 -2.3098688 5.0580254 2.9796023 -4.3048716 -1.4135213 3.791195 -2.048809 -5.5305057 0.23920031 8.499481 6.007121 0.17796972 0.40040445 1.212034 -1.4326637 -4.126644 4.254159 -7.760465 3.7317348 5.7241073 3.2696145 -0.6752013 1.2248735 4.373666 1.4234985 0.88376325 -5.069002 1.3724842
city -0.098842084 10.748295 -5.0475755 -1.1837966 -2.4908068 4.133132 4.112565 0.6605718 -4.0824075 -0.46424496 4.965559 1.3435625 2.9502313 -0.7591351 0.07229305 -0.48305622 1.3072375 -0.5954202 -0.9228386 -0.17241275 2.6403093 -3.3389165 -2.143655 -3.8346064 2.1563666 2.3269796 -3.0146983 0.62968105 -1.7332984 2.9180582 2.5048788 0.7962536 6.814463 -1.4669045 -1.2303946 -2.255239 -4.426055 2.9069297 -2.0875704 1.2468987 -4.448025 3.2323341 2.892086 -1.6857574 -0.6860694 1.6793315 -4.885134 2.8848422 1.356652 1.548991 7.5273237 2.0954223 -1.9254185 -3.8740113 4.681397 0.5560236 2.952484 -0.7558137 -1.2645893 -1.0558516 -0.7357911 1.4949198 4.2909193 -0.50469357 1.5776901 4.9410925 -2.512888 0.5050336 6.6324673 -2.2100778 1.2553394 1.4602695 4.038191 -2.6321754 -6.7749896 2.8043983 -2.7376533 0.4385745 -1.5874782 -2.8175275 -1.2428943 0.88981956 1.3179569 0.66982067 -0.04701534 1.3528247 0.10811725 -2.269569 -1.3117974 0.2461444 -3.229517 -3.274755 3.4707036 2.9555 0.6335754 -1.848425 -2.630917 -7.6855526 0.43250242 -1.4770817
fare -8.030971 0.43018848 11.067336 -1.0217923 4.5961018 2.9974616 1.6681775 -2.3970175 7.74504 -6.414564 0.12024839 -0.24412301 0.23380534 -3.3081925 2.237909 -4.8281155 0.48217604 0.024270017 -1.159313 -0.8252363 2.8611882 -0.49409837 0.9281278 0.7724997 6.9204793 0.57614136 0.0931455 -0.09772911 4.097142 6.192742 3.3782094 2.4861763 -0.6868726 -0.4525005 -2.0246043 -1.4659871 -0.5799164 -2.348229 -1.8585919 -2.4199264 -4.1866193 2.8372533 -1.8580557 5.567658 1.0578206 0.6418182 -2.0959067 2.9964056 -2.6586146 0.08019882 -3.2487621 2.6900501 3.5092938 3.2273283 -2.5159686 -4.0383687 -4.0034394 3.1113107 1.7167572 -2.3554425 1.1199629 -0.05460185 2.1576622 -4.724825 0.95647985 1.3510573 0.6212883 2.4524393 5.6227665 -0.27913126 -2.4431574 -0.13480426 -2.032984 0.5719097 2.2792928 -3.3754015 -1.384792 -1.6001747 -5.802455 -4.345427 1.4063894 3.3301902 3.545457 1.1809362 1.9843602 -0.7506697 -2.1176672 1.124 0.40949625 -4.753394 1.6882886 7.437676 0.77250135 -6.6620207 -1.3243744 5.6873984 5.7173047 -5.4843864 3.0749087 -0.15266024
wednesday 1.8211769 -8.320176 -1.0290204 2.1886768 -0.4838479 -2.7858047 -2.2926507 0.4141419 4.031649 -1.6131114 -1.0944917 -2.4367874 2.352069 -0.36470196 0.23511359 3.2706015 -0.51799357 2.4790738 2.462313 3.5146658 -0.84670615 -2.390434 -7.2233953 -4.597014 1.9982108 -0.87308216 -0.42532304 1.4953336 -5.590645 1.8975897 1.298008 -5.956735 -2.961142 -3.0578837 5.055837 -2.99571 -5.01452 -3.2890425 -1.2443641 -0.9055641 -4.4739847 2.3191805 0.91649485 1.1909462 -0.97981465 -0.8020478 3.4603531 2.5609224 4.724238 -4.219523 1.4145715 -2.980051 6.9918604 -1.0455774 6.7162066 -2.848642 -2.310963 -2.7891407 -4.095924 0.40191373 0.5831691 -1.6579664 -2.5166888 3.2874193 1.0909396 -1.3397061 -3.4216719 1.496877 -1.4324367 1.4398168 -0.81743985 4.145175 -2.5245264 2.696968 -0.65924937 4.7905064 1.3523016 3.5257087 -4.7556944 -5.775092 2.0732918 0.56372666 3.09811 -3.396576 -0.40548494 -1.3349351 3.5799687 2.2386575 2.7911966 4.8053102 6.396242 0.6299114 0.5815316 2.5445461 6.435426 5.4054375 1.3945118 -1.5323896 0.5581215 0.17500299
need 0.27418894 -2.4420843 6.8422894 2.689424 -1.1920842 -1.660683 -2.117513 -1.5465583 -5.672309 -1.8690978 2.3677285 0.16649799 -1.2023828 -4.59622 1.4783788 3.9420555 0.4033138 -2.167206 1.3174459 4.345633 -6.4526033 -4.4029145 2.7286346 4.1469955 0.31207043 3.4924083 0.26430666 -2.976301 -4.212004 1.3821175 -0.9375799 -0.22165924 2.310413 4.5328627 2.0435023 -0.92143244 4.7672496 -1.6899928 -2.4076903 1.043614 0.8347036 -4.0381904 5.31716 2.7839937 -5.9805317 -0.053538643 -3.134792 1.887725 -1.2989461 -1.1663779 1.9151769 -3.8309078 -5.338294 1.1993529 2.5374184 2.5211174 -3.0186684 -0.26500282 0.47756198 1.6966925 0.2672854 -2.2001755 -3.4789526 2.5972574 -3.9546688 -4.649148 -8.985413 0.2470126 3.747181 -4.0795293 2.0049205 5.3430214 0.8344527 -5.101058 -0.9650697 2.3042028 -1.7179395 -3.4911258 0.8610807 2.094041 0.6748159 -0.9034195 1.3561954 -7.277156 -3.7746723 -1.0216004 1.6174183 1.5660446 -2.0535903 -0.23416092 -3.6993153 -3.290269 -5.100705 -8.806248 -4.7598977 -0.4348363 -2.9013376 -1.3475498 1.944604 1.1771777
first 5.619486 1.1253227 7.009051 -0.20477283 -2.0648944 4.2345104 4.493273 2.3836632 -10.5540495 -5.1036997 1.332101 1.5723454 -2.6055424 1.2771364 3.1536932 -0.87571 -0.95225865 -1.4708761 -2.2887712 -2.7963529 -3.4869826 -4.169245 -3.129851 1.5332963 -1.8232411 0.8059579 2.1075501 0.9942091 2.8437548 4.077923 2.0981212 -1.8491489 -7.027538 -2.957119 3.1590815 2.3617415 4.065923 2.3465111 3.499721 0.8909032 -5.7716465 -1.8045601 -2.043987 0.9138311 1.2490324 -2.7207637 -1.1248735 -1.7411544 0.12838456 1.851011 3.9389427 -2.568624 4.8693447 7.3304167 2.3730354 -3.076563 -0.38101617 0.36124298 -1.2139506 -0.020158181 -2.5405707 -4.3899364 -2.452317 2.3234236 0.47832742 -3.7903528 -2.492761 -1.9155723 0.18290125 -2.638193 -0.08946437 4.426344 4.2763524 -2.6894493 -0.6983501 -3.1881256 -1.7441701 -0.6962419 -1.3331523 -4.254869 0.74416053 1.3946905 -3.9467545 6.0987725 -1.5974739 0.4811018 0.74508005 1.3193936 2.120454 -1.6155511 1.1265813 2.233986 5.7815104 -2.507325 0.83671397 1.0100658 -2.6534538 5.208548 -2.8553526 4.396684
trip -1.0402921 1.5373092 6.4635777 3.640814 -2.507931 1.0537276 4.8683686 -0.26284167 -0.7418578 -1.5638262 5.683184 -1.5740501 -0.63563526 -2.7229412 -2.2203758 -1.5849081 -2.1385863 5.01001 2.2614589 2.8324597 4.421652 -3.9065082 -1.7031465 1.5082266 -0.14122143 -4.13973 -0.45969933 2.2330449 -2.090414 -2.5527337 1.8764632 -2.162379 -4.9223337 4.02915 1.6821517 -5.4379454 0.14498945 2.3774803 -0.7540548 -0.5359198 0.65900886 -5.538212 5.8190827 2.8114102 2.855884 0.2854244 3.9934204 4.9041576 -4.074201 2.543542 2.332012 -2.7546022 -1.4805483 6.849245 -4.677296 -5.9331336 -0.13057882 4.9521594 2.2465475 -1.3344465 -4.1367736 5.542599 -5.171931 3.4844947 -1.1192431 -2.3719225 1.3911948 1.5977807 -2.7660654 -2.580107 5.047977 -3.099431 0.26854184 -0.060579613 2.4598331 6.446694 -2.2411172 1.4307909 2.6315436 4.5209546 -0.08426923 -0.33226305 3.4449918 0.98175377 -4.29298 -1.0128517 1.3243849 3.9501557 -4.0896297 -3.7564378 -1.4065378 -2.4700732 -2.1027853 -1.1761137 1.9756728 0.54937786 -0.12117114 0.32610127 -0.38321528 -1.9769073
after 4.784998 2.0093997 -0.60589206 -8.562948 5.534087 -0.80730575 4.30119 -1.6767726 3.5210423 -3.7779212 0.95964384 3.5498345 4.094835 -5.316835 0.7912976 0.3370633 0.09382258 -4.006863 -0.065198384 -3.7074718 4.1166034 0.030007698 -3.3767347 -2.2239907 -0.4056479 -2.7877076 0.716431 -4.4359856 2.1636865 0.19552657 -0.6712303 -2.1390727 -2.2139769 -4.9720974 3.391549 4.626372 -0.9683594 0.13220216 -6.565465 -0.22728416 -2.0111887 -1.4387792 -2.8875535 -1.4830514 -2.257993 4.0344677 -0.95332444 3.9200706 -1.6760613 -3.4542658 -10.620738 -2.0513122 -3.0321102 3.1494427 7.4710083 -4.2584157 -0.11694651 1.9400889 -0.7435539 -3.535152 -3.9115205 1.5671743 -3.280746 0.020214805 -6.0694103 -0.44173422 4.800862 -1.9390478 0.38087884 6.0811296 1.2361351 -3.3615434 -6.163861 -1.3866628 -0.24425328 0.25501248 -0.7062157 -2.9646177 -3.6289864 1.3909969 6.3969374 1.7086061 -6.2815156 -3.9407315 3.452332 -0.95608747 -3.7693565 -2.8132496 8.426711 -2.1985743 -5.8568234 0.03416387 -1.9232013 0.41646537 0.0724792 4.872575 -2.6365016 -0.10182611 -0.6687266 5.274834
oakland 2.6922233 1.7077303 2.460131 -2.0180159 -0.97744554 -0.89941067 1.0581484 -2.8952944 0.9063662 2.1257398 3.133865 -1.0468148 0.27339906 1.001173 1.6179038 1.7557497 4.798666 2.4515026 2.4239132 -0.9133099 -2.9803917 -3.0800612 0.3339298 3.8201637 -2.0420518 -1.6727864 -1.7852232 1.9568385 2.3229463 -0.041390803 0.46326685 2.1823506 -0.79904187 0.5855522 -3.6993175 1.7407522 -3.7253253 3.98085 -2.5560083 2.0995526 1.7751368 2.1476843 -1.7486596 2.0418768 -2.3361847 -1.155132 -3.3429472 -2.591683 0.40346098 4.7845383 1.1779366 -4.3297668 -2.0129726 -2.154039 -0.1578935 -0.04185221 -0.5807873 0.43271884 0.44024652 2.2259483 -3.0107236 -1.0767736 2.5056417 -0.55987865 2.8332949 2.6141603 -1.8417652 0.53827703 -2.684955 1.8549311 -1.4884913 -1.9536085 0.60176414 -1.0778334 -0.19775942 3.2086627 3.327777 4.303154 -0.8228679 0.7904143 -2.821577 -0.19062401 -0.19598679 0.96347314 0.17783393 -0.04365513 2.4839942 -2.8428888 0.4668056 3.7730937 0.045107614 3.8180785 -2.5168614 0.402069 -3.2329068 -2.4922495 -2.209574 2.58613 0.975142 -2.3753197
ground -2.1469855 -4.432053 -7.711551 1.4730595 -0.46914878 5.1265388 1.3490142 7.09953 1.8303305 -6.842009 4.2319326 -1.5269253 5.5046477 -0.97569305 0.04160876 -5.898091 -1.7467538 -1.0866601 0.55939376 -1.618953 -1.968147 -1.1389818 -0.96839094 -0.06311463 -0.99558187 -0.13187432 1.1045259 -2.630121 5.095614 2.6571124 7.481677 -1.7418239 2.8294601 1.207602 -2.15341 -4.9338627 0.21239 -3.3827832 7.770344 -6.5569263 7.868392 0.54087883 -0.62462765 0.7541565 1.304469 -2.0401862 -4.4662223 -0.7323139 -6.6125746 -1.3959088 -0.5129835 3.3098867 2.253199 -0.317875 1.3840371 0.04751378 -0.82680374 1.7189147 2.7988482 0.21240811 -0.59154475 1.1024818 -3.1057348 -2.3970406 0.19994898 -4.2831554 0.17317745 -8.12024 3.2394478 0.9435727 -5.551062 -1.4616729 1.1999066 3.7155302 2.2218032 2.5225627 0.95472115 0.56918615 -3.0758803 -0.89505434 -2.1229844 -6.106283 0.5977704 -2.7373953 5.034685 8.107124 -0.96003383 0.42207634 -3.1508734 -2.55472 8.488234 7.725034 1.7864438 2.771585 2.6586368 1.8231509 0.8994629 1.5800301 2.5184906 1.0332874
there 2.704247 0.0010972414 0.97631747 5.532329 3.8644826 1.5200055 6.3274193 -1.1024387 -1.0979594 -1.6493939 3.1203022 2.903714 0.21678375 -7.169943 3.466131 -3.2646737 -2.2730541 0.51330477 4.634569 1.5022877 -2.4396923 -1.4887531 1.9992763 1.1306199 2.3628001 3.3370001 -2.7596204 -0.56634784 -4.135171 -3.0606768 -4.7198067 -3.1028562 2.155532 -4.373507 -1.3649255 0.79786265 2.569298 0.48476318 4.4185286 2.0249841 -1.9162887 -2.5751996 -1.0018337 -3.4861848 0.108825006 -3.8583784 0.24281012 -1.8056073 1.9425056 2.168176 2.8496861 -4.372304 -1.8771949 0.7493711 -1.573138 0.5832419 -2.597341 3.902987 -0.6696709 -5.9304476 -2.8321812 -1.2852467 3.9473233 1.0622759 -6.673318 -1.6776729 -5.0461483 0.16006477 -0.97200257 -4.358183 4.326259 3.2586112 -1.4686968 -0.2684378 -2.906871 -0.44261616 -1.0399157 -3.221189 -1.2630159 -2.7300885 -0.8418055 -1.2311009 3.9105296 -1.6216631 -2.4268227 0.17874637 -0.5423202 -3.0837204 -1.4176873 2.1937768 -4.09495 5.449303 -0.53952456 -5.8587327 -2.4559228 4.8941603 0.18006548 -1.603471 -2.5609248 -3.953694
round 4.219077 0.22442354 1.0553097 -0.39396513 2.8242335 2.7677352 -7.8432274 3.1505697 -0.81340694 2.7692554 -3.8880918 0.588235 3.909876 -1.2682357 1.3645175 2.1157396 4.9250035 1.2375649 2.731905 -3.595017 -6.8549886 -0.74996865 -0.36534062 1.4616135 -3.2008128 4.974917 2.2568488 -2.2162986 3.9523983 5.2072167 0.47076538 0.4666199 2.6296887 -2.1468556 -0.30284563 3.743023 -3.9928925 -4.4527655 1.7220958 -0.8703839 -1.9490768 0.06318843 -1.6011913 -0.11908388 -3.372041 -3.775119 4.1214137 -3.7359612 -2.0274458 -2.5618389 -3.2085195 1.2411394 -0.23151344 -1.391078 2.0758018 -0.7401276 4.6164846 1.488592 0.94904244 1.6048187 1.0327083 -1.6943827 -1.5035774 -4.344885 -2.8866467 -0.73801595 -5.0637665 1.0719076 3.5344043 2.0262768 -1.6487396 -0.7309963 3.3972707 -1.9047794 -2.8543327 -4.572112 -4.254635 2.340742 -0.33961183 -7.5211124 0.7151339 4.515157 -3.4336455 -0.8805795 0.16291356 -1.3749069 5.743064 -0.24616697 -7.8167677 3.6677287 -3.982708 -4.1925936 -0.5553754 -2.8911736 0.08156797 2.9330313 4.53327 -0.39408052 1.5475284 1.1233078
does 0.37908742 0.22664504 -2.5539458 -3.870438 -1.4184794 -1.9738978 2.412841 -0.7499777 -3.4757667 3.8563757 2.812854 3.5800664 -4.7027726 -1.0327822 -1.2511772 -2.9253676 -0.74218655 2.605675 -2.6066976 2.8424351 8.57405 -0.5705628 6.8150277 -0.7893069 1.497369 5.8529115 7.990962 3.87801 1.4187229 -1.1065333 -4.8281536 3.148131 10.146521 -1.4327266 -0.7254516 -1.3565286 5.043541 8.282979 -1.9361095 1.0732847 1.5880635 -0.4829859 -0.8481987 0.74803996 -1.3054056 0.7918246 3.9208205 -5.3059964 3.8775969 -4.5595512 -0.65841866 -3.8339462 1.1320168 -3.7802312 4.5495567 4.0473785 1.0633475 0.5547939 4.1456094 3.4772718 4.1813016 0.19397472 -1.7906233 1.0882689 -4.835288 -3.2279303 5.5005374 -4.363395 4.663391 3.503694 4.3930197 2.8860157 -3.8426726 -5.0584774 -0.22183315 -2.677972 2.973295 1.46987 9.127292 0.10198023 3.3289928 8.167099 2.010149 3.1526713 -3.1756759 5.6072206 -4.0026712 -1.537831 -1.4287426 2.345356 -1.0253764 0.11524936 -5.392124 -4.932552 -0.6164594 -3.8791125 6.9894376 5.78324 3.048189 -0.18948615
transportation 0.24606244 1.2189329 -2.482198 6.800859 -0.06464878 1.1453807 1.8454765 5.6094 1.6692915 3.3955238 -2.937649 1.1340258 -1.2736315 -0.22654666 4.0679226 -2.612888 3.9691653 -1.5062869 -4.4092913 -5.4162483 -2.3728929 -0.49266562 0.3933429 5.285174 -3.3235013 -4.5093703 -3.711834 1.675985 4.4975605 2.5807889 3.8586524 -0.74953353 -1.4267144 7.6668878 -3.2301154 1.3201224 -1.7765205 -9.367012 -4.6466002 -4.268743 3.9189458 1.2504863 1.1606072 1.9815377 5.0339437 0.7733584 4.4003696 1.3454137 2.455361 2.4646132 0.11711898 -2.6347032 1.8242408 0.4684089 -5.6843224 2.325088 -3.59478 5.825349 1.8652242 -3.838918 0.7407777 5.170128 0.22933106 -0.644907 1.0629104 1.1975429 3.9353337 0.91862214 -1.0201503 -10.1703825 -6.4926443 6.1407175 -1.09203 3.55045 1.0553718 -5.5052047 2.4606688 -6.61304 1.6776204 -4.718973 -0.5910883 2.4069216 1.1949862 -1.8297772 -1.013262 -7.121769 0.15906806 -0.56679153 2.6665962 -5.4393587 3.3854105 -2.1396003 3.7470398 2.2242231 6.222701 -1.8964828 5.8620815 0.82063454 2.3081505 -0.8174708
'd 1.0485605 -2.1872888 -0.78356403 5.6776834 -1.135299 -2.0383873 1.3244926 3.4138303 -3.2554538 1.206771 1.1117928 0.9452984 -0.96933275 3.2530065 2.4644718 1.853381 0.3315168 0.036825527 1.1271772 1.5933064 1.5169973 -4.520472 -0.8062835 5.666239 -1.2008938 3.8192606 -1.7019836 3.3674133 -1.3542688 -0.23846756 2.0778608 1.5629706 7.782013 -0.19956866 1.4011506 -1.0653827 -0.085561946 1.4857281 -1.9712399 0.05912024 1.8638971 4.5852237 -0.75352407 3.5927887 -5.5823765 1.1570011 0.88512194 -0.6471342 1.3166573 -4.050957 -1.2877125 0.058996793 -7.536444 6.7276015 3.0483496 -1.0065904 -0.31352675 0.6037307 -0.8422753 3.6769838 -1.6785213 -1.4661045 -0.62548447 0.051209204 3.0571182 1.4520783 -2.6333718 1.8759536 4.628506 3.3910322 -1.2499073 5.5625596 -1.4618821 -5.375144 4.3153443 -0.15556368 2.9308252 -4.5710206 2.35827 -2.549054 1.2944287 -3.7378967 3.8209724 -4.4713173 -0.68666506 2.4685936 3.3905406 -0.3445891 -3.6626606 1.016142 -0.31390396 2.5448616 -6.552354 -6.6383123 -3.817643 -1.0391431 -0.48268 1.6235934 1.9471165 4.7789645
cheapest 3.6419563 -4.186557 1.8258554 6.297539 3.081928 -3.448311 2.7896228 4.371447 -4.6407304 3.960907 5.900462 -5.1346917 -0.64283955 -1.8852515 -1.5556672 -2.2511358 3.2854264 -0.20402817 0.6770235 -5.036819 -2.2295387 -0.824341 0.29454258 -3.206312 -5.3236337 0.9440629 -3.221969 -0.31270406 5.3239417 -1.0362713 2.645541 0.9967227 -5.9742017 3.0781388 -2.2703927 0.07186654 -2.03509 0.64055187 2.3679583 0.3686212 -2.195065 -4.9804854 4.074709 8.601311 -0.4432213 -2.2231865 -0.70289814 -2.0764382 -0.23301595 2.8571916 3.4563124 -2.4877226 4.538202 6.3392286 4.7229075 -0.7063936 2.225864 -1.7689959 -7.111464 -1.1875072 -2.0914931 2.260304 -2.0371633 -0.9764096 -1.1553915 -4.7486086 -1.0559165 -3.0214865 1.5401455 1.995461 3.4930246 -3.0052137 3.360264 0.25105605 -2.7641773 0.62992483 -0.4940498 3.490509 2.1269495 4.018091 -1.1596996 4.5881577 -7.640585 -0.12932079 -5.773314 1.910623 1.4773453 -5.458893 1.6498871 0.9467386 -5.2536707 0.058051333 -1.827379 -1.3178198 5.4978523 1.1684686 4.994465 0.07079556 -5.4218946 3.6168578
which 2.9852564 1.0311862 -7.249895 3.2684631 -0.41812927 -0.98505247 -1.6429511 3.161938 2.1472938 4.4460597 3.1369553 0.033589024 -5.7591567 -4.9442973 7.4225426 -0.7159706 -3.6046224 5.481938 -1.4438639 -4.58537 -2.1416712 4.000908 2.56165 4.4334 0.098640226 3.546411 3.6976364 6.194421 2.8172786 -0.36394772 3.8612418 -3.619584 3.0947063 -7.321241 -3.5144756 -6.549103 -0.0096255 -6.639845 4.133574 0.18065035 -2.0472429 -5.7904387 -7.842373 -0.54095656 -3.8846705 -3.121812 2.0556912 -2.2834318 -5.971386 -4.369312 -5.1229477 -1.793865 -4.261121 -4.6854234 -3.2828305 -2.842945 2.4915562 3.9736295 4.0848465 3.1753516 -0.6054524 -1.4912335 -1.2243847 -2.164971 0.5602043 0.96051365 0.52776873 0.73839915 3.620494 2.61936 -0.94378346 5.798197 4.0262256 -2.4996154 -4.2939677 5.024231 -4.01707 -4.321247 4.8611026 -3.0177028 2.834712 1.6232439 1.2444675 -8.00185 -5.3006454 4.0576057 -1.0184563 1.4151391 2.6830318 1.7008711 -0.70450675 5.496199 0.97623986 -3.4519043 -1.0915426 -1.9800903 -1.2880396 1.3704382 -0.101103894 1.5951676
arriving 2.4110613 0.055123664 -3.9713547 -0.5521569 -4.554004 4.1049194 2.9680567 -4.9365325 5.9649386 1.0571004 1.9848162 3.1774242 2.24418 1.752831 1.2076678 -2.3262188 5.004935 -4.4499173 3.6188076 -1.9772835 -0.5124424 1.1218388 0.812607 2.7537858 0.7628812 0.31410348 4.620621 -5.613385 1.1543171 -1.0430474 3.7410073 -0.22827548 3.4711754 5.357561 0.78086853 -4.933341 1.8950738 -7.739932 2.660458 -2.4861763 4.4702363 -1.6069726 6.0402412 -0.58434063 7.1077785 -5.0521116 4.5043507 -0.18574527 2.011993 -4.206048 -0.9065762 2.1348581 3.3317175 -3.4778926 -3.0610545 -5.691342 -1.52835 1.3091993 1.8243822 -7.814899 0.52874184 -4.7020345 1.5459173 -1.8371277 -3.265118 1.8208665 -4.5188603 -3.0385892 3.6236985 -9.268762 -4.214563 -2.5930123 -1.58179 3.7680838 -3.1131923 0.20537668 -2.8777661 -2.4699368 6.1669526 -3.3370383 1.5434994 -4.200588 -3.6531322 -4.5865703 1.9863304 -1.3336633 -0.8712541 -1.1004928 5.1203685 -2.3498096 3.3440447 5.9017396 5.578951 -6.665737 4.583475 5.3058515 -1.425846 7.2641993 5.9336257 2.9518938
you 1.5385844 0.018602647 -2.1032593 -2.9866798 2.7806678 -2.4726312 0.33822662 -2.133961 -0.21957724 0.847439 -0.42585337 1.4306785 -0.8647244 -7.233591 -1.65907 -3.093973 4.5239587 1.1411328 1.862839 2.899196 -0.48792067 -1.7806045 4.0377784 -4.1987014 -0.956726 2.0913715 2.2165818 -0.42326832 1.5310547 3.7170687 -0.8284462 -4.93197 3.409807 0.30575427 -4.079642 1.7489136 1.3726989 1.069325 -0.6013958 3.3450541 -2.0496757 -2.2693017 -2.3913825 2.031678 -7.7425914 2.684174 3.9116468 2.395092 0.3677653 0.0554277 1.6277937 -0.0261536 6.140136 -2.314533 1.1215011 3.0857632 -3.00926 -0.2699244 -0.75115454 -2.1220193 0.88238347 -1.2589239 0.32856637 -2.637384 0.5337937 3.0024529 8.197525 -7.4694457 1.2606069 -1.6368171 -3.2736444 -0.8197907 3.8852494 -3.2312312 -4.545007 4.593912 -2.920338 3.5041256 3.625412 -3.8210986 -3.3194582 -3.9749346 4.953218 1.8237479 -0.23055847 3.8949826 -4.7878346 4.506948 1.5991124 -2.9913516 -0.18451673 -2.8168824 -2.557918 3.4222744 -3.3185327 -1.3534629 0.13436268 4.978509 -1.7741232 2.2195623
class -2.022325 -3.9256206 -4.758784 0.8013134 3.796377 -3.2968209 -1.5100818 -2.835195 5.916349 2.591315 4.269744 -0.47354656 3.2816565 -2.1834612 -3.9254887 4.848105 1.8920844 1.954811 8.125421 -0.014325241 -0.4199457 -5.288663 2.1116536 1.1923083 -1.6999274 -5.3262796 -0.43397504 -3.312749 -3.2187498 -4.876356 -4.888031 3.7141085 -0.32974276 1.2730818 -4.8825526 -3.1188538 -4.1596823 -5.9889846 -4.575818 3.237451 -6.726457 4.472897 1.5286739 -0.81057626 -3.469982 -1.155051 -0.114711925 4.5100875 3.4514189 4.6238847 -1.2200286 2.8369114 -4.8043303 0.74570674 0.27014104 4.720756 2.7896056 3.1719966 0.40617743 -1.3114977 1.3068221 8.034678 1.7643648 -2.1619332 -8.120789 3.5431387 1.1500589 1.0378078 -0.90791386 2.7932947 3.2658803 2.7271116 -1.4173547 3.5430589 -0.5169783 1.9912686 -1.505232 3.946952 3.8742058 4.605126 0.39241505 -3.767098 3.17249 -0.4960118 1.7529488 2.7903414 1.5389557 3.703341 -3.843051 3.2067766 -2.1676354 -2.5332239 -1.9253045 -2.9200158 0.74872327 0.55023736 2.3105283 -3.1248562 3.6656983 -5.8437285
before 5.4165797 2.1103473 -3.2736404 -7.255935 4.876914 -0.58361006 2.4856112 0.85133964 -1.4819773 -4.3770094 -1.3894012 2.5257747 4.3564444 -5.5856056 1.9274461 -1.519917 -3.1821268 -4.4103093 -4.152641 -5.2473116 2.3878427 2.2684045 -2.2811122 0.07966037 1.2649003 -2.8273618 -1.5975139 -2.4405456 -0.6033648 1.7233794 -2.929813 -3.5982966 -3.2094371 -4.144971 1.6405513 3.1179247 1.3135029 -0.9983797 -1.9798061 -4.0195255 -2.8440833 2.9369755 -3.2020824 0.036121912 -0.4270167 4.70221 0.978878 2.8644094 -0.257962 -4.5498757 -5.540407 -6.5340247 0.39440337 2.4116442 5.9868193 -5.308358 0.99803996 0.18466501 0.12135051 -3.033944 -4.3011465 2.3280344 -7.5077233 -1.1684905 -3.364993 2.072772 1.1627485 0.14418443 -1.7975672 5.3993936 0.40590647 -3.0304205 -6.764159 -0.062303353 -3.892662 -2.516109 -0.27109158 -0.64147156 -1.8020505 6.444219 5.647915 0.6114751 -1.1088564 -4.9748535 3.0777824 2.9160008 -2.1552413 -0.7641153 6.018942 1.1543921 -6.536878 1.1638017 -0.37698898 0.66005903 -0.020197203 1.5532682 -4.953408 -0.9838992 -3.9469035 0.55618477
available -0.5777243 2.3107502 -1.6810542 3.3347886 3.761806 -4.539235 2.8329742 0.729511 0.22332515 1.4665009 3.2915199 -0.32852423 1.2095106 -2.8488638 1.4869512 -1.9758283 0.6073173 -0.6169088 1.624478 1.9159107 -5.53788 3.190573 3.0323093 3.6746378 0.06736567 2.1725693 -1.4503422 -0.017343413 -0.35622135 -5.877678 -0.06358359 0.8293535 -1.602578 -2.3564677 0.8928296 -1.0822436 0.070303656 -2.5263474 1.7781097 -1.1034323 -0.24327019 -1.2378719 -0.8359014 -0.8629272 5.149374 1.8198918 1.6551266 -1.5553397 -1.6220627 1.3903264 0.88403064 -1.9659988 0.45536268 -0.41364524 -3.169446 -4.2166467 1.877271 2.6081195 -3.6573703 -1.0626067 -4.913183 -5.8959894 0.5564848 0.8865203 -2.686695 -3.4454517 -0.5373325 3.7427506 1.134744 -1.0165603 1.6955785 -1.8152549 0.21303998 3.4888072 -3.835365 -2.1920478 -3.156143 2.6265771 0.09752002 -4.477308 -1.5323739 -3.1137865 0.16589907 2.692786 -3.4598606 -2.064705 -2.1358736 -6.8888454 1.1250408 1.274348 0.028153898 4.298244 1.9339212 -6.594242 5.153924 4.206726 2.725401 1.8112733 1.2572732 -1.3232108
new 2.3071816 -4.34259 -0.23370747 2.3392522 -2.892738 0.027161984 -3.847778 3.428348 -4.2879996 -0.7793488 -4.0118566 -0.066207066 -1.8859991 1.1163188 3.9016507 -1.7575538 -4.958093 2.2120225 -0.79489654 0.36214897 0.8845136 1.9313607 -1.1808691 4.2081256 -0.9075541 0.48918656 -1.4199674 4.497436 1.2765857 -6.5352955 0.7695593 -0.38644412 -0.9153051 -0.26175243 1.2398783 1.5792884 -0.8883019 -0.48182607 -3.9941308 -4.1205196 2.8475933 -1.4364408 3.2259603 -1.7647598 -4.992497 -2.8322573 0.3076506 -6.9174223 2.9024498 4.995504 -1.1467686 -1.4626435 -3.218273 0.6819229 3.946845 -3.6295838 -3.4280097 3.8324656 1.7032255 -2.3256798 4.690601 -5.905954 1.4137516 -2.2679572 -1.7121997 2.1329308 4.1489205 -1.0791817 1.9643122 -0.10008581 1.5177423 -4.118067 -7.710685 -0.079063304 -5.8075757 6.0359406 2.2008514 4.084075 1.0112196 -1.3893776 -0.70523506 -3.5912147 -2.4661798 4.220224 4.9327636 -0.9797657 2.4162805 -2.0129764 -2.3637555 3.4234214 0.39361688 -0.22495686 2.439991 3.0720713 -8.439401 -0.83754104 0.768347 3.598055 1.7185832 -3.4363234
milwaukee 0.53854173 5.7936335 -1.7813791 -1.8398348 -3.2376235 0.29750228 1.3343745 1.4727317 1.2932178 -1.1617106 -0.43447033 -3.5147634 -2.952961 5.463073 4.3407197 0.063228145 2.259921 1.1945851 8.953086 2.7125826 4.201306 1.6596221 -2.1458817 0.20965843 1.3687317 1.4196603 -1.8582436 1.2492096 3.9220822 -2.0952287 -3.3719802 3.4639282 0.23967727 0.80355537 -0.020082347 2.0000646 -3.2823615 1.5663972 -1.6123583 1.5540848 -0.09498395 -0.83511174 -3.0576026 -1.1732153 -1.9547498 -4.094063 0.30371237 -2.985825 1.093242 4.5849285 -0.087017275 -4.1118336 -2.2815151 0.6015504 -0.8685462 0.16145478 3.3264952 2.126812 -2.6515512 0.4164444 -3.0211082 -2.6728864 0.17066798 -5.9417763 2.900366 4.033128 -2.7256083 -0.048869036 3.6500223 -5.054514 -0.72736394 -2.3127937 1.8795141 -1.2736331 -1.9392457 5.6917915 -3.9146008 2.88736 -3.4211354 1.5822077 -5.907942 1.6845152 0.9271734 -0.35403234 -2.810711 2.786381 0.6545385 -0.7528124 -0.15260325 2.10008 -2.193033 -3.453687 -2.8458972 3.537576 -1.3453077 -1.0616019 -1.9207643 -1.9942893 3.6076956 -3.4800558
fares -5.371194 -0.6519594 9.251289 -0.9729713 2.870023 1.1305091 1.4265047 -2.387131 5.918794 -0.3270726 2.010813 2.3279653 2.7682056 -3.7312999 -0.070027485 -0.2510493 1.9375622 0.41733855 -2.435268 0.8582523 -1.2965772 1.84467 0.63718224 -4.5091558 1.9721953 -1.7541085 1.055294 -0.8696153 5.345682 3.8015501 5.127639 2.1161568 -3.3964071 -1.6124343 1.1891224 -5.295784 -0.2254905 -5.5861444 -4.9466076 -3.7245924 -2.6022065 2.4054432 -4.2488656 0.52482176 -0.0065120887 -1.6075978 -5.7448 3.1663733 0.27200443 0.25922003 -0.51819825 -5.145349 -0.0060350257 -4.75775 -1.0548713 -5.1794004 -1.0260868 0.9536731 -2.8639848 -0.6744063 0.8514828 -2.3871942 1.4605325 -2.3066409 2.8054438 5.0234356 1.8342474 3.7072532 5.159689 -2.9331028 -3.3543653 -0.34316146 -5.6260085 0.00226442 1.0754291 2.0844357 -4.937264 -2.8862038 -2.9617143 -0.84405196 0.7675124 -1.5662432 -0.118688196 3.9296093 -2.0205622 -5.454533 -0.20224662 -2.3912382 0.9735818 2.4874382 0.6528848 4.185009 -0.8354941 -4.4179482 1.9246554 5.7868967 2.8920581 -1.0607362 1.3846477 3.1354117
with 6.087818 1.8164328 4.4336996 5.08108 -3.9186625 0.5198315 -3.3691258 -2.490466 -1.1977264 -3.6966548 -6.392417 1.9198002 -4.7951508 -1.7484943 4.2228208 -1.1416421 -1.8200595 -4.605272 -0.86242706 -4.986414 -1.8281103 2.7222085 0.49527696 5.505494 3.2234843 0.22335553 0.8599769 1.5606449 -5.221992 -4.0544753 2.0169313 -2.123361 3.9154391 1.5134505 -2.3344016 -2.081243 2.7652977 -2.0555394 6.560671 -0.44110754 4.474438 3.211942 1.8255354 -1.1859407 -3.762244 -2.0191274 4.1567082 0.41409647 -3.7358599 -2.4402747 -3.3649452 4.49763 -4.2782607 -2.3290248 -7.922651 0.9646061 -2.7204847 2.5923991 -1.3226783 4.5345244 -2.0809264 1.27922 -4.079359 -4.4122353 -0.28241375 1.3051112 -3.3651822 -3.8435867 -4.746353 1.4757419 5.012315 4.5018024 1.2527596 -1.7230213 -2.5874696 0.11919073 -3.4232268 -1.5018237 2.6337156 2.5122967 2.9160755 6.2507577 2.3200107 -2.6740637 -0.4736307 1.4152483 1.7437583 -0.88888645 -0.66153026 -4.641974 0.23925437 -1.4925635 0.5438348 -1.7919265 0.6502412 4.190313 -3.4789474 3.6259887 -0.7315998 -1.9457546
st. 0.6446778 0.0058803866 3.1012347 -2.5620103 -6.79275 -0.7148812 1.4021004 -1.861063 1.6026179 2.7574515 5.8763247 2.4445906 0.577985 3.4509602 -1.2557776 -1.9053115 -0.52202916 -1.2095037 1.673572 0.98824507 0.5516498 0.43575767 -0.92096794 -0.0055807624 -2.5299132 7.4024663 -0.75767887 1.5517731 1.6670145 -1.4843073 -4.040799 -1.3065083 2.1651192 -0.8118369 0.73766446 4.572345 -2.970574 -1.8325921 1.2817045 -4.6904325 -1.6660755 4.7467184 -1.9885751 2.090089 -4.306089 -4.5038943 2.0545545 -4.367978 0.42684647 3.144824 2.3241086 -3.0581825 -5.1565356 1.466405 3.2669516 -0.9972255 -3.5239112 -2.2036812 0.2369562 -0.3619245 1.4765027 -5.6710277 1.3260313 -4.382283 0.96803945 0.032355372 -1.8756993 1.1463709 -3.8024533 -2.3589685 -1.9472773 -0.26083395 0.57025546 1.8385211 0.70703197 2.0513785 0.65253377 0.008001837 0.3840205 2.3876057 -3.2180295 -2.4440973 0.904577 1.7164267 -4.1035705 -0.76769555 0.5897561 -2.041624 -1.5142968 1.7758365 1.3460326 -3.3033257 -2.1207025 6.263634 -4.8402133 -4.194264 -3.4952478 0.3256887 0.07446135 -4.004165
york 1.6164595 -2.6539068 -1.2849766 -2.1141655 1.9559875 -0.7085008 -0.35751018 -3.5122638 -1.184252 4.4120617 3.1115823 -0.033883784 4.237681 3.9759383 3.8063602 -1.0712041 5.286558 4.383341 1.2988918 8.27515 -0.4163257 -1.1968195 -3.839708 1.2987407 -2.2491825 -0.064380445 1.8638929 0.86751175 2.238175 1.8009561 -12.728827 -1.699537 -5.841079 0.031785507 -8.01795 -1.3350637 3.184019 -2.635348 0.6916604 -5.867738 3.8814478 -1.5627887 -2.7014737 0.099589214 3.3849788 -2.291439 4.156144 -3.4871006 3.5474017 3.273617 -0.47693282 -1.5718346 -6.9607425 1.9730967 1.9858589 0.18969703 -3.0782611 -2.8910265 1.5138249 6.4344826 -2.4808 -1.5348845 -3.0943427 -5.645521 3.1988437 -1.1365621 -5.1063495 1.3071206 -7.280143 0.7933563 2.193886 -2.1787295 -1.4639493 -0.39983356 0.7047405 -0.23700982 0.5729266 -2.5740378 -3.202461 2.8575182 0.53192645 -1.7973453 4.9909616 2.629606 2.9123015 -0.8805545 1.3045596 -1.8026161 0.77898526 -0.03901258 4.123264 -0.43497357 -5.160147 0.34166527 -3.5549822 1.5113312 -1.4752362 2.6251428 1.1922523 2.2911918
american -0.33776468 -2.9063373 1.547028 0.8654583 -7.6978 -4.3452163 0.71654916 -0.39720368 1.2745144 -5.920177 -4.0730824 0.08767607 -0.5328725 0.5893879 5.3088446 7.419302 -4.118698 1.3685037 -1.7274069 -1.911819 -9.228252 2.089849 -6.3697386 -4.88602 1.7245123 -0.08733304 0.45065323 -2.5550263 -4.1348186 0.75190353 0.8504661 -3.4713106 -2.9939122 2.275528 -1.930764 -6.149665 -9.682978 -1.1446222 4.6136417 1.8998454 -0.20356314 -7.690374 -4.113221 -5.589678 -1.9771752 -1.9854553 -2.2779627 -3.794334 -4.4733872 -0.6603405 0.41649887 -3.3156903 2.8842359 3.500984 1.0051595 -4.4149547 -1.818106 -0.03035879 -0.4026724 0.3507372 -8.044185 0.5065727 -0.27085486 -6.6939664 2.5365071 -1.444263 -3.2522738 -1.6242639 -2.1536217 -6.2840343 -4.4350643 5.1209745 -0.67157525 -1.9224337 0.9942869 5.4742966 -0.24155462 -5.5129485 4.8943906 -3.8655956 0.368956 2.846604 -0.54846764 -1.3110405 -0.830035 0.30899578 2.3357122 -2.9867923 1.4544679 -0.33251727 -4.510276 -1.1131096 -1.1398017 3.723102 -4.2719812 3.5602078 -4.553566 -0.7468365 3.1206295 2.829435
afternoon 2.0848274 -0.7545075 -3.664076 -2.8427627 -3.0329406 1.9263664 2.9558372 1.1898952 -1.7008469 -4.2563567 8.742857 2.4621122 3.4552605 -2.6263974 2.9665427 -2.333492 1.678978 0.8780126 -5.805877 -8.173962 1.03297 3.3304923 1.8212619 1.4308352 -3.0869749 -2.3558831 -2.2072148 -1.5044007 -0.53028005 0.63723874 0.4961238 1.1461707 2.1373312 3.3026161 -8.324194 0.012080827 2.0214288 -1.1051891 5.447068 -4.905595 0.7889112 1.9843378 -0.12532747 1.2632693 0.64518565 0.8809951 -0.52964735 -0.46418884 3.7933714 1.3686438 -3.667897 -0.73726004 0.9422925 -0.12359014 -1.5719007 -1.2067082 -0.6736196 -1.4299046 -2.7899415 -5.190765 -1.2536395 -1.5865246 2.447676 -5.209461 0.03894157 1.4953963 -1.5387278 -2.752957 7.954218 1.0889825 -5.7983627 3.2591956 2.5929976 -0.55705136 -0.9732244 5.055649 1.9173241 -6.096124 2.126276 4.9904537 -2.5045261 0.92393035 -7.485415 -1.8325979 0.15811594 -0.5486556 -2.0150032 -4.805724 4.987751 -4.5762906 -0.0824512 0.37577215 3.3767273 -0.63464504 -1.0189017 -1.0853359 -2.7392612 2.8453403 0.8506414 2.1567948
give -1.1276615 -1.3840997 -3.138032 4.277393 -2.4066806 3.2218795 -1.3962555 1.6604283 0.4945153 -3.2279556 3.7138886 3.89229 -8.147693 -0.165168 -4.319958 0.8199469 3.8775141 1.1167744 5.3442264 -0.08834074 -3.1368554 -2.4918249 -1.6005663 3.210425 -5.1234837 -0.17545204 3.2431116 -5.6352 -3.2669547 4.7071366 1.9407505 -3.356483 2.590741 -0.3513446 0.56698126 -1.7234085 8.63536 -1.6361645 -0.7893536 -1.9520159 1.0146472 0.0011583104 -0.1847226 2.0654209 -3.4319923 -6.7212663 4.0202274 0.12625998 -0.5960858 -1.4998322 0.0016002407 2.007665 2.121935 -2.4446526 1.5883892 -2.6101632 1.251475 -0.6071872 1.0657945 4.6652837 -0.22532679 -2.6517007 1.88922 0.24004737 1.4877598 4.678535 2.2285688 -3.8681798 0.7424166 -0.5508793 -1.0771366 2.227644 2.8428712 -1.9335393 -2.5022912 1.2125186 2.9462497 5.9269686 -1.3284019 2.6434395 1.2511659 -1.3205061 0.7154774 1.8572003 0.029763566 1.840635 1.5455917 1.421722 -1.7756137 -2.1637073 -5.1908836 -6.4569683 1.137037 0.19480278 -1.6029047 5.1942515 -2.018673 -0.16519052 1.3944687 0.09770981
have 3.7207625 0.41094482 2.6258423 4.0099087 0.47317967 3.8118856 -0.22482759 -4.9725337 -0.18229482 -6.970588 -1.0703299 -1.5929582 4.3787856 6.218449 -2.9161243 0.5234017 0.37053055 -3.6822243 7.1421385 1.4137365 -6.7144384 -2.5688446 -2.3252683 -0.50995284 3.5499983 -1.4517025 -2.2756457 0.100433 -5.718495 3.5391388 -0.08881296 4.73796 -3.610326 -3.0627577 -0.35345012 1.1409098 2.9672434 1.828774 0.6541182 3.8013847 -0.8177113 -0.42179668 6.028345 -1.0979838 2.5415165 -6.060616 -1.6773658 -0.6624295 1.7904313 -0.3626242 5.461685 0.63684 -1.5503687 1.8328675 -4.430796 -2.397513 -3.384934 1.3331537 0.15622193 -4.2837605 -1.5702692 1.5173719 0.577333 4.4888635 -1.027996 1.911061 -4.1771207 1.0570503 -1.6987679 -7.1286545 1.8113085 0.9022132 -1.9272279 2.0613413 2.9232306 -6.346523 1.2042918 -4.760841 1.5701832 2.115941 2.07904 3.3329065 -0.79645747 0.98253924 1.8119047 -0.88327605 -0.5521648 -3.1654356 1.6186787 -1.9909286 -2.6671743 -1.3285525 1.1818433 -1.711542 -4.1133122 1.2356708 -8.324618 -3.947145 -5.897142 -3.6596868
one 3.5144098 -0.9085172 4.238019 2.3346307 4.7397227 -0.12828359 -1.0202414 2.3899693 -1.6886628 4.9738717 6.2477565 1.8115072 -4.287985 1.0937805 -2.420764 -1.8526118 6.1732063 2.4642584 3.2510178 -1.1103963 -0.6664586 -0.9128239 -0.8399638 -1.6600341 -3.425283 -3.4453945 -0.42680937 3.8914454 2.277663 -1.6223816 1.251012 -5.0894666 -1.4686675 -1.6714612 4.462716 0.095670044 -0.737704 -6.366587 0.7515663 3.5286791 0.21992655 -1.0191808 5.155648 -2.5044851 4.4060507 -1.0433412 0.17688124 -6.5289674 -2.2951932 -2.1495914 -1.3477566 1.907501 2.2567644 3.6424477 -0.905215 -2.6512508 3.5162911 -1.2074023 0.24836491 3.3032935 -3.0780816 6.1661263 -3.5445569 1.2080438 0.03987951 -3.519491 -2.7582636 -2.175823 4.6833606 -0.4412402 -8.957646 -7.4326806 -2.131258 -4.0081396 0.27905202 1.5225487 -2.733112 4.181452 2.2566628 -5.3101735 -0.98823833 -3.1118395 1.5771836 2.3849819 1.1527396 -1.1073049 -1.6224304 -0.505815 0.23858976 -0.9854476 1.5802968 -1.7063642 -0.088412 1.651294 -1.8743199 -2.755088 4.7528996 -7.168123 -3.5330303 -0.42031187
at 4.6307387 -2.106273 -4.9695954 -1.8061826 -0.69862676 -0.92794704 -2.6260805 -2.9963725 3.4833746 -5.759609 0.23243903 1.4863548 0.83448356 -5.259371 0.20230338 0.69590557 -3.2953374 -4.643934 -0.7638024 -5.524119 6.2618713 0.40368193 1.1194941 -1.3389331 -1.5775533 0.14032127 1.6509569 1.499818 3.7741365 5.3424225 -1.4603884 2.3217354 -0.86408263 -3.1066258 0.05956778 3.5196726 3.6820316 -1.3534074 -5.831695 0.86477613 -0.096422896 0.2756122 -5.30829 1.7582994 -0.98829603 6.454196 2.3009439 5.120498 -2.5453253 -5.2250085 1.133132 -0.31907287 -0.47424683 1.0516636 3.2377348 0.37265202 0.45489237 -1.1157329 -3.775499 -4.571219 -3.9257019 2.3773053 -2.742962 4.695442 -0.89116436 1.2040693 0.39546102 -2.1471462 1.106833 3.940837 -1.0696753 -0.03780215 -5.749095 -0.21807678 1.5537038 -3.2019937 -0.09897916 -2.0782084 0.18326995 4.239473 3.7740362 3.0568051 -0.72547466 3.6440537 6.1443686 2.6668165 3.083324 2.590088 0.09101136 -2.40239 -3.8885329 1.4221067 -2.5499628 5.4210887 -2.3667433 2.377918 -2.1063662 -2.4316816 -6.414515 -0.24329506
dc 1.9251187 -2.986704 5.001298 0.85712737 -3.5598836 -1.5783398 2.2450633 -3.5271876 -1.0387355 -0.31105542 -1.5284387 -2.457388 6.249091 1.746884 0.22581916 0.6286301 5.737436 0.63858473 -0.6858433 -1.3090218 2.264606 -2.1517677 2.4510136 0.1080818 0.70412236 2.0863693 -4.174268 -1.5098932 1.8011383 -3.254007 0.32935983 4.473944 -1.7013423 -2.5025141 -1.5551319 -3.2054725 -2.1996992 -2.1138182 4.0605845 -0.7864328 1.7196496 3.8728757 2.6132486 0.40837768 -1.662099 2.810117 1.597551 2.5899115 -2.6843572 -4.1371694 -1.5920249 -3.0201554 -2.632873 -0.5891728 -1.6361675 0.49730164 1.551365 0.12055109 -0.77187854 4.080276 1.4156094 -2.9336753 1.6303198 -2.178406 -1.4279838 0.9502379 -0.010519342 -1.1057128 -2.25868 -3.8710716 -3.1702974 -1.6433005 2.0242193 0.5918825 0.081228785 4.6593795 -1.9244026 0.21985956 4.23461 1.4628054 -0.56370986 -0.2504994 -0.21070516 2.0686312 2.567033 -3.3256571 1.4200467 2.5706382 0.3599223 -0.16479118 -2.0474644 1.784992 2.7912652 5.5051417 0.12464615 6.042272 -3.3755867 3.4278955 1.8118721 1.0832839
way 3.137076 0.42292094 3.1744075 2.5556905 -2.9025502 2.8422291 -5.89091 -0.5375867 0.89548856 -3.9675484 -3.832386 -5.9946694 9.51797 -2.9802637 -5.4968185 0.57461166 -5.343306 0.8876065 -2.6257167 -0.016219817 -4.3088408 -0.48075017 -2.3721347 4.8771577 2.2122343 4.6044106 -1.0805445 -3.9315634 -0.9053285 0.47101763 1.6979676 1.6259259 -0.27670327 3.2174914 -3.7933743 0.12187781 3.0513802 3.7126424 -2.24748 -0.97598296 -2.758395 -1.944794 -0.26204976 3.7183595 -4.401492 -0.51435053 7.241236 8.243954 -1.9828155 1.1181515 -1.2069763 1.0277557 -2.5736501 -2.6803567 0.24679542 5.387484 -6.4098806 4.778963 -0.91733366 2.5850139 -0.5079652 -3.5686762 0.4337596 0.6091932 -2.3440928 1.4784083 -0.40508476 4.572203 0.9802842 0.93487585 9.052107 -0.743288 6.4088783 0.33087918 0.11979498 3.061619 -2.7411928 -4.032515 1.4863539 0.58984995 -1.0641174 0.5562113 -2.6984358 1.5003492 -3.6668458 -2.608648 1.4761434 2.4458377 -4.881685 1.2080038 -3.0795746 -3.0540056 0.64429504 -1.8829674 1.2312295 5.1140738 0.8317323 4.0241075 3.940874 5.555098
monday 2.3935323 -7.0601225 3.295037 -0.8863584 -0.71674347 -5.404446 -1.5318296 -2.8112457 1.5577288 -3.9855692 -0.08986562 0.37170964 2.067455 -4.0236487 -2.3132715 1.332808 0.8692526 -0.29011717 3.0315175 3.261935 -0.040682696 -1.2762586 -3.7545424 -3.547023 1.47763 -0.5473139 -0.40054554 2.1309435 -3.6070561 1.5185574 -0.100851685 -5.865019 0.04542245 -7.995752 5.586298 -3.7596002 -2.7409804 -2.3278835 0.10679834 -0.42779177 -3.3150344 -3.8746867 -1.827211 0.17929555 0.6463139 5.1876087 2.9229987 4.5905595 1.2034212 -0.095258646 -0.49416408 -2.7158027 5.6521115 -0.21113163 5.8133454 -3.1909046 -2.441993 1.2840114 -2.6340683 0.30807492 3.0826986 -0.63525945 -2.6637282 3.7130842 2.80825 -2.9438124 -3.277461 0.4400739 -1.1741567 -1.8245007 0.876025 3.8365722 -4.0384383 4.7559724 1.3555467 2.2393692 -1.3988433 2.5067396 -2.0610905 -6.520427 3.4548 1.2111423 1.8654774 -2.271635 0.4741284 -2.532135 2.7605615 3.717442 -1.1973205 4.534438 5.531378 -2.6980917 -2.5829182 3.6702328 7.716146 4.7655582 -0.18299998 -1.7561938 2.6599562 2.7583373
leave -1.475588 2.2672646 -1.4145849 -4.3216095 1.0467833 1.8345028 4.8840523 2.1901011 -4.156941 -2.0928302 -1.6784234 -1.1278665 1.1726347 1.7036511 -4.564162 2.2165122 -0.16518688 -0.72120637 2.0301414 8.867208 -1.5292207 4.610452 -4.381364 -4.7983093 0.5424572 0.043431826 1.3966471 -2.4387825 -5.2509737 -0.19870107 2.6220136 5.3889046 -0.0933049 -6.2197943 2.3224623 -0.38917905 -4.369454 -1.3837276 1.5108155 -1.5882161 -2.755145 6.3737326 5.133909 4.688683 3.668787 -1.500633 -3.8405116 2.741246 2.4939125 1.4874638 3.9789283 -2.2506475 8.022928 2.419857 -2.655758 -3.4978516 -1.2687411 -3.2026942 -2.1115198 -4.4167476 0.91929543 2.4679482 -5.844101 -2.2184417 -1.9100238 5.5842905 -2.1257334 1.8177204 -1.6634265 -1.3494664 -6.7027564 -0.49525377 -2.1242568 1.4294393 4.4052224 -3.661924 0.73694646 5.938645 2.7664452 3.196605 -1.2180275 -0.28607452 0.5343125 4.0295286 1.2275572 -5.9034433 -3.5575235 -5.178894 0.7454862 0.41432953 -1.3446105 3.4961245 5.364781 -1.3894936 2.5363624 8.741512 0.3924171 2.1111047 -2.0713549 3.269815
DIGITDIGITDIGIT 3.651544 0.4528772 2.5906105 5.6051598 0.2752071 -3.2782753 1.4236822 -4.763809 -1.5824018 1.5572711 2.0819001 -9.359146 1.9038857 5.430532 -2.7817347 0.10791431 -1.8532895 2.497955 1.860479 -1.50787 1.9300145 -2.10323 5.7343416 1.1346829 -3.2087772 4.9299684 1.4379759 3.8009582 3.3293014 2.1583989 -2.8076289 1.0108055 1.5193537 -0.13157223 -0.6306031 -1.5903882 -1.1161258 3.6921341 5.137035 -1.179399 1.8145077 -1.7191532 0.72611296 -2.8287475 5.127961 2.1163921 -3.1853049 1.6206158 5.1847024 3.2476556 5.3174133 -0.38368136 6.1086636 -1.7551973 1.3583902 0.059238177 -0.28579852 0.15082905 1.5378457 2.327391 -1.8809981 1.616572 -0.4889127 -0.92249614 -3.64398 -10.0079 -0.5609028 1.1383039 -0.032108195 1.1216763 0.27041748 3.2455485 3.8191383 0.20480439 -7.5524817 -1.6611917 -0.011210062 1.8610193 4.8884363 -1.4701004 4.0556464 -5.3256683 4.390239 -3.375548 -2.059615 -4.1830215 4.4874787 0.036799192 -2.871067 0.11218771 -0.095296815 -0.768866 0.99035007 2.5507975 0.74675703 -0.64273185 5.2807746 3.1208336 0.6180788 -0.12865497
want 1.8066083 -1.965755 4.5128355 6.1662846 0.7929313 1.550713 -2.8720467 2.2987196 -1.8581014 0.88620526 1.7202358 -0.31907004 -1.000766 -0.7156472 5.4904785 0.32124588 0.62758213 1.5134171 -2.9091704 5.013341 -0.07034267 -2.9120889 1.6457335 5.8136525 1.6292987 8.406594 -1.5887579 3.986433 -1.4514049 1.4353575 3.0505102 -0.9222275 2.1902072 -2.8325186 -0.013856354 -1.397277 1.2224243 1.75922 -0.8002202 1.915108 1.5361735 -2.6275327 5.1993146 4.185778 -3.7542713 1.1565324 -4.6467066 3.733827 -3.2262585 -5.2384734 -0.747879 1.9778392 -4.39592 1.2871168 1.7444354 2.805749 0.98373705 -2.4806924 1.1440669 2.5061796 5.0937037 -3.6602218 -4.343576 -1.3475409 -0.61361325 -1.1488104 -7.0651608 2.5809975 1.1386924 -1.7306325 0.18630695 1.9603341 -1.0204619 -3.9209185 0.53178513 3.6756551 -1.285602 -4.612277 3.3055844 1.6216837 -0.33213398 0.68315303 1.2458092 -9.061864 -2.1559293 -0.3361521 2.0668297 2.313173 -1.9541873 1.5535988 -4.0319934 2.9474375 -6.039597 -9.330037 -3.9401336 -3.5996077 -0.6365221 -0.4582657 2.2050653 1.5879215
arrive 4.986691 -0.6756395 -3.3870273 -1.3169506 -4.305768 5.1683035 5.927304 0.95708984 -0.64933616 0.79811656 1.2015201 3.8419142 2.3433154 1.9037282 -2.7370057 -1.7817007 2.9789655 -2.7525327 4.3031273 8.460361 1.4050376 3.7201898 -3.9459956 0.7665307 -2.1393704 -1.6179522 6.766469 -5.9148464 -6.080224 -1.3864685 1.4291643 3.263034 0.27722073 -0.5919899 2.8361633 -1.381613 -5.5688095 -5.7043114 3.7787788 -1.6037813 4.9455776 7.594796 7.388578 -2.145682 10.261567 -4.6611266 0.900933 3.3725672 4.526709 -1.8174946 0.37361258 5.099692 8.055534 -0.44803506 -5.1596923 -2.0693161 -2.8669245 2.8633096 -2.0752795 -12.362397 3.5620484 -0.21487494 -4.660749 -6.44773 -3.3909693 4.2644596 -3.747017 0.87605083 2.4044554 -8.319832 -6.3153977 -4.7464423 -2.8525004 5.140499 2.8797998 -1.4833663 -0.8337857 -2.926396 8.137415 -1.8319165 0.6011864 -5.51604 -1.7921294 0.5445966 4.0678205 -8.472331 -2.3962767 -3.8146088 0.7488952 -3.973229 -0.8346025 8.77079 2.7955024 -7.3352613 -0.17859557 5.3615193 0.45001203 9.31569 4.5075693 6.6338186
airport -1.1934676 -5.705425 -1.1864465 2.825544 -1.2519224 2.3999324 -0.68467104 4.0318885 0.07427992 -3.101586 3.9923828 -6.7164836 1.1000527 -0.65218174 1.7309966 -0.76472163 -1.1321248 2.9123468 -0.27437958 -0.51465523 -3.5316322 5.8143396 3.1859078 -1.1840969 -0.07730686 -7.051769 -0.6222965 0.45139533 2.3203576 -0.7790967 4.688912 -0.9153992 0.13056764 0.6518466 -2.8863688 0.25352436 4.0999765 -3.5651019 -2.5837843 -6.6103783 6.62605 -0.8464532 2.6444936 2.4226556 -0.8841434 -2.676294 -3.1261268 -0.37921393 2.4130654 1.8373724 -0.066241786 1.1290301 0.7720448 3.0015635 -2.8583128 -2.492929 -1.9929719 0.16551949 -1.9257482 2.5744467 -0.03352431 -1.9584091 -0.6442224 -5.718476 1.2151116 -5.793827 -0.12874329 -2.3236694 -1.4729315 -0.24714856 -3.907135 -3.7451959 5.6442966 5.4146867 1.768111 2.6593602 3.1356614 -5.8032703 -2.8822482 -2.8339512 1.0077877 2.665565 0.25351414 -1.5377694 3.563169 -0.48042202 -4.436479 -4.840151 -2.8497145 -1.6161069 2.0486114 -1.907903 -0.20179868 -2.0175874 3.5273113 3.2978997 10.310133 0.45126387 -0.32666162 1.4965961
how 1.8173237 -2.4421759 -3.4021504 1.6475364 -3.959227 -3.5510118 1.1319786 0.66904485 -7.0810328 -2.87943 1.862455 -2.9219522 -2.6295004 -4.4019785 3.1947377 -1.1699197 -1.2043267 -5.8357334 2.7625232 -3.605497 0.47657686 0.6221033 3.633467 1.9443792 -3.5492537 10.539286 4.3404818 9.128547 0.82923657 2.6828675 0.603551 -1.1078793 -1.129717 -2.0959468 -7.8076077 -0.93397367 -0.5449635 -8.165494 1.6912303 1.0264305 -3.262676 -3.8506029 -4.3412395 -1.145376 2.6453235 -2.4260433 0.48162523 3.1399724 1.471076 2.556239 -0.23567659 4.6560946 -11.02424 -2.8494434 3.4437416 -1.0285938 1.3372049 -0.8920294 9.8111315 -4.365163 -1.1644021 -2.3092072 0.30270413 2.5507 -5.7442584 -1.4291242 -1.3387632 -5.4174757 -0.1617043 0.23001972 0.2527615 2.4275658 -1.1850299 -2.8363454 4.3068066 -2.132877 -0.5607843 -1.8175836 -1.1459157 -2.934214 -1.7372422 -5.598886 -1.9678121 -2.400629 7.343877 -0.7615487 1.5743061 1.8664954 -2.7406993 -0.2169318 0.78805983 0.01395205 -0.110269256 -4.459155 2.269314 -1.0872451 -3.1656473 -1.4847772 -0.09076939 -2.5970423
thursday 3.7492976 -6.032277 2.918379 -2.7399151 -1.3283362 1.1911486 -2.4133842 -3.053781 1.8197243 0.7621593 -0.76472956 -0.7093834 -0.33652553 2.488937 -0.64395493 -0.19323872 1.0769671 -1.0633918 4.7851286 2.541881 1.4712149 -4.3864408 -0.61057776 -5.275077 3.6514692 -1.6857778 -1.9988648 1.0425313 -6.1881685 -2.0906372 -2.7622674 -6.142869 -4.4895835 -5.798317 2.308787 -3.5009532 -0.22747014 -2.298487 0.8522842 -0.82118 -3.0689201 -1.1346589 0.8700151 3.572908 -1.2721384 5.6904936 5.7990103 4.0229583 0.49169978 -1.8692814 -0.59257656 1.3489105 5.615609 -2.0311515 5.8672166 -0.5522401 -0.28829947 1.1207898 -3.1740317 -3.8239224 2.053918 -0.6679535 -0.9362886 0.105227575 4.1818757 -1.1900489 -3.418773 0.83360445 -1.4538013 -3.5672803 0.38046122 2.0248868 -1.9284908 1.9370693 0.9626983 2.3342612 -1.4302645 3.4587276 -2.4964721 -6.6402116 1.3863486 -2.543097 1.3066849 -0.25743538 4.370455 -0.054277558 7.756882 4.849987 3.369352 6.7955956 1.9470339 2.824806 -2.636862 4.367602 3.0896482 5.544447 -2.906611 -5.2861357 1.6606487 0.07696144
tuesday 2.2869563 -7.6788144 2.0062788 -4.69298 0.26111403 -1.8528879 -2.0483737 0.15369026 1.7119559 -2.5668323 2.0006425 1.3889388 0.6306277 -3.2641804 -3.8669312 0.7200457 1.2023207 -2.6265137 4.744054 1.4966903 -0.6331021 -5.3048635 -0.794979 -4.3294125 2.7909997 -0.36038512 0.9884644 1.9720324 -4.3428426 1.6429256 2.0635087 -5.0564384 -0.016041543 -5.4422946 4.2473335 -3.1674736 -2.7421784 -1.2695401 -1.8816781 1.8573657 -5.065293 -4.9927607 -1.9581307 -1.2730948 -2.2333121 0.80204517 2.160835 5.0824943 2.3356633 2.8197966 -0.68739504 -0.27036437 5.887011 -0.47170675 5.937049 -5.436071 0.43412414 -1.231297 -5.366288 -2.8754385 2.3482053 -0.20456794 0.22569336 1.8978112 3.5859435 -3.798918 -2.5898097 -0.98775077 -1.8757147 -0.73084575 -1.4218924 3.8121004 -5.7520204 1.8782324 5.8122425 3.1250966 -0.21336322 -2.0521283 -3.0271115 -6.296836 0.46011412 -1.0606784 0.57999414 -0.93220913 1.0624081 -0.6463749 7.475017 2.8723207 0.6643308 5.908989 2.780754 -2.224223 -0.8657923 3.0844834 7.872906 4.4578996 -0.2637502 -1.5398555 4.742529 0.052401345
nonstop 0.9939039 -0.863803 0.65866977 0.70304507 -0.86093223 -0.7379828 2.3101728 -1.643387 -4.8812256 -0.6995825 0.67353266 -1.0838608 0.20301323 -2.2998888 -1.6603673 -1.2333629 0.89030457 -0.3843854 0.82689357 2.7805915 -2.8590891 -0.4649083 -0.3367421 -2.5392203 -2.8016267 -0.45657086 -0.37157932 2.1018548 1.9465518 -1.0173393 -0.08423535 1.0766491 -1.7676675 -0.111238524 -1.456011 1.6543939 2.1787844 3.2691376 1.4632072 0.47872415 -1.7381264 1.5488 -1.5095118 2.0910707 -0.9025806 0.34578326 -0.50950956 -0.4983804 -2.3005993 -0.64810354 0.7681768 -2.6687427 2.2220163 -0.3322119 -0.10466151 -1.6025493 -0.5101481 2.9986098 -2.5134068 0.48738128 0.5757586 -0.4252114 1.3955872 -1.7208129 -1.2610371 0.72577477 -2.1555 -0.6276528 -1.018986 -1.4942317 -0.7578025 -1.9423146 -1.9888018 -5.2188964 1.4636707 0.55993813 -4.4784923 0.1074932 1.2129624 0.76731724 -1.0841001 -0.1246109 0.32635766 -1.5994192 -1.4205725 -5.758173 2.4311564 0.12835468 0.60184824 -0.20254911 -4.759445 1.0109116 -3.933803 -1.2293719 0.049110964 5.6216145 -0.6427268 1.8551148 -0.9587557 -1.1444142
find -0.46814698 -2.7600684 6.2700195 6.195152 3.1460326 2.6619956 -0.6993594 0.7416045 -2.2790828 0.43113393 3.1743805 4.9345603 2.4077036 -2.200229 -0.62227744 0.8787968 0.5665278 1.6054994 5.3313165 -4.6792955 -0.87906957 -0.5117762 2.92749 2.9389567 -4.738932 0.82308644 -2.5351932 -0.8465376 -6.021456 4.0070186 -0.68536687 -4.909939 2.5887554 1.2858328 -1.6985748 1.9957441 6.7989697 3.1326363 1.9025874 1.642393 0.7110088 -1.0139195 1.0590802 0.415909 -0.1133069 -4.063314 0.01726428 1.4007388 5.065424 -0.698812 6.153359 3.095532 -3.883818 1.0879327 0.46641916 0.81731296 -2.4326642 -0.6921114 1.0648373 -0.29619834 1.881986 3.210377 1.7286216 -1.8849933 1.3466926 1.2491199 -1.179653 1.9467497 -0.001576607 2.5594926 -4.620173 6.3732553 -0.4823254 -6.305585 2.5417802 5.330167 -2.3570464 5.748119 0.75500554 -0.9369695 -7.7394586 1.5691515 1.4777718 4.72611 0.28111258 -1.9217886 0.9202798 1.8746902 1.9319518 -4.348305 -1.6922992 -1.3231889 -1.3743988 5.0058665 -10.194971 1.0400022 -0.193309 -0.50138164 -2.0656552 1.4189513
am 2.7589734 -5.806316 -2.8502426 -4.084975 -3.5162957 6.3434696 5.040635 -2.2895808 0.591342 -7.249482 -0.09309088 4.1819463 3.1038525 -1.5653753 1.2831885 -0.9129833 -0.37264612 -0.33597982 -1.7950512 -1.8759612 2.134617 -1.349206 -1.7138256 -3.7049057 -5.1995826 3.6417053 0.91333336 3.7489903 -1.4274335 0.13840528 2.9892058 -1.6401947 0.18373847 0.95701605 -6.4076 3.7283788 -0.6140353 1.6224048 0.91895354 0.3186154 0.38223395 -3.4347696 3.043545 3.7517476 -1.470479 -0.7645763 1.4902226 -1.703307 4.3490458 -4.81165 -3.5677311 -0.92289656 -4.007581 -4.820419 -1.0966414 2.4270697 1.0771899 -5.3565493 -0.7253228 -6.5146465 -0.9887006 -1.3228501 4.3698397 -3.4370058 0.7109413 3.926624 -3.4010425 -4.2856083 1.3582546 -2.5637276 -1.8680534 -5.657257 -0.35555962 -2.176732 3.6528897 2.396795 4.717462 3.98795 0.63214326 -3.0538075 0.124711625 0.8551851 -1.303429 0.12939726 -0.054216973 -6.02439 -3.4978974 -3.4024634 0.7706053 -5.257589 -0.086713806 1.5048589 -2.8207128 -6.9935293 -4.574832 -0.47444353 -2.5084763 -1.3957272 12.464841 -1.9860857
vegas 2.4411237 0.0029774113 1.2831978 1.5106541 -8.72474 -3.4390228 4.615586 1.9144168 0.7459705 -3.365498 -2.908228 -1.5672473 2.9306958 0.47964424 1.2277828 2.7750478 4.051669 -3.9019277 3.2034767 2.3220005 -1.663764 -3.7159417 -2.1123533 0.7138604 -0.077802025 0.21258374 4.6308866 5.188292 2.2939324 -0.60980356 -5.234754 -0.6477604 1.095255 -2.874402 4.2101316 -1.1513133 -0.06839975 -1.4661645 0.116131745 -3.3593383 5.144452 -2.3083599 -1.5089328 4.062423 0.8278103 -1.926204 -6.6610184 3.1953638 -0.22004649 4.9330573 -0.27318648 -1.1005585 -4.32334 -3.588315 3.9417748 -0.39829582 -3.7513092 -1.1925195 -3.3723986 2.7713053 3.62458 0.3899516 0.6760666 -0.3315909 5.1860886 2.2040548 -1.4901844 3.0322711 -1.0942174 4.5523243 4.031459 -5.7307014 -0.96678513 -2.9296434 0.94826955 -2.2430317 -1.7413644 0.8671284 -2.9501965 5.4523826 -10.190434 1.8835825 5.243154 4.4262853 1.035042 4.2467766 4.13532 0.6524094 4.786948 4.1770844 -4.013055 -0.20963775 3.6992376 2.4818096 -2.7374692 -3.2414467 6.869122 -0.29627678 -0.08834149 -3.3352036
las -0.6897432 -5.7992697 0.60784525 -4.9161377 1.5446379 -1.2350243 -3.849614 1.2640096 -2.80663 0.060140025 2.9441178 0.9009171 0.69128287 3.2449899 2.999588 0.7814783 2.6520936 3.2500193 -4.27935 -1.997605 2.0021286 5.168107 4.315881 3.1780887 -3.809284 2.2118137 2.1050382 3.7931528 -0.6636415 5.2431135 0.05538331 -1.1131463 -0.4842724 3.2633884 -0.6960784 5.0696173 -1.434575 1.9870192 -0.28400555 4.939212 -3.5697918 5.0457854 1.1144155 -2.010176 1.0887588 -7.8730516 0.03548973 -3.1325545 -2.9295766 3.4782646 -0.47282523 -5.675798 -0.563021 0.8761015 1.2290522 1.478041 -2.818183 -2.1137297 -3.624501 3.8149757 0.09025473 -1.0943177 6.6485085 -1.9292029 2.6853967 0.48752707 -2.301776 -0.5168643 -3.096309 -9.349784 1.3466778 -1.8951939 -5.205859 3.7933366 0.21312737 4.354534 -0.50790685 3.958121 -2.5023088 7.537247 0.17108221 -4.880074 -1.9692427 0.4956992 3.0325196 1.5864478 2.4989133 2.4048982 -7.332751 -0.17693704 1.6448594 0.15772821 -7.731259 3.0064266 -0.6433667 0.84110683 -3.248904 5.1902146 0.7222321 -1.3188634
miami -0.19883755 6.3737917 4.806799 -4.8850875 -2.3393328 3.6666749 -0.3425073 0.18624367 0.7787913 3.0899787 3.4978383 0.27506292 1.3609066 -1.0953652 4.6590867 4.6543145 2.7411706 -1.4300289 -0.783816 2.2255442 3.8188734 1.5958879 -1.447756 2.8076537 -4.9130926 0.013504863 -1.4746982 -0.99585754 -1.5687517 0.07452116 -3.9357517 2.8466218 2.6511047 1.3863857 -2.9756832 1.9862797 0.23381622 3.0823727 0.85233444 5.17023 -7.7832685 5.447735 -3.5137615 0.087155856 -2.1316926 -2.3351707 -6.2714148 4.011326 1.4715358 6.5407815 1.7511452 -5.029278 -1.1861271 3.1031387 1.8497909 1.3692522 -2.2260015 4.344853 2.1127198 -0.57922995 1.0770073 -5.5178633 1.9172012 -0.024092361 3.1261723 3.93817 -6.9284763 -1.1617144 1.2651569 -0.39524186 -2.3199918 -0.40669605 1.4289907 -3.7386963 -3.7242677 1.7674733 -0.50697684 5.391593 -0.82027066 4.6894894 -7.53296 -3.1479409 4.303291 0.50442475 5.2367487 2.3446522 8.486782 3.6628058 -2.7357118 2.689246 2.0711415 -2.12888 3.8986058 3.9841614 -0.29880935 -5.5269775 -1.1556189 1.2550317 3.9189005 -2.118301
DIGITDIGIT -2.4949062 1.7694114 -3.4656193 1.4604146 1.1774915 -2.759704 2.6795795 -2.589072 -0.08475096 -2.11505 2.1833463 -5.8592105 0.6668794 0.4231751 -1.1178504 2.0232682 -1.6186393 1.9938453 5.01023 -3.9506106 1.902183 -2.1059718 5.710482 -5.162104 2.0847726 4.2124934 1.0542568 0.95031255 2.0439177 4.0867 2.026366 5.0647244 -1.0997899 0.42472357 -0.68155617 0.75038415 4.312462 -0.26015624 4.5780497 -6.8003826 -0.3393964 2.7915657 -1.9015535 -0.8155846 7.3382673 -0.20992729 1.0941813 -2.7604144 4.433633 1.0412993 2.8045697 -1.8002961 3.9172182 -3.600631 0.5143471 -1.8776463 -1.193668 2.4180431 -6.464195 -3.791461 2.023418 2.2096386 -0.82234985 1.1788927 0.32783532 -4.459316 1.3451031 6.513877 0.6820586 3.5702872 1.7580647 -0.6775957 -0.78584707 -2.8418133 -4.717985 -2.6144238 -1.3611132 0.5368647 4.288968 0.1898993 2.1634827 -3.1751926 4.080384 -6.3371654 4.7095566 0.30372125 5.5911965 -0.6695488 -3.6595309 4.483857 3.8301983 6.201052 3.524884 6.579283 3.0990484 -6.9236913 0.9972206 4.4592056 1.9740692 -1.0001379
earliest -1.1185684 -2.1384785 1.5681534 5.210265 -1.4935486 -2.4597297 5.4042315 -0.1878574 -6.1440473 -3.405827 1.4691563 -8.016859 -1.0035354 -1.6031896 0.88547516 -2.9360247 1.2671797 -1.0915667 2.369302 -10.005409 -0.6513356 0.402474 4.4584723 -2.1519325 -2.527408 4.8170156 -5.551489 -1.9429822 5.4285555 1.7373953 3.6613986 0.67782944 -6.573768 2.2000532 -2.681219 3.3462772 -3.1627567 7.652675 -1.5009345 -2.3267827 -2.579229 -6.540828 3.6239958 8.679537 1.7496517 2.00181 1.100805 -2.3327475 1.8644485 -2.2268927 3.589972 -2.3328362 4.7689915 4.876212 6.015829 1.9356709 -4.982334 -4.5096955 -4.937992 -1.7961597 -5.904409 -3.8874497 4.171054 -3.4260669 -1.4720196 -5.7916307 -4.361383 0.80729395 3.6423028 1.7577561 -2.7076807 0.55367553 1.9421641 -0.40971944 -5.0395384 0.11137796 1.4101992 1.5431262 -4.5463815 5.9250755 3.2862327 4.748693 -3.2679482 -0.8856745 -2.2290118 2.5148292 -2.362145 -8.424498 6.900222 -0.2767551 -1.8691481 4.296011 1.0427538 0.7291432 2.6963887 3.728062 3.5321581 -3.3201697 -0.7731379 2.9617264
go 4.9260774 -2.1458707 2.2100163 -0.3356885 0.48426178 4.24498 3.2911534 -1.1578722 3.7939146 -2.021889 -3.2744553 -3.0258238 4.813614 -1.4429072 -2.3735657 -2.9916599 -0.43914774 1.13806 -0.29505274 6.8018923 -0.64618903 2.7705514 -6.6700473 -6.750091 1.211627 -1.4450815 -1.4213381 -0.80317366 -1.2956073 -1.0777714 4.9593725 5.933714 -2.384281 -3.860602 0.79333377 1.0417895 -4.2007265 3.1756616 -3.0379484 -2.445176 -3.087604 8.873407 5.301948 -2.7412298 8.517677 -0.57333094 -3.4215255 1.9969363 -2.4043982 4.03971 -0.44668335 -1.8370984 1.5682039 5.012619 -5.063789 -2.17135 -2.202062 0.31980363 -2.4603252 -4.4418693 0.994236 2.6306288 -0.29537082 -2.0038116 0.33507466 6.596493 -0.8003211 3.1727343 -2.182142 -1.3558596 -1.3528582 -2.8676121 -2.3657837 4.197901 5.195392 0.41600567 -1.71242 3.841193 2.059158 -0.11139184 0.5306861 6.3169146 0.38361275 0.3605584 -2.9051764 -2.4987822 -1.2086779 -5.3945975 3.6321092 -3.236389 1.5696485 3.1055214 5.0885196 -1.9252521 0.9804651 8.719537 2.755079 4.286237 -4.3232985 1.5011399
information 1.8715184 -3.3152013 3.2223656 -2.3202505 -0.9381753 -1.2299142 0.54587615 1.6525015 0.7654407 -0.5197434 -3.8383508 -0.44784382 4.763889 1.0684448 -1.306483 1.2544409 0.41823265 -0.71206814 3.952797 -2.4994168 -0.2323342 -4.629224 -0.8522639 -4.264394 -3.8410127 -1.927788 -0.09822761 -6.2206388 -3.0204518 1.1035919 -2.6810238 -0.89887846 -2.8228097 0.98820895 -3.2097042 -8.684857 -4.0373898 -5.2173114 2.7811513 -2.777321 -8.09791 -5.566824 0.269058 3.2848835 2.6647308 -0.2814292 -0.095252044 -4.3154445 -0.39430496 -0.40313148 7.250125 -9.715495 2.4763608 -0.055842463 5.55106 -3.5235467 -3.6869793 2.656088 0.4429036 1.7280533 -5.909679 1.3010281 -0.5369389 6.79738 0.17662597 0.8054409 -2.013568 -3.5803907 -1.384658 -5.272257 -1.1757151 1.0806186 -1.9916916 0.37792647 -3.4750013 -2.0067034 0.6462 6.467415 1.3746876 -1.0719544 -2.889642 -2.6844854 0.5751293 6.5030713 -3.4307249 -0.6893749 0.9436079 3.749898 1.5350963 5.3649096 4.184702 1.7276331 2.1695824 1.8664637 1.9729092 8.161188 -4.196027 -1.5458487 1.805442 -1.1806232
